{"learner":{"attributes":{"scikit_learn":"{\"_estimator_type\": \"classifier\"}"},"feature_names":["SeniorCitizen","tenure","MonthlyCharges","TotalCharges","gender_Male","Partner_Yes","Dependents_Yes","PhoneService_Yes","MultipleLines_No phone service","MultipleLines_Yes","InternetService_Fiber optic","InternetService_No","OnlineSecurity_No internet service","OnlineSecurity_Yes","OnlineBackup_No internet service","OnlineBackup_Yes","DeviceProtection_No internet service","DeviceProtection_Yes","TechSupport_No internet service","TechSupport_Yes","StreamingTV_No internet service","StreamingTV_Yes","StreamingMovies_No internet service","StreamingMovies_Yes","Contract_One year","Contract_Two year","PaperlessBilling_Yes","PaymentMethod_Credit card (automatic)","PaymentMethod_Electronic check","PaymentMethod_Mailed check"],"feature_types":["int","int","float","float","i","i","i","i","i","i","i","i","i","i","i","i","i","i","i","i","i","i","i","i","i","i","i","i","i","i"],"gradient_booster":{"model":{"gbtree_model_param":{"num_parallel_tree":"1","num_trees":"100"},"iteration_indptr":[0,1,2,3,4,5,6,7,8,9,10,11,12,13,14,15,16,17,18,19,20,21,22,23,24,25,26,27,28,29,30,31,32,33,34,35,36,37,38,39,40,41,42,43,44,45,46,47,48,49,50,51,52,53,54,55,56,57,58,59,60,61,62,63,64,65,66,67,68,69,70,71,72,73,74,75,76,77,78,79,80,81,82,83,84,85,86,87,88,89,90,91,92,93,94,95,96,97,98,99,100],"tree_info":[0,0,0,0,0,0,0,0,0,0,0,0,0,0,0,0,0,0,0,0,0,0,0,0,0,0,0,0,0,0,0,0,0,0,0,0,0,0,0,0,0,0,0,0,0,0,0,0,0,0,0,0,0,0,0,0,0,0,0,0,0,0,0,0,0,0,0,0,0,0,0,0,0,0,0,0,0,0,0,0,0,0,0,0,0,0,0,0,0,0,0,0,0,0,0,0,0,0,0,0],"trees":[{"base_weights":[-8.06647E-2,9.3810683E-1,-5.71955E-1,1.3290282E-1,2.04983E0,-1.0598592E0,3.2079495E-2,5.823897E-1,-5.3084433E-1,8.4988844E-1,1.7798154E0,-8.4019136E-1,-3.9721948E-1,4.6620187E-1,-6.914981E-1,1.0874498E0,-1.8927693E-1,-1.8857463E-1,-1.0192676E0,1.2960248E0,2.2927635E0,-5.4359955E-1,-1.0583202E0,-3.0550314E-4,9.189941E-1,-3.578297E-1,-1.0638707E0,1.3312992E0,7.594374E-2,3.7905756E-1,-7.364451E-1,7.5193256E-1,-4.2951167E-1,1.01622365E-1,-3.3515605E-1,1.4359449E0,3.8292852E-1,5.490947E-3,2.3550959E0,-7.820097E-3,-7.380544E-1,-3.6361644E-1,-6.8647426E-1,-1.505419E-1,5.442636E-1,1.1233512E0,-1.8181305E-1,-7.707608E-1,-4.42283E-2,-2.3876713E-1,-1.102553E0,2.847603E-1,4.871191E-1,2.3246028E-1,-3.4601133E-2,-3.3282302E-2,2.2168739E-1,-9.365012E-2,-2.8203225E-1,4.014942E-1,-2.1830764E-1,-3.669475E-2,-2.9992726E-1,-1.419502E-1,2.3963529E-1,-5.4912694E-2,4.4974115E-1,-2.7418455E-2,4.1871265E-1,5.083988E-1,7.7249914E-1,-7.789022E-2,2.3395886E-1,-3.0986048E-2,-2.6898965E-1,-3.0545568E-1,-1.5671039E-1,9.2345355E-3,-2.1989892E-1,3.2435334E-1,8.767965E-2,1.7072044E-1,4.046836E-1,-2.2935651E-1,6.374236E-2,-2.8975338E-1,-1.2361176E-1,1.9676419E-1,-5.876699E-2,2.3963529E-1,-2.682781E-1,-2.7798995E-1,-3.8616896E-1],"categories":[],"categories_nodes":[],"categories_segments":[],"categories_sizes":[],"default_left":[0,0,0,0,0,0,0,0,0,0,0,0,0,0,0,0,0,0,0,0,0,0,0,0,0,0,0,0,0,0,0,0,0,0,0,0,0,0,0,0,0,0,0,0,0,0,0,0,0,0,0,0,0,0,0,0,0,0,0,0,0,0,0,0,0,0,0,0,0,0,0,0,0,0,0,0,0,0,0,0,0,0,0,0,0,0,0,0,0,0,0,0,0],"id":0,"left_children":[1,3,5,7,9,11,13,15,17,-1,19,21,-1,23,25,27,29,31,33,35,37,39,41,43,45,47,49,51,53,55,57,59,61,63,-1,65,67,-1,69,71,73,-1,75,77,79,81,83,85,87,89,91,-1,-1,-1,-1,-1,-1,-1,-1,-1,-1,-1,-1,-1,-1,-1,-1,-1,-1,-1,-1,-1,-1,-1,-1,-1,-1,-1,-1,-1,-1,-1,-1,-1,-1,-1,-1,-1,-1,-1,-1,-1,-1],"loss_changes":[5.3332635E2,3.1008463E2,2.1186755E2,6.061693E1,2.5738281E1,2.1965729E1,1.0151353E2,4.736406E1,1.35394745E1,0E0,2.4557526E1,1.3648514E1,0E0,4.2656105E1,1.4678436E1,1.797422E1,1.5429227E1,1.154512E1,3.8032646E0,7.037735E0,7.406128E0,9.915558E0,6.349701E0,8.301219E0,2.3257103E1,8.4387455E0,1.5487213E0,5.049759E0,2.134208E0,4.4126263E0,1.880682E0,1.0051899E1,6.8953705E0,1.8275467E0,0E0,5.5057983E0,4.5735373E0,0E0,3.0624695E0,5.432776E0,6.939396E0,0E0,1.5940514E0,8.4212475E0,2.652462E0,1.0057358E1,4.046679E0,1.5741711E0,4.1896687E0,3.311508E0,5.600586E-1,0E0,0E0,0E0,0E0,0E0,0E0,0E0,0E0,0E0,0E0,0E0,0E0,0E0,0E0,0E0,0E0,0E0,0E0,0E0,0E0,0E0,0E0,0E0,0E0,0E0,0E0,0E0,0E0,0E0,0E0,0E0,0E0,0E0,0E0,0E0,0E0,0E0,0E0,0E0,0E0,0E0,0E0],"parents":[2147483647,0,0,1,1,2,2,3,3,4,4,5,5,6,6,7,7,8,8,10,10,11,11,13,13,14,14,15,15,16,16,17,17,18,18,19,19,20,20,21,21,22,22,23,23,24,24,25,25,26,26,27,27,28,28,29,29,30,30,31,31,32,32,33,33,35,35,36,36,38,38,39,39,40,40,42,42,43,43,44,44,45,45,46,46,47,47,48,48,49,49,50,50],"right_children":[2,4,6,8,10,12,14,16,18,-1,20,22,-1,24,26,28,30,32,34,36,38,40,42,44,46,48,50,52,54,56,58,60,62,64,-1,66,68,-1,70,72,74,-1,76,78,80,82,84,86,88,90,92,-1,-1,-1,-1,-1,-1,-1,-1,-1,-1,-1,-1,-1,-1,-1,-1,-1,-1,-1,-1,-1,-1,-1,-1,-1,-1,-1,-1,-1,-1,-1,-1,-1,-1,-1,-1,-1,-1,-1,-1,-1,-1],"split_conditions":[1.4E1,1E0,1E0,6E0,1.2025E2,1E0,5.6E1,1E0,1E0,8.4988844E-1,1E0,1E0,-3.9721948E-1,1E0,1E0,5.52E1,2.48E1,3.3025E2,1.93E1,1E0,1.584E2,1E0,1E0,1.0115E2,1E0,9.93E1,5.9E1,1E0,6.105E1,1.99E1,1.99E1,1E0,1E0,1.6535E2,-3.3515605E-1,6.95E1,1E0,5.490947E-3,8.045E1,1E0,1.8E1,-3.6361644E-1,2.35145E3,1E0,3.6455E3,1E0,1E0,1E0,1.0075E2,1E0,7.2E1,2.847603E-1,4.871191E-1,2.3246028E-1,-3.4601133E-2,-3.3282302E-2,2.2168739E-1,-9.365012E-2,-2.8203225E-1,4.014942E-1,-2.1830764E-1,-3.669475E-2,-2.9992726E-1,-1.419502E-1,2.3963529E-1,-5.4912694E-2,4.4974115E-1,-2.7418455E-2,4.1871265E-1,5.083988E-1,7.7249914E-1,-7.789022E-2,2.3395886E-1,-3.0986048E-2,-2.6898965E-1,-3.0545568E-1,-1.5671039E-1,9.2345355E-3,-2.1989892E-1,3.2435334E-1,8.767965E-2,1.7072044E-1,4.046836E-1,-2.2935651E-1,6.374236E-2,-2.8975338E-1,-1.2361176E-1,1.9676419E-1,-5.876699E-2,2.3963529E-1,-2.682781E-1,-2.7798995E-1,-3.8616896E-1],"split_indices":[1,10,10,1,3,25,1,11,11,0,9,24,0,28,25,2,3,3,2,29,3,7,23,2,24,2,1,26,3,2,2,13,15,3,0,2,19,0,2,0,1,0,3,19,3,9,9,28,2,19,1,0,0,0,0,0,0,0,0,0,0,0,0,0,0,0,0,0,0,0,0,0,0,0,0,0,0,0,0,0,0,0,0,0,0,0,0,0,0,0,0,0,0],"split_type":[0,0,0,0,0,0,0,0,0,0,0,0,0,0,0,0,0,0,0,0,0,0,0,0,0,0,0,0,0,0,0,0,0,0,0,0,0,0,0,0,0,0,0,0,0,0,0,0,0,0,0,0,0,0,0,0,0,0,0,0,0,0,0,0,0,0,0,0,0,0,0,0,0,0,0,0,0,0,0,0,0,0,0,0,0,0,0,0,0,0,0,0,0],"sum_hessian":[1.0634883E3,3.4570416E2,7.177841E2,2.0114062E2,1.4456354E2,3.9664368E2,3.2114044E2,1.1999982E2,8.1140816E1,3.4630817E1,1.0993272E2,2.1885872E2,1.7778496E2,2.0093929E2,1.2020116E2,7.228177E1,4.771805E1,4.8523415E1,3.26174E1,5.838917E1,5.1543545E1,9.422804E1,1.24630684E2,9.946294E1,1.0147636E2,6.442943E1,5.5771725E1,5.798649E1,1.429528E1,2.355701E1,2.4161037E1,9.463073E0,3.906034E1,2.6174457E0,2.9999954E1,5.013415E1,8.255021E0,1.4093938E0,5.013415E1,2.536909E1,6.8858955E1,8.657705E1,3.805363E1,7.852337E1,2.0939566E1,8.5570335E1,1.5906015E1,2.7181166E1,3.7248264E1,2.8187876E0,5.2952938E1,2.6979824E1,3.1006664E1,2.4161036E0,1.1879176E1,1.026844E1,1.328857E1,8.657704E0,1.5503332E1,6.845627E0,2.6174457E0,2.6174456E1,1.2885886E1,1.6107358E0,1.0067098E0,1.8120778E0,4.8322075E1,6.241601E0,2.0134196E0,1.4697964E1,3.5436188E1,1.9731514E1,5.637575E0,1.4093938E1,5.4765015E1,1.0872466E1,2.7181166E1,6.0603935E1,1.7919436E1,5.637575E0,1.530199E1,2.5771772E1,5.9798565E1,6.0402594E0,9.865757E0,1.6510042E1,1.0671124E1,6.0402594E0,3.1208006E1,1.0067098E0,1.8120778E0,3.0201296E1,2.2751642E1],"tree_param":{"num_deleted":"0","num_feature":"30","num_nodes":"93","size_leaf_vector":"1"}},{"base_weights":[-8.499538E-2,1.8198441E-1,-1.1152182E0,4.6756542E-1,-6.7667526E-1,-3.5949355E-1,-8.245199E-1,2.4732102E-2,7.922469E-1,-1.0269691E0,-2.9189906E-1,-6.2872756E-1,-3.4168497E-1,4.6651945E-1,-3.4871802E-1,1.1764513E0,4.091215E-1,-1.1028475E0,-6.244268E-1,-5.102215E-1,4.807574E-3,-8.5278994E-1,-3.4650305E-1,-6.559401E-2,6.969806E-1,1.6980189E-1,-5.2606374E-1,1.2421362E0,4.6596447E-1,5.2397156E-1,-2.0258142E-1,-1.1644646E-1,-3.3291376E-1,-7.31653E-1,1.14049934E-1,1.8850917E-1,-5.6322753E-1,-2.1150541E-1,3.5152143E-1,-1.19043656E-1,-1.1340038E0,8.022848E-1,-7.012803E-1,1.012618E-1,-1.7620537E-1,1.7174625E-1,4.2953268E-1,2.858893E-1,-5.9717847E-4,-1.9847818E-1,-4.109514E-2,4.2831638E-1,3.0779913E-1,-1.1692224E-2,4.5724675E-1,1.05932385E-1,2.5754339E-1,2.1387191E-2,-2.2071518E-1,-1.0395998E-1,-2.975912E-1,-9.796745E-2,2.359237E-1,-2.8116703E-1,-1.3451675E-1,8.570565E-2,-1.1865733E-1,1.5731607E-1,-9.309878E-2,1.0627026E-1,-2.4666299E-1,-1.10824384E-1,-3.5757366E-1,-2.2031187E-1,4.7392783E-1,-1.2697658E-2,-2.6306167E-1],"categories":[],"categories_nodes":[],"categories_segments":[],"categories_sizes":[],"default_left":[0,0,0,0,0,0,0,0,0,0,0,0,0,0,0,0,0,0,0,0,0,0,0,0,0,0,0,0,0,0,0,0,0,0,0,0,0,0,0,0,0,0,0,0,0,0,0,0,0,0,0,0,0,0,0,0,0,0,0,0,0,0,0,0,0,0,0,0,0,0,0,0,0,0,0,0,0],"id":1,"left_children":[1,3,5,7,9,-1,11,13,15,17,19,21,-1,23,25,27,29,31,33,35,37,39,41,43,45,47,49,51,53,55,57,-1,-1,59,-1,61,63,65,67,69,71,73,75,-1,-1,-1,-1,-1,-1,-1,-1,-1,-1,-1,-1,-1,-1,-1,-1,-1,-1,-1,-1,-1,-1,-1,-1,-1,-1,-1,-1,-1,-1,-1,-1,-1,-1],"loss_changes":[2.8466275E2,2.0193909E2,4.156891E0,8.877911E1,2.7414635E1,0E0,2.3961868E0,4.3437763E1,5.1966385E1,2.586792E0,6.4403305E0,1.8157558E0,0E0,1.4832914E1,1.3212908E1,7.6987305E0,1.2747437E1,5.5389404E-3,2.3585162E0,2.227066E0,3.308287E0,3.5640106E0,7.2711735E0,8.055574E0,6.8851204E0,4.997084E0,5.529888E0,5.0236664E0,8.934764E0,8.3713875E0,4.310818E0,0E0,0E0,1.4399881E0,0E0,1.7310218E0,1.8765564E0,2.5995567E0,2.1011066E0,2.3160493E0,1.2831116E-1,6.357485E0,1.4797854E0,0E0,0E0,0E0,0E0,0E0,0E0,0E0,0E0,0E0,0E0,0E0,0E0,0E0,0E0,0E0,0E0,0E0,0E0,0E0,0E0,0E0,0E0,0E0,0E0,0E0,0E0,0E0,0E0,0E0,0E0,0E0,0E0,0E0,0E0],"parents":[2147483647,0,0,1,1,2,2,3,3,4,4,6,6,7,7,8,8,9,9,10,10,11,11,13,13,14,14,15,15,16,16,17,17,18,18,19,19,20,20,21,21,22,22,23,23,24,24,25,25,26,26,27,27,28,28,29,29,30,30,33,33,35,35,36,36,37,37,38,38,39,39,40,40,41,41,42,42],"right_children":[2,4,6,8,10,-1,12,14,16,18,20,22,-1,24,26,28,30,32,34,36,38,40,42,44,46,48,50,52,54,56,58,-1,-1,60,-1,62,64,66,68,70,72,74,76,-1,-1,-1,-1,-1,-1,-1,-1,-1,-1,-1,-1,-1,-1,-1,-1,-1,-1,-1,-1,-1,-1,-1,-1,-1,-1,-1,-1,-1,-1,-1,-1,-1,-1],"split_conditions":[1E0,1E0,9.355E1,1E0,1E0,-3.5949355E-1,7.2E1,6E0,1.5E1,1E0,1E2,1.0575E2,-3.4168497E-1,2.085E1,1E0,1E0,5.4E1,3.815E1,5.58105E3,9.9945E2,1E0,9.85E1,1.089E2,2.065E1,1E0,3.3025E2,1E0,5E0,9.39E1,1E0,1E0,-1.1644646E-1,-3.3291376E-1,1E0,1.14049934E-1,8.642E2,2.35145E3,1E0,7.26695E3,1E0,4.4E1,1E0,6.49615E3,1.012618E-1,-1.7620537E-1,1.7174625E-1,4.2953268E-1,2.858893E-1,-5.9717847E-4,-1.9847818E-1,-4.109514E-2,4.2831638E-1,3.0779913E-1,-1.1692224E-2,4.5724675E-1,1.05932385E-1,2.5754339E-1,2.1387191E-2,-2.2071518E-1,-1.0395998E-1,-2.975912E-1,-9.796745E-2,2.359237E-1,-2.8116703E-1,-1.3451675E-1,8.570565E-2,-1.1865733E-1,1.5731607E-1,-9.309878E-2,1.0627026E-1,-2.4666299E-1,-1.10824384E-1,-3.5757366E-1,-2.2031187E-1,4.7392783E-1,-1.2697658E-2,-2.6306167E-1],"split_indices":[25,24,2,10,23,0,1,1,1,28,2,2,0,2,7,13,1,3,3,3,28,2,2,3,0,3,28,1,2,0,13,0,0,5,0,3,3,17,3,27,1,26,3,0,0,0,0,0,0,0,0,0,0,0,0,0,0,0,0,0,0,0,0,0,0,0,0,0,0,0,0,0,0,0,0,0,0],"split_type":[0,0,0,0,0,0,0,0,0,0,0,0,0,0,0,0,0,0,0,0,0,0,0,0,0,0,0,0,0,0,0,0,0,0,0,0,0,0,0,0,0,0,0,0,0,0,0,0,0,0,0,0,0,0,0,0,0,0,0,0,0,0,0,0,0,0,0,0,0,0,0,0,0,0,0,0,0],"sum_hessian":[1.0332163E3,8.212219E2,2.1199437E2,6.166021E2,2.0461978E2,1.6244003E2,4.9554333E1,2.612962E2,3.553059E2,1.0623564E2,9.838415E1,3.238691E1,1.7167423E1,1.19582375E2,1.4171384E2,1.7636926E2,1.7893666E2,8.792269E1,1.8312948E1,5.626423E1,4.2119915E1,1.6926794E1,1.5460116E1,3.6355736E1,8.322664E1,3.6127506E1,1.0558633E2,1.6075873E2,1.5610526E1,1.5077196E2,2.816471E1,1.3839679E0,8.653873E1,1.67923E1,1.5206492E0,3.7870193E0,5.247721E1,2.6177732E1,1.5942182E1,5.084245E0,1.1842549E1,3.3502972E0,1.2109819E1,2.0708488E1,1.5647248E1,7.269017E1,1.05364685E1,5.681171E0,3.0446337E1,7.7789215E1,2.7797112E1,8.3476875E1,7.728186E1,1.1219887E1,4.3906393E0,1.0115715E2,4.9614803E1,1.9178822E1,8.985888E0,7.712883E0,9.079416E0,2.2782416E0,1.5087777E0,1.0645763E1,4.1831448E1,6.9222918E0,1.9255442E1,1.2805321E1,3.136861E0,3.3354764E0,1.7487686E0,1.3533243E0,1.0489224E1,1.1442183E0,2.2060788E0,2.809074E0,9.300745E0],"tree_param":{"num_deleted":"0","num_feature":"30","num_nodes":"77","size_leaf_vector":"1"}},{"base_weights":[-7.7839434E-2,1.2239841E-1,-1.0087659E0,3.214332E-1,-5.553468E-1,-3.3028838E-1,-7.132887E-1,1.3800764E-2,5.365096E-1,-9.026762E-1,-2.2248465E-1,-5.2990884E-1,-3.1189278E-1,3.836945E-1,-2.1759333E-1,7.7992105E-1,2.4010609E-1,-9.8450506E-1,-5.1117545E-1,-3.8154647E-1,5.591889E-2,-4.0946034E-1,-3.1089407E-1,1.8523574E-1,7.617184E-1,1.1811505E-1,-3.4124705E-1,1.153072E0,6.746201E-1,3.625078E-1,-1.6718899E-1,-9.974843E-2,-2.975403E-1,-7.3428327E-1,2.4818515E-2,-1.4924558E-1,-6.79021E-1,2.3343293E-1,-3.9452907E-1,-6.677622E-1,-1.104492E-1,3.9470885E-2,2.9398862E-1,3.5684946E-1,1.6209108E-1,5.322102E-3,3.133496E-1,-4.46631E-2,-1.9383444E-1,3.5443294E-1,6.198617E-2,1.4674664E-1,2.7299675E-1,5.6915056E-2,1.9933823E-1,1.1223515E-3,-1.9623755E-1,-3.0874348E-1,-1.1854879E-1,1.3587837E-1,-8.748337E-2,-9.491655E-2,2.1251325E-1,-2.3010795E-1,-8.105684E-3,-1.0504662E-1,1.4803903E-1,1.5191972E-1,-2.3720755E-1,6.9252126E-2,-2.832469E-1,1.50639E-1,-2.0378006E-1],"categories":[],"categories_nodes":[],"categories_segments":[],"categories_sizes":[],"default_left":[0,0,0,0,0,0,0,0,0,0,0,0,0,0,0,0,0,0,0,0,0,0,0,0,0,0,0,0,0,0,0,0,0,0,0,0,0,0,0,0,0,0,0,0,0,0,0,0,0,0,0,0,0,0,0,0,0,0,0,0,0,0,0,0,0,0,0,0,0,0,0,0,0],"id":2,"left_children":[1,3,5,7,9,-1,11,13,15,17,19,21,-1,23,25,27,29,31,33,35,37,39,-1,41,43,45,47,49,51,53,55,-1,-1,57,59,61,63,65,67,69,71,-1,-1,-1,-1,-1,-1,-1,-1,-1,-1,-1,-1,-1,-1,-1,-1,-1,-1,-1,-1,-1,-1,-1,-1,-1,-1,-1,-1,-1,-1,-1,-1],"loss_changes":[1.8259175E2,1.089691E2,3.938034E0,4.1281914E1,2.1007622E1,0E0,2.0867958E0,2.2148678E1,2.6308609E1,2.3621902E0,4.2282495E0,1.4212761E0,0E0,7.3288727E0,6.6500745E0,7.1279984E0,8.388196E0,1.702118E-2,2.1160893E0,4.0853605E0,2.923829E0,1.9418635E0,0E0,2.712133E0,2.5735645E0,4.0360584E0,6.7434216E0,9.070778E-1,6.510071E0,6.591799E0,3.2721338E0,0E0,0E0,8.3520174E-1,9.615895E-1,5.2844124E0,1.4874763E0,4.123064E0,4.1061225E0,3.6463118E0,4.9731855E0,0E0,0E0,0E0,0E0,0E0,0E0,0E0,0E0,0E0,0E0,0E0,0E0,0E0,0E0,0E0,0E0,0E0,0E0,0E0,0E0,0E0,0E0,0E0,0E0,0E0,0E0,0E0,0E0,0E0,0E0,0E0,0E0],"parents":[2147483647,0,0,1,1,2,2,3,3,4,4,6,6,7,7,8,8,9,9,10,10,11,11,13,13,14,14,15,15,16,16,17,17,18,18,19,19,20,20,21,21,23,23,24,24,25,25,26,26,27,27,28,28,29,29,30,30,33,33,34,34,35,35,36,36,37,37,38,38,39,39,40,40],"right_children":[2,4,6,8,10,-1,12,14,16,18,20,22,-1,24,26,28,30,32,34,36,38,40,-1,42,44,46,48,50,52,54,56,-1,-1,58,60,62,64,66,68,70,72,-1,-1,-1,-1,-1,-1,-1,-1,-1,-1,-1,-1,-1,-1,-1,-1,-1,-1,-1,-1,-1,-1,-1,-1,-1,-1,-1,-1,-1,-1,-1,-1],"split_conditions":[1E0,1E0,9.355E1,1E0,1E0,-3.3028838E-1,7.2E1,4E0,1.8E1,1E0,1.0145E2,1E0,-3.1189278E-1,1E0,1E0,1.2025E2,1E0,3.815E1,8.245E1,1E0,1E0,1.0575E2,-3.1089407E-1,1E0,1E0,5.4E1,1.8E1,1E0,1E0,9.575E1,1E0,-9.974843E-2,-2.975403E-1,1E0,1E0,1E0,6.5E1,5.2E1,5.06965E3,9.66E1,1.1035E2,3.9470885E-2,2.9398862E-1,3.5684946E-1,1.6209108E-1,5.322102E-3,3.133496E-1,-4.46631E-2,-1.9383444E-1,3.5443294E-1,6.198617E-2,1.4674664E-1,2.7299675E-1,5.6915056E-2,1.9933823E-1,1.1223515E-3,-1.9623755E-1,-3.0874348E-1,-1.1854879E-1,1.3587837E-1,-8.748337E-2,-9.491655E-2,2.1251325E-1,-2.3010795E-1,-8.105684E-3,-1.0504662E-1,1.4803903E-1,1.5191972E-1,-2.3720755E-1,6.9252126E-2,-2.832469E-1,1.50639E-1,-2.0378006E-1],"split_indices":[25,24,2,10,23,0,1,1,1,28,2,0,0,28,7,3,13,3,2,13,6,2,0,17,7,2,1,27,21,2,19,0,0,4,4,29,1,1,3,2,2,0,0,0,0,0,0,0,0,0,0,0,0,0,0,0,0,0,0,0,0,0,0,0,0,0,0,0,0,0,0,0,0],"split_type":[0,0,0,0,0,0,0,0,0,0,0,0,0,0,0,0,0,0,0,0,0,0,0,0,0,0,0,0,0,0,0,0,0,0,0,0,0,0,0,0,0,0,0,0,0,0,0,0,0,0,0,0,0,0,0,0,0,0,0,0,0,0,0,0,0,0,0,0,0,0,0,0,0],"sum_hessian":[9.778717E2,8.054844E2,1.7238731E2,6.230406E2,1.8244382E2,1.293129E2,4.3074425E1,2.567973E2,3.662433E2,8.8443954E1,9.399986E1,2.9257956E1,1.3816469E1,9.857022E1,1.5822707E2,2.0020244E2,1.6604085E2,7.1900986E1,1.6542963E1,5.9585865E1,3.4413998E1,2.5097153E1,4.1608024E0,6.561369E1,3.2956528E1,4.2604523E1,1.1562254E2,4.1871994E1,1.5833044E2,1.2775688E2,3.828397E1,1.3110365E0,7.058995E1,1.1419601E1,5.123362E0,3.4301323E1,2.5284542E1,2.5031338E1,9.382658E0,1.2803535E1,1.2293617E1,6.2555042E1,3.0586526E0,9.748971E0,2.3207556E1,3.9359074E1,3.24545E0,7.180333E1,4.3819218E1,4.04123E1,1.4596926E0,9.027463E1,6.805582E1,8.229328E1,4.5463596E1,2.9071321E1,9.2126465E0,5.020011E0,6.39959E0,1.9941009E0,3.129261E0,2.923481E1,5.0665116E0,2.2122137E1,3.1624036E0,7.6086335E0,1.7422705E1,2.7807019E0,6.601956E0,3.0505407E0,9.7529955E0,5.9755654E0,6.318052E0],"tree_param":{"num_deleted":"0","num_feature":"30","num_nodes":"73","size_leaf_vector":"1"}},{"base_weights":[-6.7917176E-2,8.474538E-2,-9.2044103E-1,2.282866E-1,-4.545578E-1,-3.0781046E-1,-6.1586314E-1,2.9978931E-2,4.219234E-1,-7.9645324E-1,-1.7052703E-1,-4.4393715E-1,-9.5939666E-1,2.9596305E-1,-1.01329744E-1,7.153474E-2,5.289757E-1,-8.840746E-1,-4.239369E-1,-2.0158009E-1,6.174235E-1,-3.100924E-1,-3.3354667E-1,-1.20694004E-1,-3.0741334E-1,1.2285465E-1,7.7460366E-1,-2.6768765E-1,2.2068408E-1,2.8068557E-1,-4.5488623E-1,6.547018E-1,1.9593452E-1,-8.5573986E-2,-2.6759565E-1,-6.336093E-1,2.2781655E-2,-1.6141501E-1,-2.9986835E-1,-1.0091946E-1,3.850887E-1,-2.0260152E-1,-2.7566814E-1,-1.7029539E-1,5.56212E-2,3.465122E-1,1.02963015E-1,-1.1887317E-1,-2.6769243E-2,1.0183746E-1,-1.13263756E-1,1.7481613E-1,-5.285241E-2,-1.7670947E-1,5.4975282E-2,1.50963E-1,2.5714436E-1,1.1318516E-1,-1.454214E-1,5.3713187E-3,-2.2359192E-1,1.047268E-1,-1.045339E-1,-8.8963E-2,4.71895E-3,-1.7673951E-1,6.6243564E-3],"categories":[],"categories_nodes":[],"categories_segments":[],"categories_sizes":[],"default_left":[0,0,0,0,0,0,0,0,0,0,0,0,0,0,0,0,0,0,0,0,0,0,0,0,0,0,0,0,0,0,0,0,0,0,0,0,0,0,0,0,0,0,0,0,0,0,0,0,0,0,0,0,0,0,0,0,0,0,0,0,0,0,0,0,0,0,0],"id":3,"left_children":[1,3,5,7,9,-1,11,13,15,17,19,21,23,25,27,29,31,33,35,37,39,-1,41,-1,-1,43,45,47,49,51,53,55,57,-1,-1,59,61,63,-1,-1,-1,65,-1,-1,-1,-1,-1,-1,-1,-1,-1,-1,-1,-1,-1,-1,-1,-1,-1,-1,-1,-1,-1,-1,-1,-1,-1],"loss_changes":[1.2030274E2,6.082376E1,3.8829117E0,2.3801067E1,1.5908279E1,0E0,1.8562784E0,1.0768287E1,1.1728863E1,2.0634308E0,2.3637526E0,1.4528084E0,2.5348663E-2,8.345672E0,1.1125776E1,8.337813E0,9.926323E0,2.7679443E-2,1.5267358E0,2.6848495E0,2.7931745E0,0E0,1.7097931E0,0E0,0E0,3.3878744E0,4.0133457E0,3.1000147E0,5.1672573E0,7.551861E0,1.955626E0,4.9017715E0,8.482261E0,0E0,0E0,8.155198E-1,8.6332417E-1,2.0570269E0,0E0,0E0,0E0,1.8799294E0,0E0,0E0,0E0,0E0,0E0,0E0,0E0,0E0,0E0,0E0,0E0,0E0,0E0,0E0,0E0,0E0,0E0,0E0,0E0,0E0,0E0,0E0,0E0,0E0,0E0],"parents":[2147483647,0,0,1,1,2,2,3,3,4,4,6,6,7,7,8,8,9,9,10,10,11,11,12,12,13,13,14,14,15,15,16,16,17,17,18,18,19,19,20,20,22,22,25,25,26,26,27,27,28,28,29,29,30,30,31,31,32,32,35,35,36,36,37,37,41,41],"right_children":[2,4,6,8,10,-1,12,14,16,18,20,22,24,26,28,30,32,34,36,38,40,-1,42,-1,-1,44,46,48,50,52,54,56,58,-1,-1,60,62,64,-1,-1,-1,66,-1,-1,-1,-1,-1,-1,-1,-1,-1,-1,-1,-1,-1,-1,-1,-1,-1,-1,-1,-1,-1,-1,-1,-1,-1],"split_conditions":[1E0,1E0,9.355E1,1E0,1E0,-3.0781046E-1,7.2E1,5E0,1E0,1E0,7.5767E3,4.51585E3,1.0365E2,6.58E1,1E0,1E0,2.7E1,3.815E1,8.245E1,7.1E1,1.0945E2,-3.100924E-1,1E0,-1.20694004E-1,-3.0741334E-1,1.945E1,1E0,7E1,5.1E1,1E1,9.88E1,1E0,1E0,-8.5573986E-2,-2.6759565E-1,1.3E1,8.985E1,1E2,-2.9986835E-1,-1.0091946E-1,3.850887E-1,1E0,-2.7566814E-1,-1.7029539E-1,5.56212E-2,3.465122E-1,1.02963015E-1,-1.1887317E-1,-2.6769243E-2,1.0183746E-1,-1.13263756E-1,1.7481613E-1,-5.285241E-2,-1.7670947E-1,5.4975282E-2,1.50963E-1,2.5714436E-1,1.1318516E-1,-1.454214E-1,5.3713187E-3,-2.2359192E-1,1.047268E-1,-1.045339E-1,-8.8963E-2,4.71895E-3,-1.7673951E-1,6.6243564E-3],"split_indices":[25,24,2,28,23,0,1,1,26,28,3,3,2,2,23,15,1,3,2,1,2,0,0,0,0,2,29,2,1,1,2,9,19,0,0,1,2,2,0,0,0,26,0,0,0,0,0,0,0,0,0,0,0,0,0,0,0,0,0,0,0,0,0,0,0,0,0],"split_type":[0,0,0,0,0,0,0,0,0,0,0,0,0,0,0,0,0,0,0,0,0,0,0,0,0,0,0,0,0,0,0,0,0,0,0,0,0,0,0,0,0,0,0,0,0,0,0,0,0,0,0,0,0,0,0,0,0,0,0,0,0,0,0,0,0,0,0],"sum_hessian":[9.227508E2,7.8337195E2,1.3937883E2,6.1915424E2,1.6421771E2,1.017385E2,3.7640324E1,3.0645837E2,3.1269586E2,7.3699524E1,9.051819E1,2.6613503E1,1.102682E1,1.0087268E2,2.055857E2,7.356885E1,2.3912701E2,5.8553593E1,1.5145931E1,8.780209E1,2.7161012E0,2.8776495E0,2.3735853E1,1.9084882E0,9.118332E0,7.500319E1,2.5869486E1,1.3566666E2,6.991903E1,5.298452E1,2.0584328E1,1.7289264E2,6.6234375E1,1.2466027E0,5.730699E1,1.00231085E1,5.1228223E0,8.473916E1,3.0629292E0,1.3205265E0,1.3955746E0,2.0496748E1,3.239105E0,5.5590844E0,6.944411E1,1.2855249E1,1.3014236E1,7.814929E1,5.751736E1,5.8697617E1,1.1221415E1,3.1731213E1,2.1253307E1,1.7072418E1,3.5119085E0,1.0088514E2,7.20075E1,5.2652157E1,1.3582221E1,1.5897895E0,8.433319E0,2.758101E0,2.3647213E0,4.768808E1,3.7051083E1,6.9383607E0,1.3558387E1],"tree_param":{"num_deleted":"0","num_feature":"30","num_nodes":"67","size_leaf_vector":"1"}},{"base_weights":[-5.912172E-2,5.7759844E-2,-8.3784205E-1,1.6154513E-1,-3.6568975E-1,-2.8840825E-1,-5.275599E-1,-5.7907157E-2,2.6216784E-1,-6.9770193E-1,-1.2671381E-1,-3.6815438E-1,-8.9209855E-1,9.1699354E-2,-2.4769033E-1,3.4534773E-1,-1.4604783E-1,-7.908871E-1,-3.4586447E-1,-9.281711E-2,-6.593843E-1,-2.7625096E-1,-2.7116096E-1,-2.9166207E-1,-8.413378E-2,-1.4501852E-1,2.9408202E-1,-3.1880575E-1,2.444425E-1,4.161794E-1,-4.9371634E-2,1.6859084E-2,-6.0434544E-1,-4.1630322E-1,-8.197527E-1,-5.559277E-1,3.0890537E-2,-1.2983173E-1,8.9153844E-1,-2.8486034E-1,7.6053075E-2,1.9277431E-1,-4.2483774E-1,-2.640586E-1,-2.932751E-2,1.3511877E-1,-1.314345E-1,-1.1831666E-1,2.364426E-2,3.779115E-1,-8.747752E-2,1.4069098E-1,-4.9049124E-2,9.5730774E-2,-6.0804218E-2,-5.9746873E-2,1.822535E-1,-2.4326031E-1,-1.088407E-1,-2.090181E-1,1.2536937E-1,-2.9305142E-1,-2.1232365E-1,-2.3852982E-2,-2.8720853E-1,2.1665742E-1,-7.973927E-2,-1.9777374E-2,-1.5182835E-1,5.607202E-2,3.5781005E-1,-1.575486E-1,1.8970568E-1,-2.5625733E-1,-4.9395908E-2],"categories":[],"categories_nodes":[],"categories_segments":[],"categories_sizes":[],"default_left":[0,0,0,0,0,0,0,0,0,0,0,0,0,0,0,0,0,0,0,0,0,0,0,0,0,0,0,0,0,0,0,0,0,0,0,0,0,0,0,0,0,0,0,0,0,0,0,0,0,0,0,0,0,0,0,0,0,0,0,0,0,0,0,0,0,0,0,0,0,0,0,0,0,0,0],"id":4,"left_children":[1,3,5,7,9,-1,11,13,15,17,19,21,23,25,27,29,31,33,35,37,39,-1,41,-1,-1,43,45,47,49,51,53,55,57,59,61,63,65,67,69,-1,-1,71,73,-1,-1,-1,-1,-1,-1,-1,-1,-1,-1,-1,-1,-1,-1,-1,-1,-1,-1,-1,-1,-1,-1,-1,-1,-1,-1,-1,-1,-1,-1,-1,-1],"loss_changes":[7.988021E1,3.3616215E1,3.882309E0,1.3572441E1,1.1861692E1,0E0,1.6953669E0,5.5260673E0,1.4349876E1,1.7858963E0,1.5421318E0,1.1405406E0,2.1210194E-1,5.270185E0,3.077703E0,9.809895E0,5.3847847E0,1.8729973E-1,1.1987805E0,3.2000232E0,1.6045284E0,0E0,1.7559023E0,0E0,0E0,1.68461E0,6.967763E0,2.2948256E0,6.564834E0,9.164425E0,3.1245284E0,7.0213504E0,6.488972E-1,1.5846463E0,8.905411E-2,1.7671983E0,1.4824306E0,1.9493458E0,4.5504904E-1,0E0,0E0,2.3929355E0,1.8645091E0,0E0,0E0,0E0,0E0,0E0,0E0,0E0,0E0,0E0,0E0,0E0,0E0,0E0,0E0,0E0,0E0,0E0,0E0,0E0,0E0,0E0,0E0,0E0,0E0,0E0,0E0,0E0,0E0,0E0,0E0,0E0,0E0],"parents":[2147483647,0,0,1,1,2,2,3,3,4,4,6,6,7,7,8,8,9,9,10,10,11,11,12,12,13,13,14,14,15,15,16,16,17,17,18,18,19,19,20,20,22,22,25,25,26,26,27,27,28,28,29,29,30,30,31,31,32,32,33,33,34,34,35,35,36,36,37,37,38,38,41,41,42,42],"right_children":[2,4,6,8,10,-1,12,14,16,18,20,22,24,26,28,30,32,34,36,38,40,-1,42,-1,-1,44,46,48,50,52,54,56,58,60,62,64,66,68,70,-1,-1,72,74,-1,-1,-1,-1,-1,-1,-1,-1,-1,-1,-1,-1,-1,-1,-1,-1,-1,-1,-1,-1,-1,-1,-1,-1,-1,-1,-1,-1,-1,-1,-1,-1],"split_conditions":[1E0,1E0,9.355E1,1E0,1E0,-2.8840825E-1,7.2E1,1E1,1E0,1E0,7.1E1,4.51585E3,1E0,4.495E1,4.0256E3,1E0,4.3E1,1E1,3.16955E3,7.47585E3,1.0635E2,-2.7625096E-1,5.9E1,-2.9166207E-1,-8.413378E-2,1.92E1,1E0,1E0,4.55485E3,1E0,5.478E2,9.39E1,9.11E1,8E0,2.075E1,1E0,3.75645E3,6.668E3,1E0,-2.8486034E-1,7.6053075E-2,1E0,6.6E1,-2.640586E-1,-2.932751E-2,1.3511877E-1,-1.314345E-1,-1.1831666E-1,2.364426E-2,3.779115E-1,-8.747752E-2,1.4069098E-1,-4.9049124E-2,9.5730774E-2,-6.0804218E-2,-5.9746873E-2,1.822535E-1,-2.4326031E-1,-1.088407E-1,-2.090181E-1,1.2536937E-1,-2.9305142E-1,-2.1232365E-1,-2.3852982E-2,-2.8720853E-1,2.1665742E-1,-7.973927E-2,-1.9777374E-2,-1.5182835E-1,5.607202E-2,3.5781005E-1,-1.575486E-1,1.8970568E-1,-2.5625733E-1,-4.9395908E-2],"split_indices":[25,24,2,26,23,0,1,1,13,28,1,3,28,2,3,19,1,1,3,3,2,0,1,0,0,2,13,0,3,11,3,2,2,1,2,5,3,3,4,0,0,26,1,0,0,0,0,0,0,0,0,0,0,0,0,0,0,0,0,0,0,0,0,0,0,0,0,0,0,0,0,0,0,0,0],"split_type":[0,0,0,0,0,0,0,0,0,0,0,0,0,0,0,0,0,0,0,0,0,0,0,0,0,0,0,0,0,0,0,0,0,0,0,0,0,0,0,0,0,0,0,0,0,0,0,0,0,0,0,0,0,0,0,0,0,0,0,0,0,0,0,0,0,0,0,0,0,0,0,0,0,0,0],"sum_hessian":[8.760987E2,7.625674E2,1.1353128E2,6.1295404E2,1.4961333E2,7.970396E1,3.3827324E1,1.9282922E2,4.2012485E2,6.1814358E1,8.779897E1,2.4934072E1,8.89325E0,1.08117096E2,8.471213E1,3.4913705E2,7.098777E1,4.78842E1,1.3930154E1,8.3650116E1,4.14886E0,2.454453E0,2.247962E1,7.3421702E0,1.5510807E0,4.9962112E1,5.8154984E1,7.432415E1,1.0387981E1,2.9597122E2,5.3165848E1,5.30823E1,1.7905472E1,4.5293746E0,4.3354828E1,8.63825E0,5.291904E0,8.145527E1,2.194849E0,3.1177826E0,1.0310775E0,5.5301666E0,1.6949453E1,1.9532334E0,4.8008877E1,4.824106E1,9.913923E0,6.245944E1,1.1864709E1,3.1229637E0,7.265018E0,2.7144223E2,2.452899E1,1.5303316E1,3.7862534E1,3.9352863E1,1.3729434E1,8.381856E0,9.523615E0,3.513185E0,1.0161896E0,1.4832159E1,2.8522669E1,4.4980617E0,4.1401887E0,1.158456E0,4.133448E0,7.063357E1,1.08217E1,1.1424541E0,1.0523949E0,2.0261998E0,3.503967E0,5.5341144E0,1.14153385E1],"tree_param":{"num_deleted":"0","num_feature":"30","num_nodes":"75","size_leaf_vector":"1"}},{"base_weights":[-5.174788E-2,3.760323E-2,-7.5924885E-1,1.1317749E-1,-2.9050103E-1,-8.9981955E-1,-4.5196658E-1,3.9726645E-1,5.740679E-2,-6.0543245E-1,-9.2078455E-2,-2.763172E-1,-4.8953834E-1,-3.064273E-1,-8.2830465E-1,1.6981852E-1,6.6021836E-1,9.789011E-2,-3.93919E-1,-7.0286924E-1,-2.7946985E-1,-2.0346735E-1,8.2630545E-2,-2.2839524E-1,3.7710688E-3,-5.27902E-1,-8.100467E-2,-6.999872E-2,-2.7581885E-1,2.9515204E-1,-6.395176E-1,5.0266725E-1,9.265135E-1,4.636172E-2,3.4701803E-1,-1.9622985E-2,-6.125285E-1,-6.2556374E-1,-2.8859535E-1,-4.7855E-1,7.1482435E-2,-7.839563E-3,-4.8314512E-1,5.1753885E-1,-4.6209287E-2,7.836367E-2,-8.712406E-1,6.503632E-1,-4.0496275E-1,5.5256624E-2,2.5531006E-1,-2.9396547E-2,-3.1798294E-1,2.5680614E-1,2.1917418E-2,3.0414551E-1,4.3860085E-2,2.8590554E-2,-1.122608E-1,1.9697295E-1,3.44159E-2,9.4345935E-2,-9.998943E-2,-1.3434675E-1,-3.032247E-1,-2.263034E-1,4.5393426E-2,-2.6039448E-1,-3.3661135E-2,-4.646055E-2,1.4574857E-1,1.1348354E-1,-9.099796E-2,-1.735616E-1,3.6176898E-2,9.754001E-3,2.3028478E-1,1.7346354E-1,-4.9647816E-2,1.3703372E-1,-1.9454412E-1,-3.0739708E-2,-2.9080373E-1,-1.283639E-1,3.5766378E-1,-9.737597E-3,-2.685559E-1],"categories":[],"categories_nodes":[],"categories_segments":[],"categories_sizes":[],"default_left":[0,0,0,0,0,0,0,0,0,0,0,0,0,0,0,0,0,0,0,0,0,0,0,0,0,0,0,0,0,0,0,0,0,0,0,0,0,0,0,0,0,0,0,0,0,0,0,0,0,0,0,0,0,0,0,0,0,0,0,0,0,0,0,0,0,0,0,0,0,0,0,0,0,0,0,0,0,0,0,0,0,0,0,0,0,0,0],"id":5,"left_children":[1,3,5,7,9,11,13,15,17,19,21,-1,23,25,27,29,31,33,35,37,39,41,43,-1,-1,45,47,-1,-1,49,51,53,55,57,59,61,63,65,-1,67,69,71,73,75,77,79,81,83,85,-1,-1,-1,-1,-1,-1,-1,-1,-1,-1,-1,-1,-1,-1,-1,-1,-1,-1,-1,-1,-1,-1,-1,-1,-1,-1,-1,-1,-1,-1,-1,-1,-1,-1,-1,-1,-1,-1],"loss_changes":[5.3023888E1,1.8512854E1,3.6557198E0,9.585968E0,8.680656E0,1.0257721E-1,1.4730783E0,5.8299093E0,9.322424E0,1.5141621E0,1.708862E0,0E0,7.274529E-1,1.1715884E0,2.3019123E-1,5.729106E0,1.4530125E0,5.9800324E0,3.42663E0,2.1556664E-1,1.0161661E0,2.917007E0,1.9606061E0,0E0,0E0,2.584409E0,3.3992877E0,0E0,0E0,2.8027024E0,1.6355143E0,4.6311355E0,9.291029E-1,8.025616E0,5.6701927E0,1.8369766E0,1.2852631E0,3.5444708E0,0E0,1.2005305E0,6.3393044E-1,3.8146172E0,1.3342371E0,9.430957E-1,2.1500835E0,1.7506571E0,4.8894787E-1,3.108078E0,1.7584774E0,0E0,0E0,0E0,0E0,0E0,0E0,0E0,0E0,0E0,0E0,0E0,0E0,0E0,0E0,0E0,0E0,0E0,0E0,0E0,0E0,0E0,0E0,0E0,0E0,0E0,0E0,0E0,0E0,0E0,0E0,0E0,0E0,0E0,0E0,0E0,0E0,0E0,0E0],"parents":[2147483647,0,0,1,1,2,2,3,3,4,4,5,5,6,6,7,7,8,8,9,9,10,10,12,12,13,13,14,14,15,15,16,16,17,17,18,18,19,19,20,20,21,21,22,22,25,25,26,26,29,29,30,30,31,31,32,32,33,33,34,34,35,35,36,36,37,37,39,39,40,40,41,41,42,42,43,43,44,44,45,45,46,46,47,47,48,48],"right_children":[2,4,6,8,10,12,14,16,18,20,22,-1,24,26,28,30,32,34,36,38,40,42,44,-1,-1,46,48,-1,-1,50,52,54,56,58,60,62,64,66,-1,68,70,72,74,76,78,80,82,84,86,-1,-1,-1,-1,-1,-1,-1,-1,-1,-1,-1,-1,-1,-1,-1,-1,-1,-1,-1,-1,-1,-1,-1,-1,-1,-1,-1,-1,-1,-1,-1,-1,-1,-1,-1,-1,-1,-1],"split_conditions":[1E0,1E0,9.355E1,2E0,1E0,1E0,7.2E1,5.02E1,1E0,1E0,1.0145E2,-2.763172E-1,6.7E1,1.0575E2,1.0365E2,4.61E1,7.57E1,9.71E1,1.99E1,7.44E1,8.245E1,1E0,1.0415E2,-2.2839524E-1,3.7710688E-3,9.85E1,1.089E2,-6.999872E-2,-2.7581885E-1,4.495E1,1E0,6.985E1,1E0,3.3262E3,3.06645E3,1E0,1.8E1,6E1,-2.8859535E-1,1E0,1E0,1E0,6.5E1,1E0,1E0,1E0,4.6E1,5.8E1,6.9E1,5.5256624E-2,2.5531006E-1,-2.9396547E-2,-3.1798294E-1,2.5680614E-1,2.1917418E-2,3.0414551E-1,4.3860085E-2,2.8590554E-2,-1.122608E-1,1.9697295E-1,3.44159E-2,9.4345935E-2,-9.998943E-2,-1.3434675E-1,-3.032247E-1,-2.263034E-1,4.5393426E-2,-2.6039448E-1,-3.3661135E-2,-4.646055E-2,1.4574857E-1,1.1348354E-1,-9.099796E-2,-1.735616E-1,3.6176898E-2,9.754001E-3,2.3028478E-1,1.7346354E-1,-4.9647816E-2,1.3703372E-1,-1.9454412E-1,-3.0739708E-2,-2.9080373E-1,-1.283639E-1,3.5766378E-1,-9.737597E-3,-2.685559E-1],"split_indices":[25,24,2,1,23,28,1,2,11,28,2,0,1,2,2,2,2,2,2,2,2,13,2,0,0,2,2,0,0,2,28,2,6,3,3,4,1,2,0,4,6,17,1,15,26,27,1,1,1,0,0,0,0,0,0,0,0,0,0,0,0,0,0,0,0,0,0,0,0,0,0,0,0,0,0,0,0,0,0,0,0,0,0,0,0,0,0],"split_type":[0,0,0,0,0,0,0,0,0,0,0,0,0,0,0,0,0,0,0,0,0,0,0,0,0,0,0,0,0,0,0,0,0,0,0,0,0,0,0,0,0,0,0,0,0,0,0,0,0,0,0,0,0,0,0,0,0,0,0,0,0,0,0,0,0,0,0,0,0,0,0,0,0,0,0,0,0,0,0,0,0,0,0,0,0,0,0],"sum_hessian":[8.3732166E2,7.442734E2,9.304829E1,6.054674E2,1.3880595E2,6.2519512E1,3.0528774E1,9.8351906E1,5.0711548E2,5.28587E1,8.594725E1,5.8258858E1,4.2606554E0,2.3323307E1,7.205468E0,5.3618675E1,4.4733227E1,4.6609088E2,4.102462E1,3.980415E1,1.305455E1,5.2384167E1,3.3563084E1,2.4294257E0,1.8312297E0,1.108783E1,1.22354765E1,1.4295642E0,5.7759037E0,4.6978863E1,6.639814E0,2.991935E1,1.4813879E1,3.8719208E2,7.88988E1,1.5527946E1,2.5496675E1,3.3287308E1,6.5168414E0,8.097571E0,4.9569793E0,3.1428635E1,2.0955534E1,6.981066E0,2.6582018E1,4.2879496E0,6.79988E0,3.446685E0,8.788792E0,4.0271366E1,6.7074966E0,3.44087E0,3.1989439E0,1.5872047E1,1.4047302E1,1.3054084E1,1.7597952E0,3.4752478E2,3.966728E1,3.3041546E1,4.5857258E1,7.517807E0,8.010139E0,1.9539568E1,5.9571066E0,2.8578857E1,4.708452E0,3.261381E0,4.83619E0,3.6107278E0,1.3462514E0,1.3503364E1,1.792527E1,1.8132267E1,2.8232675E0,2.7593358E0,4.2217307E0,3.646429E0,2.2935589E1,3.0641997E0,1.2237499E0,1.0009155E0,5.7989645E0,1.2231116E0,2.2235734E0,5.599861E0,3.1889305E0],"tree_param":{"num_deleted":"0","num_feature":"30","num_nodes":"87","size_leaf_vector":"1"}},{"base_weights":[-4.3798663E-2,2.497787E-2,-6.85519E-1,-9.388271E-2,1.585523E-1,-8.382327E-1,-3.9278078E-1,7.0645496E-2,-2.1930778E-1,2.1200663E-1,-9.61477E-2,-2.58719E-1,-4.307424E-1,-2.6264668E-1,-7.665963E-1,-3.1554267E-2,6.705528E-1,-4.0030742E-1,-3.402323E-2,-3.4059747E-3,2.7588862E-1,1.4068171E-1,-5.126009E-1,-2.1151787E-1,3.0317425E-3,-1.5353017E-1,-2.4856955E-1,-2.6286083E-1,-4.0515937E-2,2.799837E-2,-3.19917E-1,4.5064247E-1,4.035488E-1,-7.298639E-1,-3.3081862E-1,1.1293803E0,-8.7189406E-2,-8.536855E-2,5.524416E-1,3.4708914E-1,-9.9607274E-2,-7.771908E-2,5.722972E-1,-8.6738706E-1,-1.3697755E-1,-2.4163692E-1,-4.2108446E-2,-8.544351E-3,1.07680045E-1,-4.342811E-2,-2.7106714E-1,1.8551926E-1,-9.766954E-2,-1.1900146E-1,-3.0341032E-1,-6.61658E-2,-1.8992352E-1,2.9099813E-2,4.3383494E-1,1.333943E-1,-4.226996E-2,4.5290682E-2,-1.1707348E-1,-2.268919E-2,2.6489505E-1,1.0953103E-1,-1.9514309E-1,2.8904447E-1,-6.863159E-2,4.6153765E-2,-2.9512203E-1,-7.7784457E-3,4.2139414E-1,-6.2078904E-2,-3.465265E-1,1.738118E-1,-1.3355029E-1,4.397644E-2,-1.2900181E-1],"categories":[],"categories_nodes":[],"categories_segments":[],"categories_sizes":[],"default_left":[0,0,0,0,0,0,0,0,0,0,0,0,0,0,0,0,0,0,0,0,0,0,0,0,0,0,0,0,0,0,0,0,0,0,0,0,0,0,0,0,0,0,0,0,0,0,0,0,0,0,0,0,0,0,0,0,0,0,0,0,0,0,0,0,0,0,0,0,0,0,0,0,0,0,0,0,0,0,0],"id":6,"left_children":[1,3,5,7,9,11,13,15,17,19,21,-1,23,25,27,29,31,33,35,37,39,41,43,-1,-1,45,-1,-1,-1,47,49,51,-1,53,55,57,59,61,63,65,67,69,71,73,75,-1,77,-1,-1,-1,-1,-1,-1,-1,-1,-1,-1,-1,-1,-1,-1,-1,-1,-1,-1,-1,-1,-1,-1,-1,-1,-1,-1,-1,-1,-1,-1,-1,-1],"loss_changes":[3.567045E1,1.161421E1,3.1681519E0,8.006014E0,4.7089567E0,1.2608337E-1,1.1949029E0,1.0336827E1,7.36306E0,3.9221048E0,6.0317335E0,0E0,5.908138E-1,1.2814301E0,3.5863638E-1,2.494149E0,3.0338383E0,2.3044815E0,6.8891654E0,3.061455E0,5.910639E0,3.749501E0,2.8291316E0,0E0,0E0,1.4444008E0,0E0,0E0,0E0,2.2693253E0,2.4097488E0,2.8066134E0,0E0,1.3368883E0,2.9814053E0,1.4520235E0,3.088189E0,4.2759795E0,1.859689E0,3.5615845E0,5.137525E0,5.8115582E0,6.671631E0,1.8869295E0,2.8922532E0,0E0,1.4124691E0,0E0,0E0,0E0,0E0,0E0,0E0,0E0,0E0,0E0,0E0,0E0,0E0,0E0,0E0,0E0,0E0,0E0,0E0,0E0,0E0,0E0,0E0,0E0,0E0,0E0,0E0,0E0,0E0,0E0,0E0,0E0,0E0],"parents":[2147483647,0,0,1,1,2,2,3,3,4,4,5,5,6,6,7,7,8,8,9,9,10,10,12,12,13,13,14,14,15,15,16,16,17,17,18,18,19,19,20,20,21,21,22,22,25,25,29,29,30,30,31,31,33,33,34,34,35,35,36,36,37,37,38,38,39,39,40,40,41,41,42,42,43,43,44,44,46,46],"right_children":[2,4,6,8,10,12,14,16,18,20,22,-1,24,26,28,30,32,34,36,38,40,42,44,-1,-1,46,-1,-1,-1,48,50,52,-1,54,56,58,60,62,64,66,68,70,72,74,76,-1,78,-1,-1,-1,-1,-1,-1,-1,-1,-1,-1,-1,-1,-1,-1,-1,-1,-1,-1,-1,-1,-1,-1,-1,-1,-1,-1,-1,-1,-1,-1,-1,-1],"split_conditions":[1E0,1E0,9.355E1,1.3E1,1E0,1E0,7.2E1,8E1,1E0,1E0,3.2E1,-2.58719E-1,6.7E1,1E0,1E0,3.696E2,1E1,6.5315E2,1.09625E3,3.82245E3,1E0,1.7E1,1E0,-2.1151787E-1,3.0317425E-3,4.51585E3,-2.4856955E-1,-2.6286083E-1,-4.0515937E-2,6.58E1,1E0,7.621E2,4.035488E-1,1.9E1,1E0,8.927E2,2E1,9E0,1E0,1E0,3E0,8.76E1,8.895E1,1E0,1E0,-2.4163692E-1,1E0,-8.544351E-3,1.07680045E-1,-4.342811E-2,-2.7106714E-1,1.8551926E-1,-9.766954E-2,-1.1900146E-1,-3.0341032E-1,-6.61658E-2,-1.8992352E-1,2.9099813E-2,4.3383494E-1,1.333943E-1,-4.226996E-2,4.5290682E-2,-1.1707348E-1,-2.268919E-2,2.6489505E-1,1.0953103E-1,-1.9514309E-1,2.8904447E-1,-6.863159E-2,4.6153765E-2,-2.9512203E-1,-7.7784457E-3,4.2139414E-1,-6.2078904E-2,-3.465265E-1,1.738118E-1,-1.3355029E-1,4.397644E-2,-1.2900181E-1],"split_indices":[25,28,2,1,6,28,1,2,23,26,1,0,1,0,28,3,1,3,3,3,13,1,17,0,0,3,0,0,0,2,15,3,0,1,19,3,1,1,5,11,1,2,2,15,23,0,27,0,0,0,0,0,0,0,0,0,0,0,0,0,0,0,0,0,0,0,0,0,0,0,0,0,0,0,0,0,0,0,0],"split_type":[0,0,0,0,0,0,0,0,0,0,0,0,0,0,0,0,0,0,0,0,0,0,0,0,0,0,0,0,0,0,0,0,0,0,0,0,0,0,0,0,0,0,0,0,0,0,0,0,0,0,0,0,0,0,0,0,0,0,0,0,0,0,0,0,0,0,0,0,0,0,0,0,0,0,0,0,0,0,0],"sum_hessian":[8.0681885E2,7.295863E2,7.723252E1,3.8621335E2,3.4337296E2,4.9530403E1,2.7702118E1,1.672532E2,2.1896014E2,2.8394797E2,5.9425014E1,4.5703827E1,3.8265765E0,2.1811594E1,5.890525E0,1.4371707E2,2.3536133E1,1.1017376E2,1.08786385E2,6.5162865E1,2.187851E2,3.830426E1,2.1120752E1,1.9893694E0,1.8372071E0,1.9351637E1,2.4599564E0,4.6892843E0,1.2012407E0,1.19865395E2,2.385168E1,1.900791E1,4.528223E0,1.7530514E1,9.264324E1,3.8695204E0,1.0491686E2,5.7526676E1,7.6361856E0,1.8397574E2,3.4809345E1,2.5978746E1,1.2325514E1,1.0188372E1,1.093238E1,1.9154544E0,1.7436182E1,1.03171425E2,1.669397E1,1.9305826E1,4.545854E0,1.5797122E1,3.2107868E0,9.1314745E0,8.399039E0,6.914754E1,2.349571E1,1.2151297E0,2.6543908E0,8.956055E0,9.596081E1,3.2690277E1,2.4836397E1,2.898967E0,4.737219E0,1.8133516E2,2.6405869E0,3.0713449E0,3.1738E1,2.1351763E1,4.626984E0,7.735044E0,4.5904703E0,3.6131485E0,6.5752234E0,3.023862E0,7.908518E0,1.2148515E1,5.287668E0],"tree_param":{"num_deleted":"0","num_feature":"30","num_nodes":"79","size_leaf_vector":"1"}},{"base_weights":[-3.654012E-2,1.6748626E-2,-6.08393E-1,6.22493E-2,-1.9550098E-1,-7.7332044E-1,-3.3612296E-1,2.5780365E-1,2.4451762E-2,-4.6910048E-1,-5.130266E-2,-2.4003293E-1,-3.79135E-1,-2.369184E-1,-2.4557596E-1,1.7765465E-1,7.3657995E-1,7.398521E-2,-2.133091E-1,-7.0067286E-1,-3.530744E-1,-2.1343512E-2,-5.6161135E-1,2.1873236E-2,-2.0454277E-1,-1.4454691E-1,-2.3290159E-1,2.2261868E-1,-6.326797E-1,8.0584073E-1,5.708299E-2,-2.4374643E-2,1.750681E-1,-3.1523502E-1,4.838914E-1,-2.1007654E-1,-7.8839856E-1,-2.0928772E-1,-6.4465475E-1,-5.320423E-2,7.423415E-1,-2.5766382E-1,6.7550115E-2,-3.853685E-1,1.0854035E-1,8.417131E-2,-1.3179892E-1,-2.8815946E-1,-2.9253293E-2,2.571863E-1,4.7317658E-2,1.5305929E-3,-1.7703407E-1,8.381862E-2,-4.270684E-3,-1.0929262E-1,1.19958915E-1,1.971485E-1,-3.2567013E-2,9.777576E-2,-1.8844654E-1,-2.7961907E-1,-9.1271125E-2,-8.66138E-2,1.8297984E-1,-2.468552E-1,-4.4709172E-2,-7.6904413E-3,-2.479511E-1,5.2407872E-2,2.8838977E-1,4.3850772E-2,-1.834552E-1,-2.6221308E-1,1.13231145E-1],"categories":[],"categories_nodes":[],"categories_segments":[],"categories_sizes":[],"default_left":[0,0,0,0,0,0,0,0,0,0,0,0,0,0,0,0,0,0,0,0,0,0,0,0,0,0,0,0,0,0,0,0,0,0,0,0,0,0,0,0,0,0,0,0,0,0,0,0,0,0,0,0,0,0,0,0,0,0,0,0,0,0,0,0,0,0,0,0,0,0,0,0,0,0,0],"id":7,"left_children":[1,3,5,7,9,11,13,15,17,19,21,-1,23,25,-1,27,29,31,33,35,37,39,41,-1,-1,43,-1,45,47,49,-1,51,53,55,57,59,61,63,65,67,69,-1,-1,71,73,-1,-1,-1,-1,-1,-1,-1,-1,-1,-1,-1,-1,-1,-1,-1,-1,-1,-1,-1,-1,-1,-1,-1,-1,-1,-1,-1,-1,-1,-1],"loss_changes":[2.3773804E1,6.910681E0,2.7262592E0,4.3471003E0,4.960367E0,1.2586212E-1,1.0914261E0,3.5259643E0,5.841697E0,9.2090416E-1,1.2700663E0,0E0,6.636512E-1,1.0678064E0,0E0,3.1631396E0,3.5169744E-1,4.0820208E0,6.2317686E0,4.153123E-1,1.1640873E0,1.9920352E0,1.2717401E0,0E0,0E0,1.3491011E0,0E0,3.1663713E0,7.171142E-1,2.4945068E-1,0E0,3.4840477E0,4.0010734E0,2.7860875E0,1.231915E0,9.6904886E-1,4.876423E-1,1.6226287E0,7.3866224E-1,1.6410139E0,2.3982787E-1,0E0,0E0,1.4369532E0,3.2991974E0,0E0,0E0,0E0,0E0,0E0,0E0,0E0,0E0,0E0,0E0,0E0,0E0,0E0,0E0,0E0,0E0,0E0,0E0,0E0,0E0,0E0,0E0,0E0,0E0,0E0,0E0,0E0,0E0,0E0,0E0],"parents":[2147483647,0,0,1,1,2,2,3,3,4,4,5,5,6,6,7,7,8,8,9,9,10,10,12,12,13,13,15,15,16,16,17,17,18,18,19,19,20,20,21,21,22,22,25,25,27,27,28,28,29,29,31,31,32,32,33,33,34,34,35,35,36,36,37,37,38,38,39,39,40,40,43,43,44,44],"right_children":[2,4,6,8,10,12,14,16,18,20,22,-1,24,26,-1,28,30,32,34,36,38,40,42,-1,-1,44,-1,46,48,50,-1,52,54,56,58,60,62,64,66,68,70,-1,-1,72,74,-1,-1,-1,-1,-1,-1,-1,-1,-1,-1,-1,-1,-1,-1,-1,-1,-1,-1,-1,-1,-1,-1,-1,-1,-1,-1,-1,-1,-1,-1],"split_conditions":[1E0,1E0,9.355E1,2E0,1E0,1E0,7.98415E3,7.57E1,1E0,2.075E1,7.1E1,-2.4003293E-1,1E0,1E0,-2.4557596E-1,1E0,1E0,1E0,1E0,1.4515E2,3.69445E3,7.47585E3,1.0635E2,2.1873236E-2,-2.0454277E-1,1.0575E2,-2.3290159E-1,1E0,4.42E1,9.39E1,5.708299E-2,3.48795E3,3.1199E3,9.415E1,1E0,1.99E1,2.015E1,3.44485E3,5.58105E3,1.1315E2,1E0,-2.5766382E-1,6.7550115E-2,9.66E1,5.22945E3,8.417131E-2,-1.3179892E-1,-2.8815946E-1,-2.9253293E-2,2.571863E-1,4.7317658E-2,1.5305929E-3,-1.7703407E-1,8.381862E-2,-4.270684E-3,-1.0929262E-1,1.19958915E-1,1.971485E-1,-3.2567013E-2,9.777576E-2,-1.8844654E-1,-2.7961907E-1,-9.1271125E-2,-8.66138E-2,1.8297984E-1,-2.468552E-1,-4.4709172E-2,-7.6904413E-3,-2.479511E-1,5.2407872E-2,2.8838977E-1,4.3850772E-2,-1.834552E-1,-2.6221308E-1,1.13231145E-1],"split_indices":[25,24,2,1,23,28,3,2,29,2,1,0,19,0,0,27,6,9,0,3,3,3,2,0,0,2,0,13,2,2,0,3,3,2,17,2,2,3,3,2,4,0,0,2,3,0,0,0,0,0,0,0,0,0,0,0,0,0,0,0,0,0,0,0,0,0,0,0,0,0,0,0,0,0,0],"split_type":[0,0,0,0,0,0,0,0,0,0,0,0,0,0,0,0,0,0,0,0,0,0,0,0,0,0,0,0,0,0,0,0,0,0,0,0,0,0,0,0,0,0,0,0,0,0,0,0,0,0,0,0,0,0,0,0,0,0,0,0,0,0,0,0,0,0,0,0,0,0,0,0,0,0,0],"sum_hessian":[7.788169E2,7.1331647E2,6.550047E1,5.879766E2,1.25339836E2,3.964517E1,2.5855307E1,9.429562E1,4.93681E2,4.2482014E1,8.285782E1,3.6158043E1,3.4871237E0,2.2682394E1,3.1729126E0,8.194823E1,1.234739E1,4.0913373E2,8.454727E1,1.2498257E1,2.9983755E1,7.924721E1,3.6106117E0,1.7029173E0,1.7842065E0,2.0448683E1,2.2337103E0,7.832726E1,3.6209667E0,1.0536486E1,1.8109038E0,2.0774446E2,2.0138927E2,7.424152E1,1.0305744E1,2.4108024E0,1.0087455E1,2.123161E1,8.752147E0,7.696652E1,2.2806888E0,2.553996E0,1.0566156E0,1.0210427E1,1.0238256E1,7.255165E1,5.7756147E0,1.7525256E0,1.8684412E0,9.462612E0,1.073874E0,1.9839832E2,9.34614E0,1.295287E2,7.186057E1,6.9932915E1,4.3086104E0,7.8891997E0,2.4165444E0,1.1530173E0,1.2577851E0,7.0657344E0,3.02172E0,1.9945438E1,1.2861704E0,5.9519587E0,2.800188E0,7.5314575E1,1.6519419E0,1.1352885E0,1.1454004E0,3.1530926E0,7.0573344E0,1.7162769E0,8.521979E0],"tree_param":{"num_deleted":"0","num_feature":"30","num_nodes":"75","size_leaf_vector":"1"}},{"base_weights":[-3.1148516E-2,1.0032888E-2,-5.3454036E-1,-1.1069436E-1,6.741414E-2,-2.2955705E-1,-3.4065008E-1,-5.642521E-1,-8.252731E-2,2.674177E-1,1.9212997E-2,4.6904096E-1,-4.290874E-1,-7.265037E-1,-1.3338017E-1,5.1111065E-2,-1.597107E-1,7.5305104E-1,2.0411745E-1,-3.8410833E-1,4.1028693E-2,4.0609124E-1,-1.1007137E-1,4.2410113E-2,-5.712626E-1,-2.4935232E-1,-4.6172075E-2,1.5394507E-1,-2.1954046E-1,1.1352807E-1,-3.6987743E-1,-2.6866964E-1,2.0689318E-2,2.2396271E-1,4.0145004E-1,6.125618E-2,5.393423E-1,5.2775705E-1,-6.325618E-1,9.8184906E-2,-1.4124778E-1,-1.6085869E-1,2.0485982E-1,-8.466753E-1,-2.4406159E-1,-2.2829227E-2,1.14219785E-1,-5.7936492E-3,-2.7613348E-1,-6.487324E-2,-2.0399848E-1,7.644144E-2,-5.2181486E-2,1.8017977E-1,-1.1542124E-1,5.3181384E-2,-9.724087E-2,1.09098844E-1,2.9940775E-1,-6.901509E-2,4.1766217E-1,-6.5395966E-2,-2.145384E-1,4.9725737E-2,-3.7603717E-2,-1.03892386E-1,3.3802092E-2,1.185463E-1,-9.033384E-2,-4.9135674E-2,-2.67932E-1,9.0145E-2,-2.0214848E-1],"categories":[],"categories_nodes":[],"categories_segments":[],"categories_sizes":[],"default_left":[0,0,0,0,0,0,0,0,0,0,0,0,0,0,0,0,0,0,0,0,0,0,0,0,0,0,0,0,0,0,0,0,0,0,0,0,0,0,0,0,0,0,0,0,0,0,0,0,0,0,0,0,0,0,0,0,0,0,0,0,0,0,0,0,0,0,0,0,0,0,0,0,0],"id":8,"left_children":[1,3,5,7,9,-1,11,13,15,17,19,21,23,25,27,29,31,33,35,37,39,-1,-1,41,43,-1,-1,-1,-1,45,47,49,51,53,-1,55,57,59,61,63,65,-1,67,69,71,-1,-1,-1,-1,-1,-1,-1,-1,-1,-1,-1,-1,-1,-1,-1,-1,-1,-1,-1,-1,-1,-1,-1,-1,-1,-1,-1,-1],"loss_changes":[1.574965E1,4.8776717E0,2.3086014E0,2.8518236E0,4.5948224E0,0E0,2.5653822E0,8.1851244E-1,2.223534E0,2.6924367E0,3.4082782E0,3.2539508E0,2.0544953E0,4.2870665E-1,2.2352884E0,2.1281006E0,2.6864495E0,2.8903956E0,3.95534E0,4.8381786E0,3.8341E0,0E0,0E0,8.5688E-1,1.8965511E0,0E0,0E0,0E0,0E0,3.5709267E0,2.006046E0,1.6881089E0,2.4267588E0,1.7470281E0,0E0,2.718819E0,1.632071E0,3.4662342E0,3.9450884E-1,4.2458544E0,4.618182E0,0E0,7.861345E-1,2.4268818E-1,3.0275562E0,0E0,0E0,0E0,0E0,0E0,0E0,0E0,0E0,0E0,0E0,0E0,0E0,0E0,0E0,0E0,0E0,0E0,0E0,0E0,0E0,0E0,0E0,0E0,0E0,0E0,0E0,0E0,0E0],"parents":[2147483647,0,0,1,1,2,2,3,3,4,4,6,6,7,7,8,8,9,9,10,10,11,11,12,12,13,13,14,14,15,15,16,16,17,17,18,18,19,19,20,20,23,23,24,24,29,29,30,30,31,31,32,32,33,33,35,35,36,36,37,37,38,38,39,39,40,40,42,42,43,43,44,44],"right_children":[2,4,6,8,10,-1,12,14,16,18,20,22,24,26,28,30,32,34,36,38,40,-1,-1,42,44,-1,-1,-1,-1,46,48,50,52,54,-1,56,58,60,62,64,66,-1,68,70,72,-1,-1,-1,-1,-1,-1,-1,-1,-1,-1,-1,-1,-1,-1,-1,-1,-1,-1,-1,-1,-1,-1,-1,-1,-1,-1,-1,-1],"split_conditions":[1E0,1E0,4.45425E3,1.965E1,4E0,-2.2955705E-1,4.8454E3,1E0,2.494E2,1E0,2.935E1,1E0,1E0,1E0,1.3E1,1E0,1E0,3.545E1,7.515E1,1.98E1,1E0,4.0609124E-1,-1.1007137E-1,1E0,1.0635E2,-2.4935232E-1,-4.6172075E-2,1.5394507E-1,-2.1954046E-1,4.495E1,6.035E1,8.895E1,1E0,2.985E1,4.0145004E-1,1.2025E2,1E0,1E0,6E0,1E0,9.245E1,-1.6085869E-1,1E0,5.7E1,1.1035E2,-2.2829227E-2,1.14219785E-1,-5.7936492E-3,-2.7613348E-1,-6.487324E-2,-2.0399848E-1,7.644144E-2,-5.2181486E-2,1.8017977E-1,-1.1542124E-1,5.3181384E-2,-9.724087E-2,1.09098844E-1,2.9940775E-1,-6.901509E-2,4.1766217E-1,-6.5395966E-2,-2.145384E-1,4.9725737E-2,-3.7603717E-2,-1.03892386E-1,3.3802092E-2,1.185463E-1,-9.033384E-2,-4.9135674E-2,-2.67932E-1,9.0145E-2,-2.0214848E-1],"split_indices":[25,26,3,2,1,0,3,5,3,7,2,4,19,28,1,15,21,2,2,2,13,0,0,23,2,0,0,0,0,2,2,2,9,2,0,3,0,6,1,19,2,0,27,1,2,0,0,0,0,0,0,0,0,0,0,0,0,0,0,0,0,0,0,0,0,0,0,0,0,0,0,0,0],"split_type":[0,0,0,0,0,0,0,0,0,0,0,0,0,0,0,0,0,0,0,0,0,0,0,0,0,0,0,0,0,0,0,0,0,0,0,0,0,0,0,0,0,0,0,0,0,0,0,0,0,0,0,0,0,0,0,0,0,0,0,0,0,0,0,0,0,0,0,0,0,0,0,0,0],"sum_hessian":[7.5847876E2,7.0202747E2,5.6451286E1,2.2587302E2,4.7615445E2,2.4435993E1,3.2015293E1,1.2094235E1,2.137788E2,9.1585594E1,3.8456885E2,2.728722E0,2.9286572E1,8.287371E0,3.8068647E0,7.838965E1,1.3538913E2,9.304661E0,8.228094E1,1.8881783E1,3.6568707E2,1.0248927E0,1.7038293E0,6.9476595E0,2.2338911E1,6.624774E0,1.6625962E0,1.8983709E0,1.9084939E0,6.890406E1,9.485591E0,8.410292E1,5.1286217E1,5.61242E0,3.6922402E0,5.852313E1,2.3757807E1,3.8023522E0,1.5079432E1,2.7874323E2,8.694384E1,1.0186814E0,5.928978E0,1.1267318E1,1.1071594E1,4.072102E1,2.818304E1,6.4278407E0,3.0577507E0,7.594861E1,8.154312E0,2.3140984E1,2.8145235E1,3.475342E0,2.137078E0,4.539719E1,1.3125941E1,1.847469E1,5.283116E0,2.4172142E0,1.385138E0,3.1089818E0,1.1970449E1,2.1424191E2,6.450133E1,4.789847E1,3.904537E1,4.467709E0,1.4612689E0,1.0055567E0,1.0261761E1,5.0163474E0,6.055247E0],"tree_param":{"num_deleted":"0","num_feature":"30","num_nodes":"73","size_leaf_vector":"1"}},{"base_weights":[-2.505191E-2,6.4716116E-3,-4.598708E-1,2.5952395E-2,-2.4832164E-1,-6.7701983E-1,-2.5940436E-1,-4.9851807E-3,2.1175309E-1,-5.7610255E-1,-8.238041E-3,-7.257299E-1,-1.162682E-1,3.4380365E-2,-4.1757038E-1,2.0085765E-2,-2.0250043E-1,4.125079E-1,6.185846E-2,-8.367572E-1,-2.4618232E-1,1.3621624E-1,-6.673466E-1,-2.3325314E-1,-2.1660377E-1,-1.6974151E-1,1.18360706E-1,-5.1595646E-1,5.770963E-1,-3.433288E-2,-5.319023E-1,1.0802164E-1,-2.6269265E-2,-3.8526925E-1,-6.2689967E-3,3.1978577E-1,4.3339372E-1,1.5884681E-1,-3.440436E-1,-1.4407591E-2,-2.7291024E-1,2.1035333E-1,-4.459067E-1,-6.102411E-1,2.6596543E-1,-2.7672064E-1,5.796447E-2,1.2038515E-1,-1.9957401E-1,6.4583174E-3,-2.3407578E-1,8.216687E-1,8.626761E-2,4.398011E-1,-2.3014392E-1,1.3926551E-1,-6.4768016E-1,1.3951856E-2,1.6513938E-1,1.8326169E-2,-3.2836836E-2,-1.5081622E-1,2.4104044E-2,1.3136016E-1,-8.031247E-2,2.3792993E-1,1.2036263E-2,8.9080185E-2,-4.3606382E-2,-2.3634693E-1,5.8874827E-2,-8.441577E-2,1.6005464E-1,-3.0000208E-2,-2.3556888E-1,-5.199227E-2,-2.1895434E-1,-1.9469675E-2,1.5591384E-1,5.462715E-2,3.8640836E-1,-2.3996035E-2,6.263612E-2,-4.8097335E-2,2.1624921E-1,-2.7578375E-1,-7.922454E-2],"categories":[],"categories_nodes":[],"categories_segments":[],"categories_sizes":[],"default_left":[0,0,0,0,0,0,0,0,0,0,0,0,0,0,0,0,0,0,0,0,0,0,0,0,0,0,0,0,0,0,0,0,0,0,0,0,0,0,0,0,0,0,0,0,0,0,0,0,0,0,0,0,0,0,0,0,0,0,0,0,0,0,0,0,0,0,0,0,0,0,0,0,0,0,0,0,0,0,0,0,0,0,0,0,0,0,0],"id":9,"left_children":[1,3,5,7,9,11,13,15,17,19,21,23,25,27,29,31,33,35,37,39,41,43,45,-1,47,-1,-1,49,51,53,55,57,59,61,63,65,-1,67,69,-1,-1,71,73,75,77,-1,-1,-1,-1,-1,-1,79,81,83,-1,-1,85,-1,-1,-1,-1,-1,-1,-1,-1,-1,-1,-1,-1,-1,-1,-1,-1,-1,-1,-1,-1,-1,-1,-1,-1,-1,-1,-1,-1,-1,-1],"loss_changes":[1.0166204E1,3.4428585E0,2.0067978E0,3.703247E0,3.8724155E0,5.559988E-1,1.3010161E0,2.7429671E0,2.7416582E0,1.584023E0,2.8951552E0,3.9523315E-1,9.269292E-1,3.4680192E0,7.73741E-1,2.0071917E0,2.235154E0,3.2831373E0,2.173576E0,6.013398E-1,1.0606704E0,2.5825248E0,1.3775642E0,0E0,1.1983546E0,0E0,0E0,8.404529E-1,6.2731373E-1,2.1519277E0,1.8983264E0,4.599312E0,2.352343E0,1.8060198E0,3.7287128E0,4.8912106E0,0E0,1.896791E0,2.719304E0,0E0,0E0,7.709292E-1,8.2492995E-1,8.275628E-2,1.8794925E0,0E0,0E0,0E0,0E0,0E0,0E0,8.8834476E-1,7.885959E-2,7.575382E-1,0E0,0E0,1.0937343E0,0E0,0E0,0E0,0E0,0E0,0E0,0E0,0E0,0E0,0E0,0E0,0E0,0E0,0E0,0E0,0E0,0E0,0E0,0E0,0E0,0E0,0E0,0E0,0E0,0E0,0E0,0E0,0E0,0E0,0E0],"parents":[2147483647,0,0,1,1,2,2,3,3,4,4,5,5,6,6,7,7,8,8,9,9,10,10,11,11,12,12,13,13,14,14,15,15,16,16,17,17,18,18,19,19,20,20,21,21,22,22,24,24,27,27,28,28,29,29,30,30,31,31,32,32,33,33,34,34,35,35,37,37,38,38,41,41,42,42,43,43,44,44,51,51,52,52,53,53,56,56],"right_children":[2,4,6,8,10,12,14,16,18,20,22,24,26,28,30,32,34,36,38,40,42,44,46,-1,48,-1,-1,50,52,54,56,58,60,62,64,66,-1,68,70,-1,-1,72,74,76,78,-1,-1,-1,-1,-1,-1,80,82,84,-1,-1,86,-1,-1,-1,-1,-1,-1,-1,-1,-1,-1,-1,-1,-1,-1,-1,-1,-1,-1,-1,-1,-1,-1,-1,-1,-1,-1,-1,-1,-1,-1],"split_conditions":[1E0,6E1,1E0,9.8E1,6.5E1,1.0945E2,1E0,1E0,1E0,1E0,7.1E1,6.49615E3,1E0,4.68865E3,5.9E1,2.2375E2,2.3171E3,5.7429E3,1E0,5.5E1,1E0,7.105E1,1.079E2,-2.3325314E-1,1.03E2,-1.6974151E-1,1.18360706E-1,1.3361E3,6.8E1,1E0,4.62785E3,7.57E1,1E0,1E0,7.405E1,2.6E1,4.3339372E-1,1E0,4.51585E3,-1.4407591E-2,-2.7291024E-1,6.3682E3,1.039E2,4.54E1,1E0,-2.7672064E-1,5.796447E-2,1.2038515E-1,-1.9957401E-1,6.4583174E-3,-2.3407578E-1,6.5E1,6.8719E3,4.8E1,-2.3014392E-1,1.3926551E-1,7.3657E3,1.3951856E-2,1.6513938E-1,1.8326169E-2,-3.2836836E-2,-1.5081622E-1,2.4104044E-2,1.3136016E-1,-8.031247E-2,2.3792993E-1,1.2036263E-2,8.9080185E-2,-4.3606382E-2,-2.3634693E-1,5.8874827E-2,-8.441577E-2,1.6005464E-1,-3.0000208E-2,-2.3556888E-1,-5.199227E-2,-2.1895434E-1,-1.9469675E-2,1.5591384E-1,5.462715E-2,3.8640836E-1,-2.3996035E-2,6.263612E-2,-4.8097335E-2,2.1624921E-1,-2.7578375E-1,-7.922454E-2],"split_indices":[25,1,26,2,1,2,15,24,15,28,1,3,4,3,1,3,3,3,6,2,5,2,2,0,2,0,0,3,1,4,3,2,4,9,2,1,0,19,3,0,0,3,2,2,4,0,0,0,0,0,0,1,3,1,0,0,3,0,0,0,0,0,0,0,0,0,0,0,0,0,0,0,0,0,0,0,0,0,0,0,0,0,0,0,0,0,0],"split_type":[0,0,0,0,0,0,0,0,0,0,0,0,0,0,0,0,0,0,0,0,0,0,0,0,0,0,0,0,0,0,0,0,0,0,0,0,0,0,0,0,0,0,0,0,0,0,0,0,0,0,0,0,0,0,0,0,0,0,0,0,0,0,0,0,0,0,0,0,0,0,0,0,0,0,0,0,0,0,0,0,0,0,0,0,0,0,0],"sum_hessian":[7.404614E2,6.913267E2,4.9134727E1,6.430584E2,4.826832E1,2.2444832E1,2.6689896E1,5.5210144E2,9.0956955E1,1.9815311E1,2.8453005E1,2.0380278E1,2.0645552E0,9.6143675E0,1.7075527E1,4.9071277E2,6.1388695E1,3.813309E1,5.2823868E1,1.0211466E1,9.603846E0,2.3988804E1,4.4642005E0,1.8020372E1,2.3599038E0,1.0408616E0,1.0236937E0,4.798149E0,4.8162184E0,4.222411E0,1.2853116E1,1.6892683E2,3.2178592E2,3.1285872E1,3.0102823E1,3.6191643E1,1.941448E0,4.312743E1,9.696435E0,1.0048212E0,9.206645E0,2.9066117E0,6.697234E0,3.003899E0,2.0984905E1,3.388151E0,1.0760498E0,1.0371135E0,1.3227901E0,1.8844321E0,2.9137168E0,2.7646112E0,2.0516071E0,2.8064618E0,1.4159491E0,1.0249728E0,1.1828144E1,1.4927707E2,1.9649761E1,1.5708885E2,1.6469707E2,2.4920097E1,6.365775E0,1.0904052E1,1.9198772E1,1.2760117E1,2.3431526E1,2.9679024E1,1.3448407E1,5.072173E0,4.6242623E0,1.2039286E0,1.702683E0,3.9575803E0,2.739654E0,1.1718841E0,1.832015E0,9.43141E0,1.1553495E1,1.7521347E0,1.0124766E0,1.0177321E0,1.033875E0,1.032059E0,1.774403E0,6.107436E0,5.7207074E0],"tree_param":{"num_deleted":"0","num_feature":"30","num_nodes":"87","size_leaf_vector":"1"}},{"base_weights":[-2.069067E-2,3.327183E-3,-3.8928127E-1,-8.2861036E-2,4.3871235E-2,-6.301439E-1,-2.232646E-1,-4.712893E-1,-6.0618587E-2,8.682549E-2,-8.597349E-2,-2.5252017E-1,-6.877854E-1,-5.332232E-2,-7.3925674E-1,-2.5450748E-1,-2.7098608E-1,3.511571E-1,-7.779699E-2,7.784392E-2,3.6582556E-1,-2.892826E-1,7.492503E-2,-2.0194426E-1,1.4444645E-1,-7.291672E-1,-4.553738E-2,3.1395254E-1,-1.7910555E-1,-2.267275E-2,-2.5618458E-1,-4.1069606E-1,7.831696E-2,-2.3488933E-1,8.878447E-1,-3.2707506E-1,-4.6461284E-2,1.1338391E-1,-1.1455066E-1,-3.0780822E-1,-2.1603802E-1,2.2121724E-1,-2.7399716E-1,-5.458493E-2,-2.3344071E-1,-2.3319001E-1,-3.027814E-2,-1.894221E-1,-1.7990577E-3,3.2674953E-1,5.104415E-3,7.077304E-2,-1.4764264E-1,5.7311617E-2,-2.5747081E-2,2.3667471E-2,9.753924E-2,-1.3021585E-1,-2.5123677E-3,2.446474E-1,-7.879201E-2,3.6843263E-2,2.5063142E-1,-2.59724E-1,-2.0032644E-3,1.5763944E-2,-1.826475E-1],"categories":[],"categories_nodes":[],"categories_segments":[],"categories_sizes":[],"default_left":[0,0,0,0,0,0,0,0,0,0,0,0,0,0,0,0,0,0,0,0,0,0,0,0,0,0,0,0,0,0,0,0,0,0,0,0,0,0,0,0,0,0,0,0,0,0,0,0,0,0,0,0,0,0,0,0,0,0,0,0,0,0,0,0,0,0,0],"id":10,"left_children":[1,3,5,7,9,11,13,15,17,19,21,23,25,27,29,31,-1,33,35,37,-1,39,41,-1,-1,43,-1,-1,45,-1,-1,47,-1,-1,49,51,53,55,57,-1,59,61,63,-1,-1,-1,65,-1,-1,-1,-1,-1,-1,-1,-1,-1,-1,-1,-1,-1,-1,-1,-1,-1,-1,-1,-1],"loss_changes":[6.4497466E0,2.3967628E0,1.6415067E0,1.8673066E0,2.6087694E0,2.1021128E-1,2.4099562E0,8.6932015E-1,1.5036086E0,3.4752235E0,3.8306906E0,1.5330719E0,2.1583414E-1,3.2433612E0,4.5631576E-1,8.486814E-1,0E0,5.89277E0,1.5561521E0,2.401184E0,0E0,2.5653124E0,3.4190435E0,0E0,0E0,2.1756649E-1,0E0,0E0,1.817267E0,0E0,0E0,6.6215754E-1,0E0,0E0,1.0798192E0,2.1882653E0,1.6978762E0,2.1312091E0,1.860668E0,0E0,2.533283E0,2.7328513E0,3.1394439E0,0E0,0E0,0E0,8.752456E-1,0E0,0E0,0E0,0E0,0E0,0E0,0E0,0E0,0E0,0E0,0E0,0E0,0E0,0E0,0E0,0E0,0E0,0E0,0E0,0E0],"parents":[2147483647,0,0,1,1,2,2,3,3,4,4,5,5,6,6,7,7,8,8,9,9,10,10,11,11,12,12,13,13,14,14,15,15,17,17,18,18,19,19,21,21,22,22,25,25,28,28,31,31,34,34,35,35,36,36,37,37,38,38,40,40,41,41,42,42,46,46],"right_children":[2,4,6,8,10,12,14,16,18,20,22,24,26,28,30,32,-1,34,36,38,-1,40,42,-1,-1,44,-1,-1,46,-1,-1,48,-1,-1,50,52,54,56,58,-1,60,62,64,-1,-1,-1,66,-1,-1,-1,-1,-1,-1,-1,-1,-1,-1,-1,-1,-1,-1,-1,-1,-1,-1,-1,-1],"split_conditions":[1E0,1E0,4.45425E3,1.965E1,3.25185E3,7.408E2,7.2E1,1.955E1,2.03E1,3.21375E3,9.905E1,4.973E2,7.2E1,7.985E1,1E0,1.945E1,-2.7098608E-1,1E0,2.075E1,1E0,3.6582556E-1,3.8E1,6.423E3,-2.0194426E-1,1.4444645E-1,1.98E1,-4.553738E-2,3.1395254E-1,9.355E1,-2.267275E-2,-2.5618458E-1,1.123E2,7.831696E-2,-2.3488933E-1,2.02E1,1.99E1,4.055E1,2.25775E3,5.42E1,-3.0780822E-1,4E1,6.10975E3,6.81695E3,-5.458493E-2,-2.3344071E-1,-2.3319001E-1,1E0,-1.894221E-1,-1.7990577E-3,3.2674953E-1,5.104415E-3,7.077304E-2,-1.4764264E-1,5.7311617E-2,-2.5747081E-2,2.3667471E-2,9.753924E-2,-1.3021585E-1,-2.5123677E-3,2.446474E-1,-7.879201E-2,3.6843263E-2,2.5063142E-1,-2.59724E-1,-2.0032644E-3,1.5763944E-2,-1.826475E-1],"split_indices":[25,26,3,2,3,3,1,2,3,3,2,3,1,2,13,2,0,4,2,13,0,1,3,0,0,2,0,0,2,0,0,3,0,0,2,2,2,3,2,0,1,3,3,0,0,0,0,0,0,0,0,0,0,0,0,0,0,0,0,0,0,0,0,0,0,0,0],"split_type":[0,0,0,0,0,0,0,0,0,0,0,0,0,0,0,0,0,0,0,0,0,0,0,0,0,0,0,0,0,0,0,0,0,0,0,0,0,0,0,0,0,0,0,0,0,0,0,0,0,0,0,0,0,0,0,0,0,0,0,0,0,0,0,0,0,0,0],"sum_hessian":[7.274118E2,6.8384265E2,4.3569126E1,2.184403E2,4.6540237E2,1.6636564E1,2.6932562E1,1.0737556E1,2.0770274E2,3.499619E2,1.1544047E2,2.9157343E0,1.372083E1,2.1089924E1,5.8426385E0,8.20788E0,2.5296762E0,7.53932E0,2.0016342E2,3.4826883E2,1.6930745E0,5.064643E1,6.479404E1,1.9062585E0,1.009476E0,1.2402856E1,1.3179737E0,1.4131967E0,1.9676727E1,1.1053455E0,4.737293E0,6.455584E0,1.7522959E0,2.2743366E0,5.264983E0,2.1298035E1,1.7886539E2,2.9431274E2,5.3956097E1,3.403494E0,4.7242935E1,4.5910988E1,1.888305E1,1.4060497E0,1.0996806E1,3.078844E0,1.6597883E1,3.814876E0,2.640708E0,4.0727215E0,1.1922616E0,4.731475E0,1.6566559E1,2.488197E1,1.5398343E2,2.5426672E2,4.0046005E1,1.2687919E1,4.1268177E1,1.3288975E0,4.591404E1,4.0605404E1,5.3055835E0,5.1793075E0,1.3703743E1,1.5314621E1,1.2832623E0],"tree_param":{"num_deleted":"0","num_feature":"30","num_nodes":"67","size_leaf_vector":"1"}},{"base_weights":[-1.7635604E-2,-6.238894E-3,-5.4889196E-1,-1.8864614E-1,1.2201139E-2,-6.777004E-1,-1.3466416E-1,-9.5073126E-2,-7.8053E-1,5.146809E-2,-1.0899105E-1,-2.4039386E-1,-3.2530192E-1,-1.6277543E-1,1.08224615E-1,2.1790992E-1,-2.3220085E-1,-3.2248005E-1,-2.7431494E-1,8.710503E-2,-9.106412E-2,-1.282289E-1,6.882604E-1,-2.2520047E-1,7.51747E-2,-7.807198E-2,5.463228E-1,3.323636E-2,-4.3304113E-1,-2.2069402E-1,7.853025E-2,3.3830664E-1,5.6216843E-2,-4.0018615E-1,2.8334148E-2,-5.6077715E-2,-3.9533117E-1,3.9927274E-2,2.7448383E-1,-1.992823E-1,3.800457E-2,1.914046E-1,-3.1029612E-3,-5.597006E-2,1.9866215E-1,-7.5983554E-3,-1.8084851E-1,1.5147547E-1,-1.3168909E-1,7.706962E-3,8.5538074E-2,7.1748585E-2,-2.0430647E-1,1.3052504E-1,-5.4129753E-2,3.6747985E-2,-6.710916E-2,-1.939394E-1,-1.7956495E-2],"categories":[],"categories_nodes":[],"categories_segments":[],"categories_sizes":[],"default_left":[0,0,0,0,0,0,0,0,0,0,0,0,0,0,0,0,0,0,0,0,0,0,0,0,0,0,0,0,0,0,0,0,0,0,0,0,0,0,0,0,0,0,0,0,0,0,0,0,0,0,0,0,0,0,0,0,0,0,0],"id":11,"left_children":[1,3,5,7,9,11,13,15,17,19,21,-1,23,-1,-1,25,27,29,-1,31,33,35,37,-1,-1,39,41,43,45,-1,-1,47,49,51,53,55,57,-1,-1,-1,-1,-1,-1,-1,-1,-1,-1,-1,-1,-1,-1,-1,-1,-1,-1,-1,-1,-1,-1],"loss_changes":[4.357764E0,2.377661E0,7.152891E-1,3.5200992E0,3.0622127E0,2.3081923E-1,1.1725544E0,2.5045552E0,2.3980093E-1,2.4754968E0,2.5039215E0,0E0,1.3181994E0,0E0,0E0,1.7860126E0,2.159709E0,1.0415173E0,0E0,3.0003855E0,3.6157196E0,2.957892E0,3.6501956E-1,0E0,0E0,1.3214209E0,4.4692755E-1,2.6482875E0,1.5754924E0,0E0,0E0,5.71392E0,2.4225862E0,5.060352E0,6.139841E0,3.7064018E0,2.71808E0,0E0,0E0,0E0,0E0,0E0,0E0,0E0,0E0,0E0,0E0,0E0,0E0,0E0,0E0,0E0,0E0,0E0,0E0,0E0,0E0,0E0,0E0],"parents":[2147483647,0,0,1,1,2,2,3,3,4,4,5,5,6,6,7,7,8,8,9,9,10,10,12,12,15,15,16,16,17,17,19,19,20,20,21,21,22,22,25,25,26,26,27,27,28,28,31,31,32,32,33,33,34,34,35,35,36,36],"right_children":[2,4,6,8,10,12,14,16,18,20,22,-1,24,-1,-1,26,28,30,-1,32,34,36,38,-1,-1,40,42,44,46,-1,-1,48,50,52,54,56,58,-1,-1,-1,-1,-1,-1,-1,-1,-1,-1,-1,-1,-1,-1,-1,-1,-1,-1,-1,-1,-1,-1],"split_conditions":[7.1E1,2.085E1,1E0,1E0,1E0,7.5767E3,7.2E1,2.03E1,1.123E2,1E0,7.5767E3,-2.4039386E-1,1E0,-1.6277543E-1,1.08224615E-1,1.99E1,1.99E1,2E0,-2.7431494E-1,1E0,8.033E2,5.6E1,1E0,-2.2520047E-1,7.51747E-2,1E0,2.025E1,1.975E1,1E0,-2.2069402E-1,7.853025E-2,1E0,4.22295E3,1.2025E2,3E1,1E0,6.5E1,3.9927274E-2,2.7448383E-1,-1.992823E-1,3.800457E-2,1.914046E-1,-3.1029612E-3,-5.597006E-2,1.9866215E-1,-7.5983554E-3,-1.8084851E-1,1.5147547E-1,-1.3168909E-1,7.706962E-3,8.5538074E-2,7.1748585E-2,-2.0430647E-1,1.3052504E-1,-5.4129753E-2,3.6747985E-2,-6.710916E-2,-1.939394E-1,-1.7956495E-2],"split_indices":[1,2,28,27,19,3,1,3,3,13,3,0,4,0,0,2,2,1,0,7,3,1,4,0,0,29,2,2,29,0,0,6,3,3,1,4,1,0,0,0,0,0,0,0,0,0,0,0,0,0,0,0,0,0,0,0,0,0,0],"split_type":[0,0,0,0,0,0,0,0,0,0,0,0,0,0,0,0,0,0,0,0,0,0,0,0,0,0,0,0,0,0,0,0,0,0,0,0,0,0,0,0,0,0,0,0,0,0,0,0,0,0,0,0,0,0,0,0,0,0,0],"sum_hessian":[7.1931287E2,7.051965E2,1.4116394E1,6.389751E1,6.41299E2,1.0282795E1,3.833599E0,5.617693E1,7.7205815E0,4.8479727E2,1.5650171E2,6.6694417E0,3.6133533E0,2.0502312E0,1.7833676E0,1.6935013E1,3.9241917E1,2.5168943E0,5.203687E0,3.8814044E2,9.665683E1,1.5363367E2,2.868052E0,1.9037085E0,1.7096447E0,9.308242E0,7.6267715E0,1.726217E1,2.1979746E1,1.3225098E0,1.1943845E0,4.1410698E1,3.4672974E2,2.6276163E1,7.038066E1,1.2191204E2,3.1721624E1,1.2917008E0,1.5763512E0,1.8286451E0,7.479597E0,6.4227047E0,1.2040665E0,1.331309E1,3.9490802E0,6.799984E0,1.5179762E1,3.4389534E1,7.021164E0,3.0691272E2,3.9817024E1,8.064641E0,1.8211523E1,2.3503563E1,4.6877098E1,5.915807E1,6.275397E1,1.7611134E1,1.4110491E1],"tree_param":{"num_deleted":"0","num_feature":"30","num_nodes":"59","size_leaf_vector":"1"}},{"base_weights":[-1.533811E-2,6.7558466E-3,-2.2322279E-1,1.7789669E-3,6.6462576E-1,-5.167511E-1,-9.544353E-2,9.2450455E-3,-3.301923E-1,3.6522597E-1,1.9888255E-1,-7.409725E-1,-1.3696447E-1,1.5869959E-1,-4.3793505E-1,-1.1295888E-1,2.5963219E-2,-5.1062685E-1,1.5189658E-1,-8.240277E-2,1.4410841E-1,-2.6426834E-1,-3.0646712E-1,-6.8318903E-1,4.571273E-1,4.214512E-1,-1.4172766E-1,-5.2002966E-1,1.3434504E-1,-5.207935E-2,-5.7933533E-1,8.606724E-2,-3.8893018E-2,-1.13828495E-1,-2.6982126E-1,-1.404156E-1,2.2053474E-1,6.620626E-2,-2.133023E-1,-2.3539816E-1,-6.594353E-2,-3.7682086E-2,2.6011038E-1,8.406636E-1,-3.745396E-2,2.0268734E-1,-2.7149105E-1,1.9695921E-1,-6.2219626E-1,2.6221504E-3,-1.3415608E-1,-2.2219218E-1,-7.075271E-2,4.2482186E-2,-3.609841E-2,-6.884453E-2,1.3471988E-2,-1.7743105E-1,1.4450106E-1,-1.2160996E-1,2.1686335E-1,3.445386E-1,7.4132845E-2,-1.3618997E-1,1.2606356E-1,-1.5294303E-1,1.7691572E-1,1.3554202E-1,-3.7224937E-2,-2.329321E-1,-7.2227955E-2],"categories":[],"categories_nodes":[],"categories_segments":[],"categories_sizes":[],"default_left":[0,0,0,0,0,0,0,0,0,0,0,0,0,0,0,0,0,0,0,0,0,0,0,0,0,0,0,0,0,0,0,0,0,0,0,0,0,0,0,0,0,0,0,0,0,0,0,0,0,0,0,0,0,0,0,0,0,0,0,0,0,0,0,0,0,0,0,0,0,0,0],"id":12,"left_children":[1,3,5,7,9,11,13,15,17,-1,19,21,23,25,27,29,31,33,35,-1,-1,37,-1,39,41,43,45,47,-1,49,51,53,55,57,-1,-1,-1,59,-1,-1,-1,-1,-1,61,63,65,-1,67,69,-1,-1,-1,-1,-1,-1,-1,-1,-1,-1,-1,-1,-1,-1,-1,-1,-1,-1,-1,-1,-1,-1],"loss_changes":[3.2748585E0,2.1112483E0,2.5197694E0,1.5926414E0,1.0043948E0,1.6482983E0,4.330081E0,1.2863846E0,1.3070076E0,0E0,6.4153135E-1,1.4278388E0,3.1856925E0,2.3356986E0,1.7683525E0,2.1216354E0,2.1606607E0,1.5195601E0,2.0145147E0,0E0,0E0,9.405649E-1,0E0,6.327987E-2,1.265161E0,3.038807E0,3.9162478E0,1.5720477E0,0E0,1.6412221E0,3.047073E-1,3.313243E0,4.2726765E0,2.0903924E0,0E0,0E0,0E0,1.6535509E0,0E0,0E0,0E0,0E0,0E0,1.2165136E0,1.7958485E0,3.2241776E0,0E0,3.201276E-1,8.4620905E-1,0E0,0E0,0E0,0E0,0E0,0E0,0E0,0E0,0E0,0E0,0E0,0E0,0E0,0E0,0E0,0E0,0E0,0E0,0E0,0E0,0E0,0E0],"parents":[2147483647,0,0,1,1,2,2,3,3,4,4,5,5,6,6,7,7,8,8,10,10,11,11,12,12,13,13,14,14,15,15,16,16,17,17,18,18,21,21,23,23,24,24,25,25,26,26,27,27,29,29,30,30,31,31,32,32,33,33,37,37,43,43,44,44,45,45,47,47,48,48],"right_children":[2,4,6,8,10,12,14,16,18,-1,20,22,24,26,28,30,32,34,36,-1,-1,38,-1,40,42,44,46,48,-1,50,52,54,56,58,-1,-1,-1,60,-1,-1,-1,-1,-1,62,64,66,-1,68,70,-1,-1,-1,-1,-1,-1,-1,-1,-1,-1,-1,-1,-1,-1,-1,-1,-1,-1,-1,-1,-1,-1],"split_conditions":[6E1,6.10975E3,1E0,1E0,1.068E2,1E0,1E0,2.53E1,5.2E1,3.6522597E-1,1.0945E2,1E0,5.2898E3,1E0,1.1605E2,1E0,1.21545E3,1E0,1E0,-8.240277E-2,1.4410841E-1,1E0,-3.0646712E-1,4.62785E3,6.7E1,1.004E2,1E0,5.34795E3,1.3434504E-1,2.1E1,2.055E1,1E0,2.06855E3,1E0,-2.6982126E-1,-1.404156E-1,2.2053474E-1,4.62785E3,-2.133023E-1,-2.3539816E-1,-6.594353E-2,-3.7682086E-2,2.6011038E-1,1E0,6.8719E3,6.8719E3,-2.7149105E-1,1E0,7.47585E3,2.6221504E-3,-1.3415608E-1,-2.2219218E-1,-7.075271E-2,4.2482186E-2,-3.609841E-2,-6.884453E-2,1.3471988E-2,-1.7743105E-1,1.4450106E-1,-1.2160996E-1,2.1686335E-1,3.445386E-1,7.4132845E-2,-1.3618997E-1,1.2606356E-1,-1.5294303E-1,1.7691572E-1,1.3554202E-1,-3.7224937E-2,-2.329321E-1,-7.2227955E-2],"split_indices":[1,3,21,25,2,24,13,2,1,0,2,4,3,19,2,27,3,4,4,0,0,23,0,3,1,2,6,3,0,1,2,15,3,9,0,0,0,3,0,0,0,0,0,24,3,3,0,15,3,0,0,0,0,0,0,0,0,0,0,0,0,0,0,0,0,0,0,0,0,0,0],"split_type":[0,0,0,0,0,0,0,0,0,0,0,0,0,0,0,0,0,0,0,0,0,0,0,0,0,0,0,0,0,0,0,0,0,0,0,0,0,0,0,0,0,0,0,0,0,0,0,0,0,0,0,0,0,0,0,0,0,0,0,0,0,0,0,0,0,0,0,0,0,0,0],"sum_hessian":[7.1168317E2,6.4418665E2,6.749657E1,6.4034503E2,3.8415973E0,1.9547924E1,4.794864E1,6.272111E2,1.3133911E1,1.0186383E0,2.8229592E0,1.1693313E1,7.8546124E0,2.7832434E1,2.0116205E1,7.478712E1,5.52424E2,9.513889E0,3.620022E0,1.0614125E0,1.7615466E0,5.05199E0,6.6413226E0,4.0140295E0,3.8405826E0,1.4632293E1,1.3200142E1,1.8787783E1,1.3284233E0,6.713514E1,7.6519732E0,2.8654654E2,2.6587744E2,5.3481674E0,4.165722E0,1.8504764E0,1.7695456E0,3.3934743E0,1.6585156E0,2.7241392E0,1.2898903E0,1.8723607E0,1.9682219E0,7.212105E0,7.4201875E0,9.601763E0,3.598379E0,2.2275271E0,1.6560255E1,5.902687E1,8.10827E0,4.420086E0,3.2318876E0,2.2603535E2,6.05112E1,8.0669426E1,1.8520802E2,2.9716406E0,2.3765266E0,2.1978424E0,1.1956321E0,4.133641E0,3.0784643E0,3.8889835E0,3.5312042E0,3.268134E0,6.333629E0,1.0147188E0,1.2128084E0,1.1054502E1,5.505754E0],"tree_param":{"num_deleted":"0","num_feature":"30","num_nodes":"71","size_leaf_vector":"1"}},{"base_weights":[-1.3715221E-2,-4.9082595E-3,-4.7819787E-1,1.909951E-2,-9.861257E-2,-2.4430878E-1,-2.8583032E-1,4.8439976E-2,-8.1813835E-2,-5.7455227E-2,-8.453009E-1,8.464967E-2,-5.883288E-1,8.136741E-2,-8.731786E-2,-1.1401422E-1,3.3753082E-1,-9.439407E-2,5.830154E-1,-8.384683E-3,-2.9145488E-1,-1.3064642E-1,4.5494232E-1,-1.9855134E-1,-4.3347202E-2,2.5998187E-1,4.0051393E-2,-1.3351396E-1,5.348109E-1,1.7435437E-2,-2.4715103E-1,-1.5038355E-1,6.379307E-1,-1.3944487E-1,3.413061E-1,9.5575863E-1,1.9740644E-1,2.6806217E-1,-6.953294E-2,-2.0123059E-2,1.3484578E-1,-9.419114E-2,2.9980494E-2,-1.2153545E-2,-1.4836827E-1,-4.4429626E-2,2.7623445E-1,-6.252933E-3,2.5081065E-1,-1.453746E-1,-3.7503713E-3,2.955942E-1,-1.0465663E-3,-2.260527E-2,-1.7601582E-1,1.4795086E-1,-7.628387E-2,3.2584023E-2,4.0619776E-1,1.6516101E-1,-8.581264E-2],"categories":[],"categories_nodes":[],"categories_segments":[],"categories_sizes":[],"default_left":[0,0,0,0,0,0,0,0,0,0,0,0,0,0,0,0,0,0,0,0,0,0,0,0,0,0,0,0,0,0,0,0,0,0,0,0,0,0,0,0,0,0,0,0,0,0,0,0,0,0,0,0,0,0,0,0,0,0,0,0,0],"id":13,"left_children":[1,3,5,7,9,-1,11,13,15,17,19,21,23,25,27,29,31,33,35,-1,-1,-1,37,-1,-1,39,41,43,45,47,49,-1,51,53,55,57,59,-1,-1,-1,-1,-1,-1,-1,-1,-1,-1,-1,-1,-1,-1,-1,-1,-1,-1,-1,-1,-1,-1,-1,-1],"loss_changes":[2.8838735E0,1.5618708E0,6.1557794E-1,1.6408639E0,4.3027945E0,0E0,1.1575793E0,1.9245557E0,1.7250776E0,3.2552376E0,7.283964E-1,1.222255E0,8.601332E-2,2.5409658E0,2.4916675E0,2.0474377E0,2.627811E0,2.574831E0,8.915467E-1,0E0,0E0,0E0,1.2899373E0,0E0,0E0,4.0443387E0,6.009067E0,2.6390793E0,1.7233299E0,1.8874497E0,3.2289884E0,0E0,1.6042402E0,3.3212864E0,1.2429162E0,1.0543408E0,1.003274E0,0E0,0E0,0E0,0E0,0E0,0E0,0E0,0E0,0E0,0E0,0E0,0E0,0E0,0E0,0E0,0E0,0E0,0E0,0E0,0E0,0E0,0E0,0E0,0E0],"parents":[2147483647,0,0,1,1,2,2,3,3,4,4,6,6,7,7,8,8,9,9,10,10,11,11,12,12,13,13,14,14,15,15,16,16,17,17,18,18,22,22,25,25,26,26,27,27,28,28,29,29,30,30,32,32,33,33,34,34,35,35,36,36],"right_children":[2,4,6,8,10,-1,12,14,16,18,20,22,24,26,28,30,32,34,36,-1,-1,-1,38,-1,-1,40,42,44,46,48,50,-1,52,54,56,58,60,-1,-1,-1,-1,-1,-1,-1,-1,-1,-1,-1,-1,-1,-1,-1,-1,-1,-1,-1,-1,-1,-1,-1,-1],"split_conditions":[7.1E1,1E0,1E0,1E0,5E1,-2.4430878E-1,1E0,1E0,6.8E1,9.445E1,2.425E1,1E0,8.1242E3,4.95E1,6.5E1,1E0,1E0,1E0,1E0,-8.384683E-3,-2.9145488E-1,-1.3064642E-1,1E0,-1.9855134E-1,-4.3347202E-2,9.085E1,1E0,9.47E1,1E0,1.079E2,1E0,-1.5038355E-1,1E0,7.535E1,1E0,1E0,1E0,2.6806217E-1,-6.953294E-2,-2.0123059E-2,1.3484578E-1,-9.419114E-2,2.9980494E-2,-1.2153545E-2,-1.4836827E-1,-4.4429626E-2,2.7623445E-1,-6.252933E-3,2.5081065E-1,-1.453746E-1,-3.7503713E-3,2.955942E-1,-1.0465663E-3,-2.260527E-2,-1.7601582E-1,1.4795086E-1,-7.628387E-2,3.2584023E-2,4.0619776E-1,1.6516101E-1,-8.581264E-2],"split_indices":[1,29,26,19,1,0,13,6,1,2,2,25,3,2,1,17,17,0,15,0,0,0,19,0,0,3,10,2,17,2,5,0,6,2,17,17,4,0,0,0,0,0,0,0,0,0,0,0,0,0,0,0,0,0,0,0,0,0,0,0,0],"split_type":[0,0,0,0,0,0,0,0,0,0,0,0,0,0,0,0,0,0,0,0,0,0,0,0,0,0,0,0,0,0,0,0,0,0,0,0,0,0,0,0,0,0,0,0,0,0,0,0,0,0,0,0,0,0,0,0,0,0,0,0,0],"sum_hessian":[7.0455994E2,6.924413E2,1.211867E1,5.5184937E2,1.4059192E2,3.2339444E0,8.884726E0,4.279448E2,1.2390459E2,1.3426802E2,6.323886E0,4.317322E0,4.5674043E0,3.447322E2,8.321257E1,1.1574494E2,8.159641E0,1.2775257E2,6.515454E0,1.0092926E0,5.3145933E0,1.7221752E0,2.5951467E0,3.497049E0,1.070355E0,6.376696E1,2.8096527E2,7.819183E1,5.020734E0,5.8678787E1,5.7066154E1,1.9752972E0,6.1843443E0,1.1639722E2,1.1355357E1,2.5611684E0,3.9542856E0,1.3998848E0,1.195262E0,2.3630285E1,4.0136673E1,4.0036003E1,2.4092926E2,6.306032E1,1.5131513E1,2.0355198E0,2.9852138E0,5.6988487E1,1.6902997E0,2.7835556E1,2.9230598E1,3.6638894E0,2.5204546E0,1.02830215E2,1.3566997E1,9.185246E0,2.1701105E0,1.2259651E0,1.3352033E0,2.2049394E0,1.7493463E0],"tree_param":{"num_deleted":"0","num_feature":"30","num_nodes":"61","size_leaf_vector":"1"}},{"base_weights":[-1.09378E-2,6.1711348E-3,-1.8130581E-1,8.885987E-4,4.6269733E-1,-4.4177336E-1,-7.5653285E-2,7.2094067E-3,-3.410417E-1,2.9707837E-1,1.3025027E-2,-5.692163E-1,2.4774094E-1,8.9482635E-2,-3.2916212E-1,-5.714587E-3,3.5819724E-1,7.365747E-2,-4.2988068E-1,1.7631081E-1,-3.0423573E-1,-7.8572524E-1,-2.0961325E-1,1.838825E-1,-7.1892545E-2,-1.3469212E-1,3.0570787E-1,-4.1295463E-1,1.2798217E-1,8.086131E-4,-3.9634094E-1,2.3497824E-1,4.4213745E-1,-1.065678E-1,-6.882973E-1,-1.5712072E-1,3.640731E-2,-1.3101565E-2,-2.6186967E-1,-2.2134821E-1,1.3394105E-1,-6.435292E-1,5.2892163E-2,3.0541775E-1,1.16837814E-1,2.3377742E-1,-5.189183E-1,5.5465554E-3,-4.2712342E-2,-2.1929109E-1,1.2214619E-2,-2.1112092E-1,9.9744625E-2,-2.3655759E-1,9.7677484E-2,-3.0239058E-1,1.6460933E-2,-1.7883037E-1,1.3995257E-1,-5.9982326E-2,-2.2625196E-1,1.9271882E-1,-5.967452E-2,-4.4261687E-2,1.17418475E-1,-2.2837248E-2,1.3306478E-1,-1.979225E-1,-6.1813716E-2],"categories":[],"categories_nodes":[],"categories_segments":[],"categories_sizes":[],"default_left":[0,0,0,0,0,0,0,0,0,0,0,0,0,0,0,0,0,0,0,0,0,0,0,0,0,0,0,0,0,0,0,0,0,0,0,0,0,0,0,0,0,0,0,0,0,0,0,0,0,0,0,0,0,0,0,0,0,0,0,0,0,0,0,0,0,0,0,0,0],"id":14,"left_children":[1,3,5,7,9,11,13,15,17,-1,19,21,23,25,27,29,31,-1,33,-1,35,37,39,-1,-1,41,43,45,-1,47,49,51,-1,53,55,-1,-1,-1,-1,-1,57,59,61,-1,63,65,67,-1,-1,-1,-1,-1,-1,-1,-1,-1,-1,-1,-1,-1,-1,-1,-1,-1,-1,-1,-1,-1,-1],"loss_changes":[2.0431223E0,1.537223E0,1.7268412E0,1.3668797E0,1.7168456E0,1.7448928E0,1.9850289E0,2.8182092E0,7.0371425E-1,0E0,1.0812262E0,1.0582848E0,7.7769476E-1,1.4504232E0,1.3565958E0,1.5285914E0,2.6866224E0,0E0,7.89932E-1,0E0,4.23026E-1,5.725899E-1,1.417584E0,0E0,0E0,1.462769E0,1.9132892E0,1.3060396E0,0E0,1.4984934E0,1.4708012E0,2.1614573E0,0E0,1.9581673E0,1.3760602E0,0E0,0E0,0E0,0E0,0E0,1.5526185E0,5.0819755E-2,1.8883922E0,0E0,1.006377E0,2.3679689E-1,5.322094E-1,0E0,0E0,0E0,0E0,0E0,0E0,0E0,0E0,0E0,0E0,0E0,0E0,0E0,0E0,0E0,0E0,0E0,0E0,0E0,0E0,0E0,0E0],"parents":[2147483647,0,0,1,1,2,2,3,3,4,4,5,5,6,6,7,7,8,8,10,10,11,11,12,12,13,13,14,14,15,15,16,16,18,18,20,20,21,21,22,22,25,25,26,26,27,27,29,29,30,30,31,31,33,33,34,34,40,40,41,41,42,42,44,44,45,45,46,46],"right_children":[2,4,6,8,10,12,14,16,18,-1,20,22,24,26,28,30,32,-1,34,-1,36,38,40,-1,-1,42,44,46,-1,48,50,52,-1,54,56,-1,-1,-1,-1,-1,58,60,62,-1,64,66,68,-1,-1,-1,-1,-1,-1,-1,-1,-1,-1,-1,-1,-1,-1,-1,-1,-1,-1,-1,-1,-1,-1],"split_conditions":[6E1,5.91645E3,1E0,5.7E1,1.068E2,6.3109E3,1E0,5.3E1,4.26E1,2.9707837E-1,1E0,1E0,1E0,1E0,1.1605E2,1E0,1E0,7.365747E-2,1E0,1.7631081E-1,1E0,2E1,6.5E1,1.838825E-1,-7.1892545E-2,6.24135E3,5.7855E3,5.34795E3,1.2798217E-1,1E0,1E0,5.42E1,4.4213745E-1,7E1,1E0,-1.5712072E-1,3.640731E-2,-1.3101565E-2,-2.6186967E-1,-2.2134821E-1,1E0,1E0,1E0,3.0541775E-1,6.8719E3,4.7383E3,7.47585E3,5.5465554E-3,-4.2712342E-2,-2.1929109E-1,1.2214619E-2,-2.1112092E-1,9.9744625E-2,-2.3655759E-1,9.7677484E-2,-3.0239058E-1,1.6460933E-2,-1.7883037E-1,1.3995257E-1,-5.9982326E-2,-2.2625196E-1,1.9271882E-1,-5.967452E-2,-4.4261687E-2,1.17418475E-1,-2.2837248E-2,1.3306478E-1,-1.979225E-1,-6.1813716E-2],"split_indices":[1,3,21,1,2,3,13,1,2,0,5,17,4,28,2,25,11,0,15,0,25,2,1,0,0,3,3,3,0,24,9,2,0,2,13,0,0,0,0,0,9,23,15,0,3,3,3,0,0,0,0,0,0,0,0,0,0,0,0,0,0,0,0,0,0,0,0,0,0],"split_type":[0,0,0,0,0,0,0,0,0,0,0,0,0,0,0,0,0,0,0,0,0,0,0,0,0,0,0,0,0,0,0,0,0,0,0,0,0,0,0,0,0,0,0,0,0,0,0,0,0,0,0,0,0,0,0,0,0,0,0,0,0,0,0,0,0,0,0,0,0],"sum_hessian":[6.995602E2,6.365949E2,6.296525E1,6.303035E2,6.2913947E0,1.7252035E1,4.571321E1,6.198246E2,1.0478951E1,2.341785E0,3.9496098E0,1.4708018E1,2.5440156E0,2.8073275E1,1.7639938E1,5.9876086E2,2.1063717E1,1.146353E0,9.332598E0,1.1016616E0,2.847948E0,8.440939E0,6.26708E0,1.3070279E0,1.2369878E0,1.3968401E1,1.4104874E1,1.6287708E1,1.3522288E0,5.899077E2,8.853136E0,2.005882E1,1.0048952E0,4.7731504E0,4.559448E0,1.7267666E0,1.1211815E0,1.0451578E0,7.3957815E0,2.0175188E0,4.249561E0,3.1077557E0,1.0860645E1,2.0359032E0,1.2068971E1,2.1231577E0,1.4164551E1,5.2584814E2,6.405959E1,4.6332407E0,4.2198954E0,1.3024083E0,1.8756413E1,1.531613E0,3.2415376E0,2.9389508E0,1.6204969E0,1.081989E0,3.1675718E0,1.1808039E0,1.9269519E0,2.7863655E0,8.07428E0,6.3841596E0,5.684811E0,1.1142119E0,1.0089458E0,9.003454E0,5.1610966E0],"tree_param":{"num_deleted":"0","num_feature":"30","num_nodes":"69","size_leaf_vector":"1"}},{"base_weights":[-9.305067E-3,-2.6328487E-3,-4.016156E-1,-2.2407794E-2,8.841888E-2,-5.5153495E-1,-4.7756467E-2,-9.925756E-3,-2.3985016E-1,3.8152286E-1,3.4760882E-3,-6.877493E-1,-2.4197574E-1,-1.1098143E-1,7.7059105E-2,-1.690352E-2,4.154741E-1,-3.970213E-1,3.4798384E-2,7.3415446E-1,-8.09459E-2,-1.9414446E-1,1.094979E-1,-7.145794E-2,-2.3542243E-1,-1.9456734E-1,6.736955E-2,4.4835717E-3,-2.0435227E-1,-1.9749737E-1,8.6257607E-1,-6.2860674E-1,-1.1918533E-1,-2.6146668E-1,5.219626E-1,9.027744E-1,-1.090487E-1,-4.6840283E-1,1.0761731E0,2.5702378E-1,-3.825117E-1,7.4416214E-1,-4.8595252E-3,-7.996326E-3,4.713643E-2,8.759935E-2,-1.3509189E-1,3.7506104E-1,-1.8500692E-1,-4.866252E-2,-2.4572748E-1,2.4095206E-1,-1.284982E-1,-2.0436035E-1,7.836623E-2,4.043317E-1,-1.9849341E-2,1.6989884E-1,3.652315E-1,-2.1026546E-1,1.8975624E-1,4.6397433E-2,4.15789E-1,1.5683234E-1,-2.3446229E-1,-1.3992251E-1,1.418004E-1,2.867733E-1,3.5145428E-2,-6.332297E-2,7.9421945E-2],"categories":[],"categories_nodes":[],"categories_segments":[],"categories_sizes":[],"default_left":[0,0,0,0,0,0,0,0,0,0,0,0,0,0,0,0,0,0,0,0,0,0,0,0,0,0,0,0,0,0,0,0,0,0,0,0,0,0,0,0,0,0,0,0,0,0,0,0,0,0,0,0,0,0,0,0,0,0,0,0,0,0,0,0,0,0,0,0,0,0,0],"id":15,"left_children":[1,3,5,7,9,11,13,15,17,19,21,23,25,-1,-1,27,29,31,33,35,37,39,41,-1,-1,-1,-1,43,45,-1,47,49,51,53,55,57,-1,59,61,63,65,67,69,-1,-1,-1,-1,-1,-1,-1,-1,-1,-1,-1,-1,-1,-1,-1,-1,-1,-1,-1,-1,-1,-1,-1,-1,-1,-1,-1,-1],"loss_changes":[1.8215916E0,1.2365642E0,5.910528E-1,1.5287243E0,3.04975E0,1.742754E-1,5.423696E-1,1.5937284E0,1.3339348E0,4.548374E0,2.033115E0,3.4062386E-2,9.066188E-1,0E0,0E0,2.1131594E0,4.728196E0,1.1817837E0,1.8757058E0,3.237115E0,6.2468004E0,2.9783158E0,4.5857577E0,0E0,0E0,0E0,0E0,2.2565472E0,6.7212696E0,0E0,4.5273695E0,7.9272413E-1,3.2276502E0,1.968082E0,2.4645324E0,7.832451E-1,0E0,3.0776691E0,7.894988E-1,3.3284938E0,1.9645293E0,1.1686273E0,3.0851989E0,0E0,0E0,0E0,0E0,0E0,0E0,0E0,0E0,0E0,0E0,0E0,0E0,0E0,0E0,0E0,0E0,0E0,0E0,0E0,0E0,0E0,0E0,0E0,0E0,0E0,0E0,0E0,0E0],"parents":[2147483647,0,0,1,1,2,2,3,3,4,4,5,5,6,6,7,7,8,8,9,9,10,10,11,11,12,12,15,15,16,16,17,17,18,18,19,19,20,20,21,21,22,22,27,27,28,28,30,30,31,31,32,32,33,33,34,34,35,35,37,37,38,38,39,39,40,40,41,41,42,42],"right_children":[2,4,6,8,10,12,14,16,18,20,22,24,26,-1,-1,28,30,32,34,36,38,40,42,-1,-1,-1,-1,44,46,-1,48,50,52,54,56,58,-1,60,62,64,66,68,70,-1,-1,-1,-1,-1,-1,-1,-1,-1,-1,-1,-1,-1,-1,-1,-1,-1,-1,-1,-1,-1,-1,-1,-1,-1,-1,-1,-1],"split_conditions":[7.1E1,9.8E1,1E0,5.7E1,1.002E2,7.5767E3,7.2E1,4.7383E3,1E0,3.9E1,4.0256E3,1E0,1E0,-1.1098143E-1,7.7059105E-2,9.065E1,9.355E1,5.06965E3,1E0,1E0,1E2,1.63695E3,4.4E1,-7.145794E-2,-2.3542243E-1,-1.9456734E-1,6.736955E-2,2.06855E3,1.2291E3,-1.9749737E-1,1E0,2.4701E3,8.76E1,1E0,7.28E1,1E0,-1.090487E-1,6.6E1,5.34795E3,1E0,1E0,1E0,1E0,-7.996326E-3,4.713643E-2,8.759935E-2,-1.3509189E-1,3.7506104E-1,-1.8500692E-1,-4.866252E-2,-2.4572748E-1,2.4095206E-1,-1.284982E-1,-2.0436035E-1,7.836623E-2,4.043317E-1,-1.9849341E-2,1.6989884E-1,3.652315E-1,-2.1026546E-1,1.8975624E-1,4.6397433E-2,4.15789E-1,1.5683234E-1,-2.3446229E-1,-1.3992251E-1,1.418004E-1,2.867733E-1,3.5145428E-2,-6.332297E-2,7.9421945E-2],"split_indices":[1,2,28,1,2,3,1,3,13,1,3,15,4,0,0,2,2,3,27,27,2,3,1,0,0,0,0,3,3,0,27,3,2,6,2,5,0,1,3,6,29,24,4,0,0,0,0,0,0,0,0,0,0,0,0,0,0,0,0,0,0,0,0,0,0,0,0,0,0,0,0],"split_type":[0,0,0,0,0,0,0,0,0,0,0,0,0,0,0,0,0,0,0,0,0,0,0,0,0,0,0,0,0,0,0,0,0,0,0,0,0,0,0,0,0,0,0,0,0,0,0,0,0,0,0,0,0,0,0,0,0,0,0,0,0,0,0,0,0,0,0,0,0,0,0],"sum_hessian":[6.9531036E2,6.846725E2,1.0637852E1,5.631249E2,1.2154761E2,7.079748E0,3.558103E0,5.335431E2,2.95818E1,2.6525854E1,9.502176E1,4.0680094E0,3.0117388E0,1.6249987E0,1.9331045E0,5.258775E2,7.665618E0,1.8531406E1,1.1050394E1,1.4716829E1,1.1809024E1,3.2888218E1,6.2133537E1,1.3351974E0,2.7328122E0,1.4008136E0,1.6109252E0,4.7289795E2,5.297953E1,2.1145961E0,5.551022E0,9.418373E0,9.113034E0,7.1596174E0,3.8907766E0,1.2910994E1,1.8058351E0,9.2926235E0,2.516401E0,9.579463E0,2.3308754E1,8.645447E0,5.348809E1,3.934582E2,7.943976E1,1.7492134E1,3.5487396E1,4.5211473E0,1.0298746E0,3.268086E0,6.150287E0,1.8864704E0,7.226564E0,3.802679E0,3.3569386E0,1.081113E0,2.8096635E0,7.5926123E0,5.3183813E0,7.9724483E0,1.3201748E0,1.0103141E0,1.506087E0,8.023123E0,1.5563405E0,2.1640354E1,1.6683997E0,6.070736E0,2.5747108E0,3.0429548E1,2.3058544E1],"tree_param":{"num_deleted":"0","num_feature":"30","num_nodes":"71","size_leaf_vector":"1"}},{"base_weights":[-6.4506517E-3,-9.1522635E-4,-3.526942E-1,-5.638716E-2,2.540467E-2,-2.1291478E-1,-1.8639965E-1,-7.123653E-2,4.5660502E-1,1.9083843E-1,1.0517422E-2,9.813301E-2,-4.6624753E-1,-5.0566044E-2,-5.6098706E-1,3.0939192E-1,-3.0607231E-2,4.6466604E-1,-3.753085E-2,-5.7447903E-2,7.279083E-2,-1.0221552E-1,3.6708024E-1,-1.9025461E-1,-5.0709177E-2,-7.4521534E-2,2.5503948E-1,-2.5309375E-1,-2.057489E-1,1.9475453E-1,-1.9690421E-1,-1.4288916E-1,5.8295935E-1,5.6583023E-1,-1.6348793E-1,-9.969961E-2,1.0209942E-1,4.268207E-1,2.9435856E-2,2.049516E-1,-5.7919696E-2,-1.6189728E-2,-1.8225284E-1,3.2145345E-1,-5.5852097E-2,8.761197E-2,-1.6299063E-1,1.2204209E-1,2.9853666E-1,-6.0807165E-2,2.7533808E-1,2.1736394E-1,-8.507658E-2,-8.42161E-3,-1.3582756E-1,2.5822386E-1,-2.2035614E-2,1.0758564E-2,3.0889505E-1,-2.098245E-1,1.8242503E-2],"categories":[],"categories_nodes":[],"categories_segments":[],"categories_sizes":[],"default_left":[0,0,0,0,0,0,0,0,0,0,0,0,0,0,0,0,0,0,0,0,0,0,0,0,0,0,0,0,0,0,0,0,0,0,0,0,0,0,0,0,0,0,0,0,0,0,0,0,0,0,0,0,0,0,0,0,0,0,0,0,0],"id":16,"left_children":[1,3,5,7,9,-1,11,13,15,17,19,21,23,25,27,-1,29,31,33,35,37,-1,39,-1,-1,41,43,-1,45,-1,-1,-1,47,49,51,53,55,57,59,-1,-1,-1,-1,-1,-1,-1,-1,-1,-1,-1,-1,-1,-1,-1,-1,-1,-1,-1,-1,-1,-1],"loss_changes":[1.3257595E0,9.971727E-1,5.1394E-1,1.7066828E0,1.1388658E0,0E0,7.450308E-1,2.1426597E0,1.8005328E0,2.4053545E0,1.8073936E0,7.3653656E-1,1.224705E-1,1.533493E0,6.8852806E-1,0E0,2.2935886E0,2.2188408E0,1.745191E0,1.3872075E0,3.406786E0,0E0,7.858629E-1,0E0,0E0,2.0774193E0,5.6979394E0,0E0,1.0201542E0,0E0,0E0,0E0,7.525878E-1,1.2625576E0,2.207E0,4.084284E0,5.825131E0,5.6738124E0,4.6052613E0,0E0,0E0,0E0,0E0,0E0,0E0,0E0,0E0,0E0,0E0,0E0,0E0,0E0,0E0,0E0,0E0,0E0,0E0,0E0,0E0,0E0,0E0],"parents":[2147483647,0,0,1,1,2,2,3,3,4,4,6,6,7,7,8,8,9,9,10,10,11,11,12,12,13,13,14,14,16,16,17,17,18,18,19,19,20,20,22,22,25,25,26,26,28,28,32,32,33,33,34,34,35,35,36,36,37,37,38,38],"right_children":[2,4,6,8,10,-1,12,14,16,18,20,22,24,26,28,-1,30,32,34,36,38,-1,40,-1,-1,42,44,-1,46,-1,-1,-1,48,50,52,54,56,58,60,-1,-1,-1,-1,-1,-1,-1,-1,-1,-1,-1,-1,-1,-1,-1,-1,-1,-1,-1,-1,-1,-1],"split_conditions":[7.1E1,1E0,1E0,6.49615E3,7.015E1,-2.1291478E-1,1E0,6E1,1E0,1E0,1E0,1E0,1.079E2,4.0256E3,1E0,3.0939192E-1,1.054E2,1.96E1,1E0,2.3171E3,6E0,-1.0221552E-1,1E0,-1.9025461E-1,-5.0709177E-2,1.002E2,4.55485E3,-2.5309375E-1,1E0,1.9475453E-1,-1.9690421E-1,-1.4288916E-1,5.575E1,2.48E1,1.965E1,2.3E1,2.54855E3,8.41E1,5.871E2,2.049516E-1,-5.7919696E-2,-1.6189728E-2,-1.8225284E-1,3.2145345E-1,-5.5852097E-2,8.761197E-2,-1.6299063E-1,1.2204209E-1,2.9853666E-1,-6.0807165E-2,2.7533808E-1,2.1736394E-1,-8.507658E-2,-8.42161E-3,-1.3582756E-1,2.5822386E-1,-2.2035614E-2,1.0758564E-2,3.0889505E-1,-2.098245E-1,1.8242503E-2],"split_indices":[1,26,26,3,3,0,13,1,5,4,9,25,2,3,17,0,2,2,7,3,1,0,19,0,0,2,3,0,23,0,0,0,2,2,2,1,3,2,3,0,0,0,0,0,0,0,0,0,0,0,0,0,0,0,0,0,0,0,0,0,0],"split_type":[0,0,0,0,0,0,0,0,0,0,0,0,0,0,0,0,0,0,0,0,0,0,0,0,0,0,0,0,0,0,0,0,0,0,0,0,0,0,0,0,0,0,0,0,0,0,0,0,0,0,0,0,0,0,0,0,0,0,0,0,0],"sum_hessian":[6.9089124E2,6.810066E2,9.884666E0,2.1877435E2,4.622322E2,2.1026387E0,7.782028E0,2.1345665E2,5.317706E0,3.7185986E1,4.250462E2,4.180688E0,3.60134E0,2.0587088E2,7.5857697E0,1.9274238E0,3.3902824E0,1.643945E1,2.0746538E1,2.0327211E2,2.2177411E2,1.4871649E0,2.6935232E0,1.5767213E0,2.0246189E0,1.916075E2,1.426338E1,3.4587836E0,4.126986E0,1.6070067E0,1.7832756E0,1.4979118E0,1.4941537E1,2.9799068E0,1.7766632E1,1.6100854E2,4.226356E1,2.3230742E1,1.9854337E2,1.5814657E0,1.1120573E0,1.8555254E2,6.0549645E0,4.5026307E0,9.760749E0,1.7221574E0,2.4048285E0,1.1859826E1,3.0817113E0,1.0692617E0,1.9106451E0,1.5169973E0,1.6249634E1,1.347503E2,2.6258244E1,7.208573E0,3.505499E1,1.4734393E1,8.496349E0,7.3146353E0,1.9122873E2],"tree_param":{"num_deleted":"0","num_feature":"30","num_nodes":"61","size_leaf_vector":"1"}},{"base_weights":[-4.1968916E-3,2.6828764E-2,-5.2099284E-2,1.5167937E-2,6.066925E-1,-3.5661122E-1,-6.800875E-3,2.8452836E-2,-3.1638178E-1,4.2855695E-2,3.617355E-1,-1.6836983E-1,-6.2491786E-1,5.9453785E-1,-2.7323414E-2,3.3935107E-2,-2.8058407E-1,-9.8204595E-1,-4.902925E-2,-1.7720912E-1,6.522514E-1,-4.223844E-2,-5.803699E-1,-9.134285E-1,-2.2748074E-1,2.1063156E-1,3.4148258E-1,-5.0578874E-1,-1.0615983E-2,1.64041E-2,4.420241E-1,-8.17364E-2,-3.3248106E-1,3.7726966E-1,-3.443887E-1,2.3920669E-1,6.361001E-2,-3.5566545E-1,3.4174633E-1,-2.4368681E-1,6.644676E-3,-3.052367E-1,-3.4779083E-2,2.111645E-1,-5.8876514E-1,-2.8593704E-1,2.3189956E-1,-9.424006E-1,-1.18875895E-2,-4.693673E-1,-6.953126E-5,2.4035746E-4,1.10450804E-1,1.8179385E-1,-1.2541357E-1,-3.0059665E-1,1.6708713E-2,-1.6028777E-1,9.068014E-2,-1.8619608E-2,2.780469E-1,2.3177731E-1,-7.9932846E-2,-2.4738763E-1,-7.5978143E-3,-1.7687179E-1,7.754127E-2,-3.3345553E-1,-6.855095E-2,-1.516291E-1,1.193933E-1,-2.0572895E-1,3.8965765E-2,1.1561238E-1,-7.6749953E-3],"categories":[],"categories_nodes":[],"categories_segments":[],"categories_sizes":[],"default_left":[0,0,0,0,0,0,0,0,0,0,0,0,0,0,0,0,0,0,0,0,0,0,0,0,0,0,0,0,0,0,0,0,0,0,0,0,0,0,0,0,0,0,0,0,0,0,0,0,0,0,0,0,0,0,0,0,0,0,0,0,0,0,0,0,0,0,0,0,0,0,0,0,0,0,0],"id":17,"left_children":[1,3,5,7,9,11,13,15,17,19,-1,21,23,25,27,29,-1,31,33,-1,35,37,39,41,43,45,-1,47,49,51,53,-1,-1,-1,55,-1,-1,57,59,-1,-1,-1,-1,61,63,65,-1,67,69,71,73,-1,-1,-1,-1,-1,-1,-1,-1,-1,-1,-1,-1,-1,-1,-1,-1,-1,-1,-1,-1,-1,-1,-1,-1],"loss_changes":[1.0215514E0,2.8121428E0,3.7241595E0,1.8151304E0,2.718127E0,1.6607366E0,2.9311483E0,2.119622E0,2.7779737E0,2.416483E0,0E0,1.1144371E0,1.4029965E0,1.396559E0,1.8281006E0,2.8108234E0,0E0,1.0090494E-1,5.2115765E0,0E0,3.258753E-2,2.270845E0,7.2486246E-1,5.297775E-1,1.271712E0,1.8467877E0,0E0,1.6529664E0,1.0771472E0,2.0783226E0,2.5357797E0,0E0,0E0,0E0,2.9194107E0,0E0,0E0,1.3746675E0,2.074215E0,0E0,0E0,0E0,0E0,1.2800242E0,5.41803E-1,7.841286E-1,0E0,2.390151E-1,1.1385087E0,7.3786783E-1,2.1599703E0,0E0,0E0,0E0,0E0,0E0,0E0,0E0,0E0,0E0,0E0,0E0,0E0,0E0,0E0,0E0,0E0,0E0,0E0,0E0,0E0,0E0,0E0,0E0,0E0],"parents":[2147483647,0,0,1,1,2,2,3,3,4,4,5,5,6,6,7,7,8,8,9,9,11,11,12,12,13,13,14,14,15,15,17,17,18,18,20,20,21,21,22,22,23,23,24,24,25,25,27,27,28,28,29,29,30,30,34,34,37,37,38,38,43,43,44,44,45,45,47,47,48,48,49,49,50,50],"right_children":[2,4,6,8,10,12,14,16,18,20,-1,22,24,26,28,30,-1,32,34,-1,36,38,40,42,44,46,-1,48,50,52,54,-1,-1,-1,56,-1,-1,58,60,-1,-1,-1,-1,62,64,66,-1,68,70,72,74,-1,-1,-1,-1,-1,-1,-1,-1,-1,-1,-1,-1,-1,-1,-1,-1,-1,-1,-1,-1,-1,-1,-1,-1],"split_conditions":[2.6E1,2.5E1,2.06855E3,1.916E3,1E0,4.055E1,2.1864E3,1.079E2,8.985E1,1E0,3.617355E-1,1.45425E3,1.8324E3,1E0,2.8E1,9.8E1,-2.8058407E-1,8.38E1,1E0,-1.7720912E-1,7.645E1,1.01735E3,1E0,5.945E1,1E0,7.645E1,3.4148258E-1,1E0,5.02E1,2.2E1,1E0,-8.17364E-2,-3.3248106E-1,3.7726966E-1,9.575E1,2.3920669E-1,6.361001E-2,1E0,2.985E1,-2.4368681E-1,6.644676E-3,-3.052367E-1,-3.4779083E-2,5.52E1,1E0,1E0,2.3189956E-1,1E0,8.93E1,1E0,6.395E1,2.4035746E-4,1.10450804E-1,1.8179385E-1,-1.2541357E-1,-3.0059665E-1,1.6708713E-2,-1.6028777E-1,9.068014E-2,-1.8619608E-2,2.780469E-1,2.3177731E-1,-7.9932846E-2,-2.4738763E-1,-7.5978143E-3,-1.7687179E-1,7.754127E-2,-3.3345553E-1,-6.855095E-2,-1.516291E-1,1.193933E-1,-2.0572895E-1,3.8965765E-2,1.1561238E-1,-7.6749953E-3],"split_indices":[1,1,3,3,9,2,3,2,2,21,0,3,3,13,1,2,0,2,23,0,2,3,15,2,5,2,0,28,2,1,27,0,0,0,2,0,0,27,2,0,0,0,0,2,28,21,0,27,2,0,2,0,0,0,0,0,0,0,0,0,0,0,0,0,0,0,0,0,0,0,0,0,0,0,0],"split_type":[0,0,0,0,0,0,0,0,0,0,0,0,0,0,0,0,0,0,0,0,0,0,0,0,0,0,0,0,0,0,0,0,0,0,0,0,0,0,0,0,0,0,0,0,0,0,0,0,0,0,0,0,0,0,0,0,0,0,0,0,0,0,0,0,0,0,0,0,0,0,0,0,0,0,0],"sum_hessian":[6.85416E2,4.1625433E2,2.6916168E2,4.0905457E2,7.1997647E0,3.396493E1,2.3519676E2,3.9417453E2,1.4880036E1,4.261027E0,2.9387379E0,2.0917171E1,1.3047759E1,6.8388553E0,2.2835791E2,3.9290427E2,1.2702789E0,3.4978178E0,1.1382219E1,2.10415E0,2.1568768E0,1.6858547E1,4.0586243E0,6.807622E0,6.2401376E0,4.8217974E0,2.0170577E0,6.7172365E0,2.2164067E2,3.7771814E2,1.5186113E1,1.0052316E0,2.4925861E0,1.4979452E0,9.884274E0,1.0120213E0,1.1448554E0,9.322677E0,7.5358696E0,2.6792E0,1.3794245E0,5.7781067E0,1.0295154E0,3.0059946E0,3.2341428E0,2.8217483E0,2.0000494E0,3.083408E0,3.6338284E0,4.003219E0,2.1763745E2,3.6263535E2,1.5082786E1,1.3002811E1,2.183302E0,3.1697915E0,6.7144823E0,7.4798403E0,1.8428365E0,4.987492E0,2.5483775E0,1.0978482E0,1.9081465E0,1.9530306E0,1.2811123E0,1.7581849E0,1.0635632E0,2.0425653E0,1.0408428E0,1.5428408E0,2.0909874E0,2.8350823E0,1.168137E0,1.2636075E1,2.0500137E2],"tree_param":{"num_deleted":"0","num_feature":"30","num_nodes":"75","size_leaf_vector":"1"}},{"base_weights":[-4.664889E-3,-2.3426999E-4,-3.0055505E-1,-2.0488587E-3,1.7698963E-1,-4.5375726E-1,3.489631E-3,2.0397713E-2,-4.9302068E-2,-1.4366318E-1,-6.040661E-1,8.251018E-2,-9.358154E-2,5.799239E-3,5.13008E-1,1.9761773E-2,-1.3345714E-1,-9.307268E-2,3.6363646E-2,-2.1450521E-1,-4.242955E-2,5.097022E-2,-7.453406E-2,8.718151E-1,-5.4478467E-1,-6.034678E-2,4.98581E-1,-4.2456126E-1,-1.044549E-3,7.871736E-3,9.619422E-2,-6.261449E-2,2.6993636E-2,3.1103516E-1,6.4737685E-2,9.926849E-5,-2.569802E-1,-7.959123E-2,8.28004E-3,2.4755533E-1,-2.0985076E-2,-2.116898E-2,-1.873614E-1,3.1594664E-1,-2.0216139E-2],"categories":[],"categories_nodes":[],"categories_segments":[],"categories_sizes":[],"default_left":[0,0,0,0,0,0,0,0,0,0,0,0,0,0,0,0,0,0,0,0,0,0,0,0,0,0,0,0,0,0,0,0,0,0,0,0,0,0,0,0,0,0,0,0,0],"id":18,"left_children":[1,3,5,7,-1,9,11,13,15,17,19,-1,-1,21,23,25,27,-1,-1,-1,-1,29,31,33,35,37,39,41,43,-1,-1,-1,-1,-1,-1,-1,-1,-1,-1,-1,-1,-1,-1,-1,-1],"loss_changes":[8.9645463E-1,7.238694E-1,4.714942E-1,7.155814E-1,0E0,2.2623754E-1,4.603058E-1,3.2866762E0,1.2653425E0,1.9223481E-1,1.15033865E-1,0E0,0E0,1.6196388E0,5.4677467E0,4.640586E0,3.7792675E0,0E0,0E0,0E0,0E0,1.8964849E0,3.5655558E0,8.809457E-1,6.7123866E-1,1.8794842E0,3.2766333E0,2.1260562E0,4.8549104E0,0E0,0E0,0E0,0E0,0E0,0E0,0E0,0E0,0E0,0E0,0E0,0E0,0E0,0E0,0E0,0E0],"parents":[2147483647,0,0,1,1,2,2,3,3,5,5,6,6,7,7,8,8,9,9,10,10,13,13,14,14,15,15,16,16,21,21,22,22,23,23,24,24,25,25,26,26,27,27,28,28],"right_children":[2,4,6,8,-1,10,12,14,16,18,20,-1,-1,22,24,26,28,-1,-1,-1,-1,30,32,34,36,38,40,42,44,-1,-1,-1,-1,-1,-1,-1,-1,-1,-1,-1,-1,-1,-1,-1,-1],"split_conditions":[7.1E1,1.1605E2,1E0,1E0,1.7698963E-1,7.2E1,7.5767E3,1.039E2,3.1199E3,1.0495E2,1.0945E2,8.251018E-2,-9.358154E-2,1.8E1,1.079E2,3.4E1,4.3352E3,-9.307268E-2,3.6363646E-2,-2.1450521E-1,-4.242955E-2,1.5E1,1E0,6.2E1,1E0,1E0,1E0,1E0,4.4E1,7.871736E-3,9.619422E-2,-6.261449E-2,2.6993636E-2,3.1103516E-1,6.4737685E-2,9.926849E-5,-2.569802E-1,-7.959123E-2,8.28004E-3,2.4755533E-1,-2.0985076E-2,-2.116898E-2,-1.873614E-1,3.1594664E-1,-2.0216139E-2],"split_indices":[1,2,28,15,0,1,3,2,3,2,2,0,0,1,2,1,3,0,0,0,0,1,28,1,28,26,28,21,1,0,0,0,0,0,0,0,0,0,0,0,0,0,0,0,0],"split_type":[0,0,0,0,0,0,0,0,0,0,0,0,0,0,0,0,0,0,0,0,0,0,0,0,0,0,0,0,0,0,0,0,0,0,0,0,0,0,0,0,0,0,0,0,0],"sum_hessian":[6.828605E2,6.737723E2,9.088183E0,6.7270056E2,1.0717117E0,5.715733E0,3.3724504E0,4.5644498E2,2.1625557E2,2.504539E0,3.211194E0,1.8811103E0,1.49134E0,4.4429025E2,1.215474E1,1.1919805E2,9.705752E1,1.4324193E0,1.0721197E0,2.1500282E0,1.0611657E0,2.846171E2,1.5967314E2,9.207381E0,2.9473596E0,1.0286265E2,1.6335403E1,2.9655237E1,6.740228E1,2.617136E2,2.2903494E1,8.779588E1,7.187726E1,6.893482E0,2.3138988E0,1.4359593E0,1.5114002E0,3.0279846E1,7.25828E1,1.0088465E1,6.2469397E0,1.1193465E1,1.8461771E1,3.1099474E0,6.429233E1],"tree_param":{"num_deleted":"0","num_feature":"30","num_nodes":"45","size_leaf_vector":"1"}},{"base_weights":[-3.7544116E-3,-7.492419E-5,-2.606155E-1,-1.847879E-2,5.6112614E-2,-4.2525146E-2,-4.7346085E-1,-1.0754225E-3,-3.468292E-1,7.0119387E-1,3.9996497E-2,-1.7188707E-1,1.9159018E-1,-1.936716E-1,-5.0190207E-2,-1.0641161E-2,3.634739E-1,1.4735033E-2,-8.2111436E-1,2.6735723E-1,7.324612E-2,1.4369428E-1,-3.7141304E-2,-5.847537E-2,3.628102E-1,2.3442248E-3,-4.6801904E-1,6.7261964E-1,-2.0466927E-1,5.5244136E-1,-3.0974612E-1,-3.7417233E-1,-3.60393E-1,1.7284895E-1,-2.3725152E-1,-9.386021E-2,2.2750434E-1,-3.888107E-2,2.4093936E-1,-6.4039184E-3,6.0702782E-2,-2.4384548E-1,8.698215E-2,-1.1962485E-5,2.7885404E-1,-1.8693672E-1,5.1794946E-2,2.917224E-1,-8.537724E-2,7.137171E-2,-2.3073862E-1,1.8187663E-1,-2.0021576E-1,3.0116104E-2,2.0120035E-1,-9.072769E-3,-1.542331E-1,2.0594434E-1,1.1689194E-2],"categories":[],"categories_nodes":[],"categories_segments":[],"categories_sizes":[],"default_left":[0,0,0,0,0,0,0,0,0,0,0,0,0,0,0,0,0,0,0,0,0,0,0,0,0,0,0,0,0,0,0,0,0,0,0,0,0,0,0,0,0,0,0,0,0,0,0,0,0,0,0,0,0,0,0,0,0,0,0],"id":19,"left_children":[1,3,5,7,9,11,13,15,17,19,21,-1,23,-1,-1,25,27,29,31,-1,-1,33,35,-1,37,39,41,43,45,47,49,-1,51,53,-1,55,57,-1,-1,-1,-1,-1,-1,-1,-1,-1,-1,-1,-1,-1,-1,-1,-1,-1,-1,-1,-1,-1,-1],"loss_changes":[6.431475E-1,6.958327E-1,4.2597175E-1,2.896139E0,1.6979983E0,8.3566105E-1,1.4307773E-1,1.6859758E0,4.3867435E0,1.2856412E-1,1.3094976E0,0E0,3.8869157E-1,0E0,0E0,2.7985127E0,2.3089352E0,2.8681126E0,1.7204318E0,0E0,0E0,2.0371654E0,1.4366522E0,0E0,9.0182436E-1,2.179093E0,3.6352634E0,1.4237797E0,9.164478E-1,2.4480114E0,2.769495E0,0E0,2.3979487E0,2.4023232E0,0E0,2.0792847E0,1.4385856E0,0E0,0E0,0E0,0E0,0E0,0E0,0E0,0E0,0E0,0E0,0E0,0E0,0E0,0E0,0E0,0E0,0E0,0E0,0E0,0E0,0E0,0E0],"parents":[2147483647,0,0,1,1,2,2,3,3,4,4,5,5,6,6,7,7,8,8,9,9,10,10,12,12,15,15,16,16,17,17,18,18,21,21,22,22,24,24,25,25,26,26,27,27,28,28,29,29,30,30,32,32,33,33,35,35,36,36],"right_children":[2,4,6,8,10,12,14,16,18,20,22,-1,24,-1,-1,26,28,30,32,-1,-1,34,36,-1,38,40,42,44,46,48,50,-1,52,54,-1,56,58,-1,-1,-1,-1,-1,-1,-1,-1,-1,-1,-1,-1,-1,-1,-1,-1,-1,-1,-1,-1,-1,-1],"split_conditions":[7.1E1,9.355E1,1E0,9.005E1,9.39E1,1E0,1.079E2,8.93E1,1E0,1E0,1E0,-1.7188707E-1,1E0,-1.936716E-1,-5.0190207E-2,8.76E1,2.7E1,9.065E1,9.085E1,2.6735723E-1,7.324612E-2,1.098E2,1.0945E2,-5.847537E-2,1E0,8.315E1,1E0,5.733E2,3.7E1,1E0,1E0,-3.7417233E-1,9.3685E2,1.0465E2,-2.3725152E-1,1.068E2,4.88485E3,-3.888107E-2,2.4093936E-1,-6.4039184E-3,6.0702782E-2,-2.4384548E-1,8.698215E-2,-1.1962485E-5,2.7885404E-1,-1.8693672E-1,5.1794946E-2,2.917224E-1,-8.537724E-2,7.137171E-2,-2.3073862E-1,1.8187663E-1,-2.0021576E-1,3.0116104E-2,2.0120035E-1,-9.072769E-3,-1.542331E-1,2.0594434E-1,1.1689194E-2],"split_indices":[1,2,13,2,2,5,2,2,17,0,15,0,17,0,0,2,1,2,2,0,0,2,2,0,28,2,0,3,1,5,4,0,3,2,0,2,3,0,0,0,0,0,0,0,0,0,0,0,0,0,0,0,0,0,0,0,0,0,0],"split_type":[0,0,0,0,0,0,0,0,0,0,0,0,0,0,0,0,0,0,0,0,0,0,0,0,0,0,0,0,0,0,0,0,0,0,0,0,0,0,0,0,0,0,0,0,0,0,0,0,0,0,0,0,0,0,0,0,0,0,0],"sum_hessian":[6.7951575E2,6.7090546E2,8.610305E0,5.0587912E2,1.6502634E2,4.845349E0,3.7649555E0,4.8136868E2,2.4510431E1,2.9862573E0,1.6204007E2,1.0405232E0,3.8048258E0,1.7004318E0,2.0645237E0,4.7000656E2,1.1362117E1,1.4457729E1,1.0052703E1,1.4383857E0,1.5478715E0,6.875228E1,9.3287796E1,1.1255745E0,2.6792514E0,4.5799844E2,1.200813E1,7.239157E0,4.1229596E0,5.176717E0,9.281013E0,4.3355517E0,5.717151E0,6.7462685E1,1.2895948E0,7.73545E1,1.5933295E1,1.5979333E0,1.081318E0,4.1029108E2,4.7707375E1,8.203805E0,3.8043244E0,2.2769518E0,4.9622054E0,1.6460339E0,2.4769256E0,3.3394647E0,1.8372523E0,4.4536834E0,4.8273287E0,1.1430707E0,4.5740805E0,5.99396E1,7.5230846E0,6.811516E1,9.239339E0,3.8703663E0,1.2062928E1],"tree_param":{"num_deleted":"0","num_feature":"30","num_nodes":"59","size_leaf_vector":"1"}},{"base_weights":[-3.4965647E-3,1.3078815E-2,-6.177579E-2,1.6665056E-1,-3.894317E-3,8.870205E-2,-1.0733122E-1,-2.1952467E-1,2.0941347E-1,2.5583254E-3,-3.9196792E-1,-6.9937564E-2,7.622673E-1,-4.6444833E-1,-4.8314657E-2,6.987883E-1,1.0088208E-1,-1.8093612E-2,2.0395009E-1,-4.3967936E-2,-2.5185296E-1,1.3477184E-1,-5.618079E-1,3.8277138E-2,1.2595675E0,-6.9929674E-2,-7.95754E-1,1.0823371E0,-8.808292E-2,2.2052574E-1,3.6867577E-1,2.6748842E-1,5.024178E-2,9.568859E-3,-3.5054025E-1,1.1083382E0,1.05544336E-1,-1.94611E-1,3.0897936E-1,-1.1785082E-1,8.518918E-1,-2.6428404E-1,-1.8151678E-1,1.4591487E-1,-1.7959854E-1,4.5308888E-1,1.3497719E-1,-3.5047713E-1,1.89217E-1,-2.8045493E-1,-3.9023897E-1,3.8988778E-1,9.725631E-2,-7.2036797E-1,-3.4103893E-2,-1.4114481E-1,2.3481804E-1,-1.8665273E-1,5.3626772E-2,-1.1367733E-3,1.0214855E-1,-4.9349926E-2,-1.7258449E-1,4.3005276E-1,5.8906753E-2,-1.6747829E-2,9.408384E-2,2.4024674E-1,-1.6868393E-1,-2.2741926E-1,8.751407E-3,-3.4949653E-2,3.547518E-1,-1.5769233E-1,8.196181E-2,3.5524454E-2,-2.6083878E-1,1.0333584E-1,-2.2954105E-1,-2.7902985E-1,8.6999856E-2,2.0287032E-1,-2.2094809E-2],"categories":[],"categories_nodes":[],"categories_segments":[],"categories_sizes":[],"default_left":[0,0,0,0,0,0,0,0,0,0,0,0,0,0,0,0,0,0,0,0,0,0,0,0,0,0,0,0,0,0,0,0,0,0,0,0,0,0,0,0,0,0,0,0,0,0,0,0,0,0,0,0,0,0,0,0,0,0,0,0,0,0,0,0,0,0,0,0,0,0,0,0,0,0,0,0,0,0,0,0,0,0,0],"id":20,"left_children":[1,3,5,7,9,11,13,-1,15,17,19,21,23,25,27,29,31,33,35,37,-1,39,41,43,45,47,49,51,53,55,-1,-1,57,59,61,63,65,-1,67,69,71,-1,73,-1,-1,-1,-1,75,-1,-1,77,-1,-1,79,81,-1,-1,-1,-1,-1,-1,-1,-1,-1,-1,-1,-1,-1,-1,-1,-1,-1,-1,-1,-1,-1,-1,-1,-1,-1,-1,-1,-1],"loss_changes":[6.5523344E-1,1.3776381E0,1.0390675E0,2.1739566E0,1.1946412E0,3.841183E0,2.4168425E0,0E0,2.6374798E0,1.9579444E0,1.1783139E0,3.0569062E0,2.4150143E0,2.0746112E0,4.6115413E0,2.0327072E0,1.6730537E0,3.9309762E0,3.7796164E0,1.3625643E0,0E0,4.0339413E0,9.1957545E-1,1.3806572E0,1.3743162E-1,1.8988785E0,1.2943125E-1,1.5328074E-1,3.3185596E0,2.6974013E0,0E0,0E0,3.6868358E0,1.7485262E0,1.278194E0,9.614496E-1,1.3804338E0,0E0,2.213872E0,1.6161431E0,1.9876251E0,0E0,9.75763E-1,0E0,0E0,0E0,0E0,1.74262E0,0E0,0E0,1.3527571E0,0E0,0E0,1.8918424E0,2.6144106E0,0E0,0E0,0E0,0E0,0E0,0E0,0E0,0E0,0E0,0E0,0E0,0E0,0E0,0E0,0E0,0E0,0E0,0E0,0E0,0E0,0E0,0E0,0E0,0E0,0E0,0E0,0E0,0E0],"parents":[2147483647,0,0,1,1,2,2,3,3,4,4,5,5,6,6,8,8,9,9,10,10,11,11,12,12,13,13,14,14,15,15,16,16,17,17,18,18,19,19,21,21,22,22,23,23,24,24,25,25,26,26,27,27,28,28,29,29,32,32,33,33,34,34,35,35,36,36,38,38,39,39,40,40,42,42,47,47,50,50,53,53,54,54],"right_children":[2,4,6,8,10,12,14,-1,16,18,20,22,24,26,28,30,32,34,36,38,-1,40,42,44,46,48,50,52,54,56,-1,-1,58,60,62,64,66,-1,68,70,72,-1,74,-1,-1,-1,-1,76,-1,-1,78,-1,-1,80,82,-1,-1,-1,-1,-1,-1,-1,-1,-1,-1,-1,-1,-1,-1,-1,-1,-1,-1,-1,-1,-1,-1,-1,-1,-1,-1,-1,-1],"split_conditions":[1E0,1E0,6.395E1,2.48E1,6.9E1,5.975E1,7.375E1,-2.1952467E-1,7.88E1,5.3E1,1E0,1.21545E3,1E0,1E0,7.485E1,1E0,2.455E1,1E0,5.4E1,1E0,-2.5185296E-1,1E0,1.8592E3,3.5E1,6.105E1,7E1,1E0,3.4E1,7.93E1,2.995E1,3.6867577E-1,2.6748842E-1,2.935E1,4.22295E3,1E0,1E0,1E0,-1.94611E-1,1E0,5.045E1,3.48E1,-2.6428404E-1,1E0,1.4591487E-1,-1.7959854E-1,4.5308888E-1,1.3497719E-1,6.745E1,1.89217E-1,-2.8045493E-1,6.86E1,3.8988778E-1,9.725631E-2,6.5E1,8.055E1,-1.4114481E-1,2.3481804E-1,-1.8665273E-1,5.3626772E-2,-1.1367733E-3,1.0214855E-1,-4.9349926E-2,-1.7258449E-1,4.3005276E-1,5.8906753E-2,-1.6747829E-2,9.408384E-2,2.4024674E-1,-1.6868393E-1,-2.2741926E-1,8.751407E-3,-3.4949653E-2,3.547518E-1,-1.5769233E-1,8.196181E-2,3.5524454E-2,-2.6083878E-1,1.0333584E-1,-2.2954105E-1,-2.7902985E-1,8.6999856E-2,2.0287032E-1,-2.2094809E-2],"split_indices":[19,7,2,3,1,2,2,0,3,1,24,3,26,4,2,4,2,24,1,21,0,5,3,1,2,2,24,1,2,3,0,0,2,3,17,28,24,0,13,3,2,0,15,0,0,0,0,2,0,0,2,0,0,1,2,0,0,0,0,0,0,0,0,0,0,0,0,0,0,0,0,0,0,0,0,0,0,0,0,0,0,0,0],"split_type":[0,0,0,0,0,0,0,0,0,0,0,0,0,0,0,0,0,0,0,0,0,0,0,0,0,0,0,0,0,0,0,0,0,0,0,0,0,0,0,0,0,0,0,0,0,0,0,0,0,0,0,0,0,0,0,0,0,0,0,0,0,0,0,0,0,0,0,0,0,0,0,0,0,0,0,0,0,0,0,0,0,0,0],"sum_hessian":[6.76459E2,5.2727155E2,1.4918741E2,5.159799E1,4.7567358E2,3.4448997E1,1.1473841E2,1.6123619E0,4.9985626E1,4.6887088E2,6.802681E0,2.860747E1,5.8415284E0,1.5298052E1,9.944035E1,8.086139E0,4.189949E1,4.2608746E2,4.278344E1,4.444762E0,2.3579187E0,2.071301E1,7.894459E0,2.8171601E0,3.024368E0,7.535662E0,7.7623897E0,2.4879968E0,9.695236E1,4.995439E0,3.0906992E0,1.5222678E0,4.037722E1,3.9425333E2,3.1834112E1,3.1912887E0,3.959215E1,1.3292618E0,3.1155005E0,1.5935139E1,4.7778726E0,3.5765362E0,4.317923E0,1.7924746E0,1.0246856E0,1.6484848E0,1.3758832E0,5.737931E0,1.7977316E0,4.807894E0,2.9544952E0,1.3786592E0,1.1093376E0,6.65488E0,9.029748E1,2.3141859E0,2.6812534E0,5.8623996E0,3.451482E1,3.7990665E2,1.4346685E1,1.8364206E1,1.3469906E1,1.9309428E0,1.2603459E0,2.2710442E1,1.688171E1,2.04302E0,1.0724806E0,2.1998205E0,1.3735318E1,1.3808628E0,3.3970096E0,2.369089E0,1.9488341E0,3.4199314E0,2.3179994E0,1.0256754E0,1.9288198E0,5.5767136E0,1.0781664E0,3.91283E0,8.638465E1],"tree_param":{"num_deleted":"0","num_feature":"30","num_nodes":"83","size_leaf_vector":"1"}},{"base_weights":[-2.908291E-3,4.9774386E-2,-2.0013152E-2,7.1186735E-3,5.234966E-1,-4.7851074E-1,-1.0056726E-2,-3.1801324E-2,3.3120534E-1,7.908817E-2,8.689935E-1,-8.78314E-1,2.0405069E-1,-9.9657044E-2,2.519428E-2,2.2008417E-3,-5.926017E-1,3.0409652E-1,8.1598304E-2,-2.3362786E-1,2.558915E-1,3.8131762E-1,4.4930583E-1,-1.1109467E0,7.241524E-2,-2.2392854E-1,6.7172784E-1,-4.7247466E-2,-8.2107383E-1,4.127345E-1,-1.2837913E-2,-4.1499417E-2,3.621045E-1,-5.1375914E-1,-9.1935806E-2,2.0760672E-1,-2.0922993E-1,1.6290602E-1,-7.6486546E-1,6.6741294E-1,1.0332211E-1,-1.3653576E0,-1.0935118E-1,2.610083E-1,2.0002607E-2,-4.0092826E-1,1.788795E-2,-9.776144E-1,-4.8421302E-1,7.2106063E-1,1.6245542E-1,-2.9365805E-1,1.1489822E-2,-4.2485576E-3,-9.8876305E-2,1.3825628E-2,2.3715213E-1,-2.8696346E-1,1.1149131E-1,-6.1886955E-2,1.8125883E-1,-1.6125064E-2,-3.217266E-1,5.811983E-2,2.4156629E-1,-4.0738493E-2,8.238694E-2,-1.5272698E-1,-4.794267E-1,-2.0293851E-1,4.969937E-2,2.2607727E-1,-5.082872E-3,-4.399039E-2,-3.522478E-1,-2.2416416E-1,-1.0376907E-2,1.4563644E-1,4.240692E-1,1.43013E-1,-1.8356828E-1,1.9447921E-1,-1.1886027E-1,7.0925884E-2,-3.5887791E-3],"categories":[],"categories_nodes":[],"categories_segments":[],"categories_sizes":[],"default_left":[0,0,0,0,0,0,0,0,0,0,0,0,0,0,0,0,0,0,0,0,0,0,0,0,0,0,0,0,0,0,0,0,0,0,0,0,0,0,0,0,0,0,0,0,0,0,0,0,0,0,0,0,0,0,0,0,0,0,0,0,0,0,0,0,0,0,0,0,0,0,0,0,0,0,0,0,0,0,0,0,0,0,0,0,0],"id":21,"left_children":[1,3,5,7,9,11,13,15,17,19,21,23,25,27,29,31,33,-1,35,37,-1,-1,39,41,-1,-1,43,45,47,49,51,53,55,-1,57,59,-1,-1,61,63,65,67,-1,-1,-1,69,71,73,75,77,79,81,83,-1,-1,-1,-1,-1,-1,-1,-1,-1,-1,-1,-1,-1,-1,-1,-1,-1,-1,-1,-1,-1,-1,-1,-1,-1,-1,-1,-1,-1,-1,-1,-1],"loss_changes":[6.085018E-1,3.3409848E0,2.32168E0,1.9386683E0,2.0285485E0,3.1292343E0,1.5812148E0,2.6210485E0,2.7240427E0,1.9113661E0,7.0876884E-1,2.0929966E0,2.6371088E0,5.304579E0,5.304002E0,2.067972E0,4.2483153E0,0E0,1.435845E0,2.8180451E0,0E0,0E0,3.2780373E-1,6.377616E-1,0E0,0E0,3.9149725E-1,3.0668342E0,2.8141499E-2,2.3644023E0,2.2465289E0,9.190896E-1,1.8908688E0,0E0,2.9554248E0,2.1094072E0,0E0,0E0,7.894852E-1,4.2554975E-2,1.6902754E-1,2.4847984E-3,0E0,0E0,0E0,3.3433926E0,2.9113824E0,7.2803974E-1,5.6526625E-1,1.6171212E0,4.925084E0,2.788852E0,1.6018809E0,0E0,0E0,0E0,0E0,0E0,0E0,0E0,0E0,0E0,0E0,0E0,0E0,0E0,0E0,0E0,0E0,0E0,0E0,0E0,0E0,0E0,0E0,0E0,0E0,0E0,0E0,0E0,0E0,0E0,0E0,0E0,0E0],"parents":[2147483647,0,0,1,1,2,2,3,3,4,4,5,5,6,6,7,7,8,8,9,9,10,10,11,11,12,12,13,13,14,14,15,15,16,16,18,18,19,19,22,22,23,23,26,26,27,27,28,28,29,29,30,30,31,31,32,32,34,34,35,35,38,38,39,39,40,40,41,41,45,45,46,46,47,47,48,48,49,49,50,50,51,51,52,52],"right_children":[2,4,6,8,10,12,14,16,18,20,22,24,26,28,30,32,34,-1,36,38,-1,-1,40,42,-1,-1,44,46,48,50,52,54,56,-1,58,60,-1,-1,62,64,66,68,-1,-1,-1,70,72,74,76,78,80,82,84,-1,-1,-1,-1,-1,-1,-1,-1,-1,-1,-1,-1,-1,-1,-1,-1,-1,-1,-1,-1,-1,-1,-1,-1,-1,-1,-1,-1,-1,-1,-1,-1],"split_conditions":[2.2375E2,1E0,4E0,7.515E1,1E0,1E0,7E1,7.105E1,7.915E1,7.57E1,1E0,1E0,1E0,6.905E1,7.455E1,1E0,7.28E1,3.0409652E-1,9.43E1,6.865E1,2.558915E-1,3.8131762E-1,5.615E1,2.5835E2,7.241524E-2,-2.2392854E-1,8.535E1,9E0,1E0,1E0,7.735E1,1E0,9.085E1,-5.1375914E-1,1E0,1E0,-2.0922993E-1,1.6290602E-1,4.845E1,4.385E1,8E1,7.95E1,-1.0935118E-1,2.610083E-1,2.0002607E-2,1E0,1E1,4.973E2,1E0,1E0,2.4271E3,3.696E2,6.9025E2,-4.2485576E-3,-9.8876305E-2,1.3825628E-2,2.3715213E-1,-2.8696346E-1,1.1149131E-1,-6.1886955E-2,1.8125883E-1,-1.6125064E-2,-3.217266E-1,5.811983E-2,2.4156629E-1,-4.0738493E-2,8.238694E-2,-1.5272698E-1,-4.794267E-1,-2.0293851E-1,4.969937E-2,2.2607727E-1,-5.082872E-3,-4.399039E-2,-3.522478E-1,-2.2416416E-1,-1.0376907E-2,1.4563644E-1,4.240692E-1,1.43013E-1,-1.8356828E-1,1.9447921E-1,-1.1886027E-1,7.0925884E-2,-3.5887791E-3],"split_indices":[3,17,1,2,26,9,2,2,2,2,28,0,26,2,2,0,2,0,2,3,0,0,2,3,0,0,2,1,5,4,2,13,3,0,26,23,0,0,2,2,2,2,0,0,0,5,1,3,4,21,3,3,3,0,0,0,0,0,0,0,0,0,0,0,0,0,0,0,0,0,0,0,0,0,0,0,0,0,0,0,0,0,0,0,0],"split_type":[0,0,0,0,0,0,0,0,0,0,0,0,0,0,0,0,0,0,0,0,0,0,0,0,0,0,0,0,0,0,0,0,0,0,0,0,0,0,0,0,0,0,0,0,0,0,0,0,0,0,0,0,0,0,0,0,0,0,0,0,0,0,0,0,0,0,0,0,0,0,0,0,0,0,0,0,0,0,0,0,0,0,0,0,0],"sum_hessian":[6.731599E2,1.6452275E2,5.0863718E2,1.5186342E2,1.2659319E1,9.810256E0,4.988269E2,1.3638646E2,1.5476958E1,6.074576E0,6.584743E0,6.005693E0,3.8045635E0,1.4032486E2,3.5850204E2,1.29529E2,6.857462E0,3.3250227E0,1.2151936E1,4.8235526E0,1.2510235E0,2.326934E0,4.257809E0,4.979044E0,1.0266489E0,1.0581034E0,