{"learner":{"attributes":{"scikit_learn":"{\"_estimator_type\": \"classifier\"}"},"feature_names":["SeniorCitizen","tenure","MonthlyCharges","TotalCharges","gender_Male","Partner_Yes","Dependents_Yes","PhoneService_Yes","MultipleLines_No phone service","MultipleLines_Yes","InternetService_Fiber optic","InternetService_No","OnlineSecurity_No internet service","OnlineSecurity_Yes","OnlineBackup_No internet service","OnlineBackup_Yes","DeviceProtection_No internet service","DeviceProtection_Yes","TechSupport_No internet service","TechSupport_Yes","StreamingTV_No internet service","StreamingTV_Yes","StreamingMovies_No internet service","StreamingMovies_Yes","Contract_One year","Contract_Two year","PaperlessBilling_Yes","PaymentMethod_Credit card (automatic)","PaymentMethod_Electronic check","PaymentMethod_Mailed check"],"feature_types":["int","int","float","float","i","i","i","i","i","i","i","i","i","i","i","i","i","i","i","i","i","i","i","i","i","i","i","i","i","i"],"gradient_booster":{"model":{"gbtree_model_param":{"num_parallel_tree":"1","num_trees":"100"},"iteration_indptr":[0,1,2,3,4,5,6,7,8,9,10,11,12,13,14,15,16,17,18,19,20,21,22,23,24,25,26,27,28,29,30,31,32,33,34,35,36,37,38,39,40,41,42,43,44,45,46,47,48,49,50,51,52,53,54,55,56,57,58,59,60,61,62,63,64,65,66,67,68,69,70,71,72,73,74,75,76,77,78,79,80,81,82,83,84,85,86,87,88,89,90,91,92,93,94,95,96,97,98,99,100],"tree_info":[0,0,0,0,0,0,0,0,0,0,0,0,0,0,0,0,0,0,0,0,0,0,0,0,0,0,0,0,0,0,0,0,0,0,0,0,0,0,0,0,0,0,0,0,0,0,0,0,0,0,0,0,0,0,0,0,0,0,0,0,0,0,0,0,0,0,0,0,0,0,0,0,0,0,0,0,0,0,0,0,0,0,0,0,0,0,0,0,0,0,0,0,0,0,0,0,0,0,0,0],"trees":[{"base_weights":[-4.716181E-8,-9.0759194E-1,9.637142E-1,4.1521895E-1,-1.2243683E0,-1.35637E-1,1.1642995E0,1.1129403E-1,1.2942114E0,-1.6183486E0,-5.6336856E-1,6.697187E-1,-7.2795665E-1,1.4441478E0,5.3467155E-1,4.0364477E-1,-5.437053E-1,1.5296962E0,1.0436387E0,-1.3760157E0,-5.7997996E-1,-4.3848656E-2,-1.2052559E0,5.351672E-1,5.10519E-1,-1.2196618E0,-1.4062595E-1,1.0155222E0,1.5678586E0,-7.733488E-1,7.952688E-1,-2.1143528E-2,8.54872E-1,-1.0265977E0,-1.3815178E-1,1.6213213E0,1.3797997E-1,6.2078434E-1,1.4593993E0,-1.5345004E0,-7.04034E-1,6.58357E-1,-3.8304353E-1,-9.7996515E-1,-5.419358E-1,6.643944E-1,-4.0201056E-1,-1.3953607E0,-5.1373214E-1,1.5833254E-1,-5.0828165E-1,1.1838496E0,-7.255271E-1,1.3040954E0,1.7029923E0,-9.321978E-1,4.149033E-1,6.0051143E-1,5.791603E-1,-2.106265E-1,4.0229157E-2,2.789003E-1,-3.3372018E-1,-2.3874716E-1,-4.4405356E-1,9.407779E-2,-3.6834842E-1,5.093397E-1,6.6280164E-2,1.6526597E-2,3.593974E-1,4.7170445E-1,6.6280164E-2,-3.7011647E-1,-4.869726E-1,-3.3875322E-1,5.308129E-1,3.3473216E-2,3.875673E-1,-2.3000091E-1,-3.179665E-2,-5.024893E-1,-2.1280794E-1,-1.00579955E-1,2.3467901E-1,-2.8753164E-1,2.7228475E-1,-5.1788986E-1,-3.369294E-1,3.3294705E-1,-2.5325444E-1,-1.535826E-1,1.5933535E-1,2.3724757E-1,4.6598342E-1,-3.523244E-1,-5.692922E-4,4.430973E-1,8.504918E-2,5.1266485E-1,6.6280164E-2,-3.2685208E-1,3.9953652E-1,2.7979806E-1,-4.392657E-2],"categories":[],"categories_nodes":[],"categories_segments":[],"categories_sizes":[],"default_left":[0,0,0,0,0,0,0,0,0,0,0,0,0,0,0,0,0,0,0,0,0,0,0,0,0,0,0,0,0,0,0,0,0,0,0,0,0,0,0,0,0,0,0,0,0,0,0,0,0,0,0,0,0,0,0,0,0,0,0,0,0,0,0,0,0,0,0,0,0,0,0,0,0,0,0,0,0,0,0,0,0,0,0,0,0,0,0,0,0,0,0,0,0,0,0,0,0,0,0,0,0,0,0,0,0],"id":0,"left_children":[1,3,5,7,9,11,13,15,17,19,21,23,25,27,29,31,33,35,37,39,-1,41,43,45,-1,47,49,51,53,55,57,59,61,63,65,67,-1,69,71,73,75,77,79,81,-1,83,85,87,89,91,-1,93,95,97,99,101,-1,103,-1,-1,-1,-1,-1,-1,-1,-1,-1,-1,-1,-1,-1,-1,-1,-1,-1,-1,-1,-1,-1,-1,-1,-1,-1,-1,-1,-1,-1,-1,-1,-1,-1,-1,-1,-1,-1,-1,-1,-1,-1,-1,-1,-1,-1,-1,-1],"loss_changes":[1.6988044E3,4.196479E2,2.0788171E2,5.1682564E1,2.0931262E2,7.025278E1,1.3961511E2,2.8033281E1,1.3390884E0,3.589795E1,1.00989395E2,7.7679443E0,2.4303703E1,2.7624878E1,8.4723694E1,1.9377329E1,8.719863E0,1.5577049E0,3.884739E0,2.9697815E1,0E0,4.0386223E1,1.6582382E1,7.140011E0,0E0,4.988579E0,1.8731142E1,3.785849E1,1.2954224E1,1.5504444E1,4.444278E1,5.696789E0,8.244183E0,9.678669E-1,1.306059E1,1.9007301E0,0E0,4.9134817E0,1.4710922E0,4.2164917E0,6.193643E1,1.8994617E1,1.2061838E1,1.7759926E1,0E0,6.1831665E0,6.3352356E0,1.3274002E0,6.7042913E0,8.829885E0,0E0,1.554155E1,3.8144994E0,2.5785095E1,2.0515137E0,1.54296875E1,0E0,4.417299E1,0E0,0E0,0E0,0E0,0E0,0E0,0E0,0E0,0E0,0E0,0E0,0E0,0E0,0E0,0E0,0E0,0E0,0E0,0E0,0E0,0E0,0E0,0E0,0E0,0E0,0E0,0E0,0E0,0E0,0E0,0E0,0E0,0E0,0E0,0E0,0E0,0E0,0E0,0E0,0E0,0E0,0E0,0E0,0E0,0E0,0E0,0E0],"parents":[2147483647,0,0,1,1,2,2,3,3,4,4,5,5,6,6,7,7,8,8,9,9,10,10,11,11,12,12,13,13,14,14,15,15,16,16,17,17,18,18,19,19,21,21,22,22,23,23,25,25,26,26,27,27,28,28,29,29,30,30,31,31,32,32,33,33,34,34,35,35,37,37,38,38,39,39,40,40,41,41,42,42,43,43,45,45,46,46,47,47,48,48,49,49,51,51,52,52,53,53,54,54,55,55,57,57],"right_children":[2,4,6,8,10,12,14,16,18,20,22,24,26,28,30,32,34,36,38,40,-1,42,44,46,-1,48,50,52,54,56,58,60,62,64,66,68,-1,70,72,74,76,78,80,82,-1,84,86,88,90,92,-1,94,96,98,100,102,-1,104,-1,-1,-1,-1,-1,-1,-1,-1,-1,-1,-1,-1,-1,-1,-1,-1,-1,-1,-1,-1,-1,-1,-1,-1,-1,-1,-1,-1,-1,-1,-1,-1,-1,-1,-1,-1,-1,-1,-1,-1,-1,-1,-1,-1,-1,-1,-1],"split_conditions":[1E0,6E0,1E0,1E0,1E0,1E1,2.9E1,3E0,1.178E2,1E0,5E1,1E0,1E0,1E0,1E0,1E0,2.56E1,1E0,1E0,1E0,-5.7997996E-1,1.4626E3,7.1E1,1E0,5.10519E-1,8.202531E1,1E0,6.03E1,1E0,1E0,1E0,1E0,1.178E2,1E0,5.53E1,1E0,1.3797997E-1,2.5835E2,9.582962E1,1.3E1,1E0,1E0,1E0,1E0,-5.419358E-1,2.06E1,8E0,4.47E1,1.6E1,1E0,-5.0828165E-1,1E0,1E0,1.1923E3,2.9291743E3,1E0,4.149033E-1,5.6E1,5.791603E-1,-2.106265E-1,4.0229157E-2,2.789003E-1,-3.3372018E-1,-2.3874716E-1,-4.4405356E-1,9.407779E-2,-3.6834842E-1,5.093397E-1,6.6280164E-2,1.6526597E-2,3.593974E-1,4.7170445E-1,6.6280164E-2,-3.7011647E-1,-4.869726E-1,-3.3875322E-1,5.308129E-1,3.3473216E-2,3.875673E-1,-2.3000091E-1,-3.179665E-2,-5.024893E-1,-2.1280794E-1,-1.00579955E-1,2.3467901E-1,-2.8753164E-1,2.7228475E-1,-5.1788986E-1,-3.369294E-1,3.3294705E-1,-2.5325444E-1,-1.535826E-1,1.5933535E-1,2.3724757E-1,4.6598342E-1,-3.523244E-1,-5.692922E-4,4.430973E-1,8.504918E-2,5.1266485E-1,6.6280164E-2,-3.2685208E-1,3.9953652E-1,2.7979806E-1,-4.392657E-2],"split_indices":[28,1,26,10,10,1,1,1,3,25,1,29,21,10,10,26,2,15,9,8,0,3,1,13,0,2,25,2,9,29,27,29,3,6,2,27,0,3,2,1,7,23,23,21,0,2,1,2,1,5,0,8,9,3,3,27,0,1,0,0,0,0,0,0,0,0,0,0,0,0,0,0,0,0,0,0,0,0,0,0,0,0,0,0,0,0,0,0,0,0,0,0,0,0,0,0,0,0,0,0,0,0,0,0,0],"split_type":[0,0,0,0,0,0,0,0,0,0,0,0,0,0,0,0,0,0,0,0,0,0,0,0,0,0,0,0,0,0,0,0,0,0,0,0,0,0,0,0,0,0,0,0,0,0,0,0,0,0,0,0,0,0,0,0,0,0,0,0,0,0,0,0,0,0,0,0,0,0,0,0,0,0,0,0,0,0,0,0,0,0,0,0,0,0,0,0,0,0,0,0,0,0,0,0,0,0,0,0,0,0,0,0,0],"sum_hessian":[1.9402473E3,9.9924866E2,9.409987E2,1.9299974E2,8.062489E2,1.452498E2,7.957489E2,1.442498E2,4.874993E1,5.042493E2,3.0199957E2,6.1499916E1,8.3749886E1,5.4999927E2,2.4574966E2,9.999986E1,4.424994E1,2.249997E1,2.6249964E1,2.879996E2,2.1624971E2,1.6749977E2,1.3449982E2,5.5749924E1,5.749992E0,4.499994E1,3.8749947E1,1.25249825E2,4.2474942E2,4.0499943E1,2.0524973E2,5.1999928E1,4.7999935E1,1.9499973E1,2.4749966E1,2.0249971E1,2.249997E0,1.4249981E1,1.1999984E1,2.3199968E2,5.5999924E1,5.4249928E1,1.1324985E2,9.974986E1,3.4749954E1,4.924993E1,6.499991E0,3.524995E1,9.749987E0,3.3249954E1,5.4999924E0,1.1449984E2,1.0749986E1,1.474998E2,2.7724963E2,3.8249947E1,2.249997E0,1.7649976E2,2.874996E1,8.999988E0,4.2999943E1,4.6749935E1,1.2499983E0,1.474998E1,4.7499933E0,1.7999975E1,6.749991E0,1.8999973E1,1.2499983E0,7.7499895E0,6.499991E0,1.0749986E1,1.2499983E0,5.6249924E1,1.7574976E2,4.8249935E1,7.7499895E0,2.974996E1,2.4499966E1,4.6749935E1,6.649991E1,2.6499964E1,7.32499E1,4.9999933E0,4.424994E1,4.7499933E0,1.7499976E0,1.3499982E1,2.174997E1,1.2499983E0,8.499989E0,1.1749984E1,2.1499971E1,5.6999924E1,5.749992E1,6.2499914E0,4.499994E0,1.25749825E2,2.174997E1,2.7599963E2,1.2499983E0,3.624995E1,1.9999973E0,1.2199983E2,5.4499924E1],"tree_param":{"num_deleted":"0","num_feature":"30","num_nodes":"105","size_leaf_vector":"1"}},{"base_weights":[-2.7220254E-4,-6.702112E-1,7.0976055E-1,5.381142E-2,-9.9135387E-1,-1.0287219E-1,8.61039E-1,-2.4379477E-1,8.540084E-1,-1.2846992E0,-5.4132146E-1,3.2840392E-1,-7.51298E-1,9.71447E-1,-6.767978E-2,2.0275968E-1,-7.8091884E-1,6.4595073E-1,1.1138554E0,-1.0949541E0,-4.4565114E-1,-1.9783548E-1,-8.902135E-1,4.3105048E-1,-1.2161582E0,-1.1783468E0,-3.629123E-1,1.1809044E0,7.538447E-1,-6.597695E-1,5.469873E-1,-1.4537609E-1,5.7797855E-1,-1.055125E0,-5.9227586E-1,1.0492059E0,2.3362398E-1,1.189854E0,4.509781E-1,-1.216584E0,-6.143849E-1,-8.217568E-1,-1.2201923E-2,-1.2001275E0,-6.0215193E-1,3.390036E-1,4.154239E-1,-4.3300265E-1,-6.7106605E-2,-1.3092891E0,-5.6849176E-1,2.5831228E-1,-5.9991056E-1,1.0364584E0,1.356026E0,2.943402E-2,1.0026773E0,-8.011466E-1,3.3522385E-1,-4.2455494E-1,7.6600266E-1,7.136982E-2,-1.3572045E-1,1.9593441E-1,-3.557104E-1,-8.2311586E-2,-3.493831E-1,-1.0265473E-1,-2.9416054E-1,3.347906E-1,8.089233E-2,-3.4691745E-1,1.331267E-1,3.8582623E-1,1.177289E-1,2.3044662E-1,-6.315663E-2,-4.146825E-1,-2.9905447E-1,-2.8379464E-1,4.0629274E-1,7.464144E-2,-2.8036368E-1,-5.924064E-2,2.3659974E-1,-2.6236588E-1,-4.3412387E-1,-4.021347E-1,-1.03626125E-1,1.4537881E-1,-6.219013E-2,-1.0671795E-1,-4.119091E-1,-3.05605E-1,4.0786788E-2,-1.9991878E-1,2.91985E-1,-3.2872558E-1,-3.4598794E-2,3.964083E-1,2.0997079E-1,3.4406453E-1,4.4902793E-1,7.646461E-2,-3.308939E-1,-3.5041492E-3,3.244136E-1,-1.1361184E-1,-3.8169253E-1,-1.8313554E-1,2.8008637E-1],"categories":[],"categories_nodes":[],"categories_segments":[],"categories_sizes":[],"default_left":[0,0,0,0,0,0,0,0,0,0,0,0,0,0,0,0,0,0,0,0,0,0,0,0,0,0,0,0,0,0,0,0,0,0,0,0,0,0,0,0,0,0,0,0,0,0,0,0,0,0,0,0,0,0,0,0,0,0,0,0,0,0,0,0,0,0,0,0,0,0,0,0,0,0,0,0,0,0,0,0,0,0,0,0,0,0,0,0,0,0,0,0,0,0,0,0,0,0,0,0,0,0,0,0,0,0,0,0,0,0,0],"id":1,"left_children":[1,3,5,7,9,11,13,15,17,19,21,23,25,27,29,31,33,35,37,39,-1,41,43,45,47,49,51,53,55,57,59,61,63,65,67,69,71,73,75,77,79,81,83,85,87,89,-1,-1,-1,91,93,95,97,99,101,103,105,107,-1,-1,109,-1,-1,-1,-1,-1,-1,-1,-1,-1,-1,-1,-1,-1,-1,-1,-1,-1,-1,-1,-1,-1,-1,-1,-1,-1,-1,-1,-1,-1,-1,-1,-1,-1,-1,-1,-1,-1,-1,-1,-1,-1,-1,-1,-1,-1,-1,-1,-1,-1,-1],"loss_changes":[8.8698303E2,2.2313306E2,1.1137399E2,7.0638054E1,8.705176E1,4.02269E1,7.8331116E1,5.2050747E1,3.6269913E0,1.3677307E1,3.1463593E1,1.4246959E1,9.094364E0,3.0205505E1,3.0216232E1,1.5619276E1,4.4660873E0,7.5743656E0,1.1948013E0,1.1546127E1,0E0,1.5547598E1,1.0944786E1,6.7200804E0,9.5227814E-1,1.403717E0,4.794313E0,7.343384E0,6.0786148E1,1.1507566E1,1.8616108E1,7.461101E0,8.385948E0,3E0,5.547554E0,9.2159843E-1,7.6806355E0,1.8145828E0,1.2412825E0,4.6957245E0,3.0331322E1,3.9498558E0,1.5666625E1,3.7154007E0,1.2755997E1,6.146493E0,0E0,0E0,0E0,8.10894E-1,2.2068663E0,6.8638306E0,5.4264584E0,1.7655487E1,2.7893677E0,2.2566345E1,2.0057663E1,7.421503E0,0E0,0E0,9.187021E0,0E0,0E0,0E0,0E0,0E0,0E0,0E0,0E0,0E0,0E0,0E0,0E0,0E0,0E0,0E0,0E0,0E0,0E0,0E0,0E0,0E0,0E0,0E0,0E0,0E0,0E0,0E0,0E0,0E0,0E0,0E0,0E0,0E0,0E0,0E0,0E0,0E0,0E0,0E0,0E0,0E0,0E0,0E0,0E0,0E0,0E0,0E0,0E0,0E0,0E0],"parents":[2147483647,0,0,1,1,2,2,3,3,4,4,5,5,6,6,7,7,8,8,9,9,10,10,11,11,12,12,13,13,14,14,15,15,16,16,17,17,18,18,19,19,21,21,22,22,23,23,24,24,25,25,26,26,27,27,28,28,29,29,30,30,31,31,32,32,33,33,34,34,35,35,36,36,37,37,38,38,39,39,40,40,41,41,42,42,43,43,44,44,45,45,49,49,50,50,51,51,52,52,53,53,54,54,55,55,56,56,57,57,60,60],"right_children":[2,4,6,8,10,12,14,16,18,20,22,24,26,28,30,32,34,36,38,40,-1,42,44,46,48,50,52,54,56,58,60,62,64,66,68,70,72,74,76,78,80,82,84,86,88,90,-1,-1,-1,92,94,96,98,100,102,104,106,108,-1,-1,110,-1,-1,-1,-1,-1,-1,-1,-1,-1,-1,-1,-1,-1,-1,-1,-1,-1,-1,-1,-1,-1,-1,-1,-1,-1,-1,-1,-1,-1,-1,-1,-1,-1,-1,-1,-1,-1,-1,-1,-1,-1,-1,-1,-1,-1,-1,-1,-1,-1,-1],"split_conditions":[1E0,1.3E1,1E0,1E0,1E0,2.3E1,5.5E1,4E0,1E0,1E0,5E1,1E0,1E0,1.2E1,1E0,1E0,2.075E1,3E0,9.8634346E1,1E0,-4.4565114E-1,1E0,1E0,1E0,1.6E1,1E0,2.8849E3,1E0,1E0,1E0,1E0,2.11E1,5.997957E1,1.94E1,3.693E2,1E0,2.5835E2,1.1E1,1E0,1E0,1E0,7.212301E1,1E0,1E0,1E0,1E0,4.154239E-1,-4.3300265E-1,-6.7106605E-2,2.5E1,1E0,2.9E1,1E0,3E0,1E0,3.01925E3,1E0,1E0,3.3522385E-1,-4.2455494E-1,5.43775E3,7.136982E-2,-1.3572045E-1,1.9593441E-1,-3.557104E-1,-8.2311586E-2,-3.493831E-1,-1.0265473E-1,-2.9416054E-1,3.347906E-1,8.089233E-2,-3.4691745E-1,1.331267E-1,3.8582623E-1,1.177289E-1,2.3044662E-1,-6.315663E-2,-4.146825E-1,-2.9905447E-1,-2.8379464E-1,4.0629274E-1,7.464144E-2,-2.8036368E-1,-5.924064E-2,2.3659974E-1,-2.6236588E-1,-4.3412387E-1,-4.021347E-1,-1.03626125E-1,1.4537881E-1,-6.219013E-2,-1.0671795E-1,-4.119091E-1,-3.05605E-1,4.0786788E-2,-1.9991878E-1,2.91985E-1,-3.2872558E-1,-3.4598794E-2,3.964083E-1,2.0997079E-1,3.4406453E-1,4.4902793E-1,7.646461E-2,-3.308939E-1,-3.5041492E-3,3.244136E-1,-1.1361184E-1,-3.8169253E-1,-1.8313554E-1,2.8008637E-1],"split_indices":[28,1,26,10,10,1,1,1,9,25,1,24,10,1,24,26,2,1,2,8,0,26,4,29,1,8,3,9,9,27,21,3,2,2,3,0,3,1,27,26,7,2,29,19,21,15,0,0,0,1,5,1,4,1,23,3,10,13,0,0,3,0,0,0,0,0,0,0,0,0,0,0,0,0,0,0,0,0,0,0,0,0,0,0,0,0,0,0,0,0,0,0,0,0,0,0,0,0,0,0,0,0,0,0,0,0,0,0,0,0,0],"split_type":[0,0,0,0,0,0,0,0,0,0,0,0,0,0,0,0,0,0,0,0,0,0,0,0,0,0,0,0,0,0,0,0,0,0,0,0,0,0,0,0,0,0,0,0,0,0,0,0,0,0,0,0,0,0,0,0,0,0,0,0,0,0,0,0,0,0,0,0,0,0,0,0,0,0,0,0,0,0,0,0,0,0,0,0,0,0,0,0,0,0,0,0,0,0,0,0,0,0,0,0,0,0,0,0,0,0,0,0,0,0,0],"sum_hessian":[1.8626687E3,9.5842224E2,9.0424646E2,2.9474536E2,6.636768E2,1.4196474E2,7.622817E2,2.1534895E2,7.939642E1,4.006596E2,2.6301724E2,8.555474E1,5.6409996E1,6.8124756E2,8.103414E1,1.1792823E2,9.7420715E1,4.6028015E1,3.336841E1,2.0932053E2,1.9133908E2,1.3332506E2,1.2969217E2,8.089936E1,4.655384E0,2.5898922E1,3.0511074E1,3.448646E2,3.3638297E2,4.1237736E1,3.979641E1,6.1489536E1,5.6438694E1,3.7833607E1,5.958711E1,2.24891E1,2.3538918E1,2.922302E1,4.145388E0,1.6582056E2,4.3499966E1,2.9786097E1,1.03538956E2,6.0951088E1,6.874109E1,7.50147E1,5.884656E0,3.4185562E0,1.2368277E0,2.03769E1,5.5220213E0,8.400798E0,2.2110275E1,1.9277562E2,1.5208897E2,8.629017E1,2.5009279E2,3.8707695E1,2.5300422E0,3.4476008E0,3.634881E1,2.7448866E1,3.404067E1,5.47365E1,1.7021922E0,5.084124E0,3.274948E1,3.7386368E1,2.220074E1,2.0317556E1,2.1715417E0,2.499778E0,2.1039139E1,2.5529331E1,3.6936889E0,2.69294E0,1.4524482E0,9.1519745E1,7.430082E1,3.7673855E1,5.826112E0,2.724063E0,2.7062035E1,8.469879E1,1.8840166E1,2.8249338E1,3.270175E1,1.6647049E1,5.2094036E1,5.931891E1,1.5695793E1,1.6890888E0,1.868781E1,3.096846E0,2.4251754E0,3.6927357E0,4.708062E0,1.0304795E1,1.180548E1,1.02814514E2,8.9961105E1,6.4855865E1,8.723311E1,7.260953E1,1.3680638E1,1.8068232E1,2.3202457E2,2.136012E1,1.7347572E1,3.6590898E0,3.268972E1],"tree_param":{"num_deleted":"0","num_feature":"30","num_nodes":"111","size_leaf_vector":"1"}},{"base_weights":[-2.86085E-3,-5.2269024E-1,5.442135E-1,-2.8359327E-1,-1.1701165E0,7.509109E-1,1.447478E-1,-4.3028645E-2,-7.7945346E-1,-1.2037354E0,5.256429E-1,1.6592552E-1,8.635964E-1,3.8541385E-3,4.213892E-1,5.1278406E-1,-1.9305632E-1,-1.1710972E0,-3.071191E-1,-3.9072013E-1,-8.6836207E-1,2.587066E-1,-9.89238E-1,7.970926E-1,4.383437E-1,-6.9099003E-1,2.4095161E-1,-2.0744273E-1,6.3560015E-1,-7.424543E-1,-5.8200985E-2,-1.3022588E-1,-1.2070419E0,-8.50871E-1,-1.1710819E-1,-6.218781E-1,-3.9741203E-1,1.7884703E-1,3.6413342E-1,-3.7254086E-1,-6.747695E-2,3.307864E-1,9.282256E-1,-7.871057E-1,3.5926822E-1,-4.194732E-1,4.481695E-1,-2.9070476E-1,1.5499723E-1,2.0558009E-1,-3.233175E-2,-4.2113483E-1,-1.9180381E-1,5.442659E-2,-9.444655E-2,-3.3767295E-1,1.5116721E-1,-3.378182E-1,-4.3349373E-1,6.683551E-2,-2.9576278E-1,3.1881386E-1,-7.683255E-2,6.589005E-2,-2.2934206E-1,1.4642803E-1,-1.6451772E-2,-2.5095835E-2,2.671179E-1,2.607471E-1,4.192023E-1,-1.6353647E-1,-3.5628408E-1,4.96205E-3,-3.4249547E-1,1.7435178E-1,-3.0076844E-1],"categories":[],"categories_nodes":[],"categories_segments":[],"categories_sizes":[],"default_left":[0,0,0,0,0,0,0,0,0,0,0,0,0,0,0,0,0,0,0,0,0,0,0,0,0,0,0,0,0,0,0,0,0,0,0,0,0,0,0,0,0,0,0,0,0,0,0,0,0,0,0,0,0,0,0,0,0,0,0,0,0,0,0,0,0,0,0,0,0,0,0,0,0,0,0,0,0],"id":2,"left_children":[1,3,5,7,9,11,13,15,17,19,-1,21,23,25,-1,27,29,31,33,-1,35,37,39,41,-1,43,45,47,49,51,53,55,57,59,61,63,-1,65,-1,-1,-1,67,69,71,-1,73,75,-1,-1,-1,-1,-1,-1,-1,-1,-1,-1,-1,-1,-1,-1,-1,-1,-1,-1,-1,-1,-1,-1,-1,-1,-1,-1,-1,-1,-1,-1],"loss_changes":[4.91812E2,1.3693832E2,6.946477E1,7.737467E1,2.5573883E1,3.644522E1,5.1217518E1,3.662293E1,3.8843445E1,6.7020264E0,0E0,9.997015E0,1.7320557E1,4.3089813E1,0E0,8.391109E0,2.5564373E1,4.164215E0,9.965794E0,0E0,5.566452E0,6.2601385E0,1.0651169E0,2.5422699E1,0E0,1.3021589E1,2.6873951E1,8.417641E0,3.0280952E0,3.7415848E0,1.7188744E1,3.708163E0,5.218048E-1,3.8532162E0,1.2301751E1,4.820429E0,0E0,5.7750626E0,0E0,0E0,0E0,2.1854557E1,7.8706665E0,5.5479546E0,0E0,1.4845874E1,2.931529E1,0E0,0E0,0E0,0E0,0E0,0E0,0E0,0E0,0E0,0E0,0E0,0E0,0E0,0E0,0E0,0E0,0E0,0E0,0E0,0E0,0E0,0E0,0E0,0E0,0E0,0E0,0E0,0E0,0E0,0E0],"parents":[2147483647,0,0,1,1,2,2,3,3,4,4,5,5,6,6,7,7,8,8,9,9,11,11,12,12,13,13,15,15,16,16,17,17,18,18,20,20,21,21,22,22,23,23,25,25,26,26,27,27,28,28,29,29,30,30,31,31,32,32,33,33,34,34,35,35,37,37,41,41,42,42,43,43,45,45,46,46],"right_children":[2,4,6,8,10,12,14,16,18,20,-1,22,24,26,-1,28,30,32,34,-1,36,38,40,42,-1,44,46,48,50,52,54,56,58,60,62,64,-1,66,-1,-1,-1,68,70,72,-1,74,76,-1,-1,-1,-1,-1,-1,-1,-1,-1,-1,-1,-1,-1,-1,-1,-1,-1,-1,-1,-1,-1,-1,-1,-1,-1,-1,-1,-1,-1,-1],"split_conditions":[1E0,1E0,2.7E1,1E0,1E0,1E0,1E0,2E0,1E0,9.36E1,5.256429E-1,1E0,1E0,1E0,4.213892E-1,1E0,3.025E1,4.4E1,1E0,-3.9072013E-1,7.2E1,1E0,1E0,1E0,4.383437E-1,1E0,1E0,4.47E1,1E0,5.54E1,1.261E3,2E0,2.9291743E3,9.3801874E2,2E1,9.89E1,-3.9741203E-1,1.7186414E2,3.6413342E-1,-3.7254086E-1,-6.747695E-2,1E0,1E0,1E0,3.5926822E-1,4.0138E3,7E1,-2.9070476E-1,1.5499723E-1,2.0558009E-1,-3.233175E-2,-4.2113483E-1,-1.9180381E-1,5.442659E-2,-9.444655E-2,-3.3767295E-1,1.5116721E-1,-3.378182E-1,-4.3349373E-1,6.683551E-2,-2.9576278E-1,3.1881386E-1,-7.683255E-2,6.589005E-2,-2.2934206E-1,1.4642803E-1,-1.6451772E-2,-2.5095835E-2,2.671179E-1,2.607471E-1,4.192023E-1,-1.6353647E-1,-3.5628408E-1,4.96205E-3,-3.4249547E-1,1.7435178E-1,-3.0076844E-1],"split_indices":[28,25,1,24,24,26,27,1,23,2,0,24,29,9,0,29,2,3,21,0,1,29,19,10,0,29,21,2,13,3,3,1,3,3,1,2,0,3,0,0,0,8,27,19,0,3,1,0,0,0,0,0,0,0,0,0,0,0,0,0,0,0,0,0,0,0,0,0,0,0,0,0,0,0,0,0,0],"split_type":[0,0,0,0,0,0,0,0,0,0,0,0,0,0,0,0,0,0,0,0,0,0,0,0,0,0,0,0,0,0,0,0,0,0,0,0,0,0,0,0,0,0,0,0,0,0,0,0,0,0,0,0,0,0,0,0,0,0,0,0,0,0,0,0,0,0,0,0,0,0,0,0,0,0,0,0,0],"sum_hessian":[1.7273859E3,8.857714E2,8.4161444E2,6.4792737E2,2.3784402E2,5.540499E2,2.875645E2,4.3700357E2,2.1092381E2,2.3572028E2,2.1237416E0,8.988764E1,4.641623E2,2.5954272E2,2.8021801E1,9.237198E1,3.446316E2,1.1450267E2,9.642115E1,1.7990869E2,5.5811584E1,8.39231E1,5.9645395E0,4.1977744E2,4.4384865E1,6.554383E1,1.9399887E2,1.3356544E1,7.9015434E1,6.703337E1,2.775982E2,3.9764786E0,1.10526184E2,2.406801E1,7.235314E1,3.777242E1,1.8039164E1,7.854289E1,5.3802075E0,4.013551E0,1.9509885E0,9.291086E1,3.2686658E2,6.2924583E1,2.6192513E0,4.6087845E1,1.4791103E2,6.344975E0,7.0115685E0,7.41401E1,4.8753386E0,7.340074E0,5.9693302E1,1.4370494E2,1.3389326E2,1.2458619E0,2.7306168E0,8.673781E1,2.3788383E1,2.6157196E0,2.1452291E1,6.925423E0,6.542772E1,5.3948774E0,3.237754E1,3.333745E1,4.5205444E1,5.3867565E1,3.904329E1,2.9284573E2,3.402085E1,4.0696884E1,2.2227697E1,2.9346851E1,1.6740993E1,1.3603842E2,1.1872614E1],"tree_param":{"num_deleted":"0","num_feature":"30","num_nodes":"77","size_leaf_vector":"1"}},{"base_weights":[-4.0394682E-3,-4.1145992E-1,4.2478982E-1,-2.1568026E-1,-1.014214E0,3.461945E-1,3.9566773E-1,-3.2681976E-2,-6.2092614E-1,-1.0473496E0,4.0229008E-1,2.6976678E-1,3.9881447E-1,2.6415023E-1,-2.0007294E-1,-9.849861E-1,-2.265361E-1,-3.497755E-1,-6.908563E-1,-2.370415E-1,4.5034203E-1,-4.417362E-2,5.17029E-1,-4.203647E-1,2.167752E-1,-5.042629E-1,-1.0642494E0,-5.156516E-1,4.1988004E-2,-4.6744427E-1,-3.4864345E-1,2.0814581E-1,-7.153369E-1,7.469371E-1,1.982742E-1,4.9040042E-2,-1.3018472E-1,2.0586814E-1,7.205573E-2,-1.9719343E-1,-8.10978E-2,1.0882779E-1,-1.5608484E-1,-2.1275374E-1,1.4420472E-1,-3.5200417E-1,-2.3336968E-1,-1.8873312E-1,-3.0502154E-2,-2.1620072E-1,9.77094E-2,-2.61773E-1,-3.6689345E-2,-2.1426637E-2,2.0138125E-1,-3.0033892E-1,-3.4765292E-2,3.286135E-1,1.836074E-1,-1.0513206E-1,1.0945729E-1],"categories":[],"categories_nodes":[],"categories_segments":[],"categories_sizes":[],"default_left":[0,0,0,0,0,0,0,0,0,0,0,0,0,0,0,0,0,0,0,0,0,0,0,0,0,0,0,0,0,0,0,0,0,0,0,0,0,0,0,0,0,0,0,0,0,0,0,0,0,0,0,0,0,0,0,0,0,0,0,0,0],"id":3,"left_children":[1,3,5,7,9,11,-1,13,15,17,-1,19,-1,21,23,25,27,-1,29,31,33,35,37,39,41,43,45,47,49,51,-1,53,55,57,59,-1,-1,-1,-1,-1,-1,-1,-1,-1,-1,-1,-1,-1,-1,-1,-1,-1,-1,-1,-1,-1,-1,-1,-1,-1,-1],"loss_changes":[2.7904868E2,9.6432236E1,5.422563E1,4.5920906E1,1.7054138E1,5.349079E1,0E0,2.1310415E1,2.7439903E1,7.576996E0,0E0,6.1074863E1,0E0,1.2084492E1,2.5264027E1,3.2693405E0,7.302095E0,0E0,4.9267044E0,3.7553207E1,3.6599716E1,5.787152E0,3.819973E0,6.210495E0,1.0458026E1,3.5780196E0,1.7378922E0,2.060607E0,1.0955024E1,5.055294E0,0E0,1.1927974E1,1.4430443E1,9.9281845E0,2.4540016E1,0E0,0E0,0E0,0E0,0E0,0E0,0E0,0E0,0E0,0E0,0E0,0E0,0E0,0E0,0E0,0E0,0E0,0E0,0E0,0E0,0E0,0E0,0E0,0E0,0E0,0E0],"parents":[2147483647,0,0,1,1,2,2,3,3,4,4,5,5,7,7,8,8,9,9,11,11,13,13,14,14,15,15,16,16,18,18,19,19,20,20,21,21,22,22,23,23,24,24,25,25,26,26,27,27,28,28,29,29,31,31,32,32,33,33,34,34],"right_children":[2,4,6,8,10,12,-1,14,16,18,-1,20,-1,22,24,26,28,-1,30,32,34,36,38,40,42,44,46,48,50,52,-1,54,56,58,60,-1,-1,-1,-1,-1,-1,-1,-1,-1,-1,-1,-1,-1,-1,-1,-1,-1,-1,-1,-1,-1,-1,-1,-1,-1,-1],"split_conditions":[1E0,1E0,1E0,1E0,1E0,1E0,3.9566773E-1,5E0,1E0,9.36E1,4.0229008E-1,1E0,3.9881447E-1,4.435E1,1E0,2.6679837E2,1E0,-3.497755E-1,7.2E1,4.8525E2,1.261E3,3.59E1,1.178E2,1E0,5E1,2.2745E2,1E0,1E0,1E0,1E0,-3.4864345E-1,1E0,1E0,1.178E2,1E0,4.9040042E-2,-1.3018472E-1,2.0586814E-1,7.205573E-2,-1.9719343E-1,-8.10978E-2,1.0882779E-1,-1.5608484E-1,-2.1275374E-1,1.4420472E-1,-3.5200417E-1,-2.3336968E-1,-1.8873312E-1,-3.0502154E-2,-2.1620072E-1,9.77094E-2,-2.61773E-1,-3.6689345E-2,-2.1426637E-2,2.0138125E-1,-3.0033892E-1,-3.4765292E-2,3.286135E-1,1.836074E-1,-1.0513206E-1,1.0945729E-1],"split_indices":[28,25,27,24,24,29,0,1,23,2,0,10,0,2,23,3,4,0,1,3,3,3,3,26,1,3,19,29,26,4,0,8,8,3,21,0,0,0,0,0,0,0,0,0,0,0,0,0,0,0,0,0,0,0,0,0,0,0,0,0,0],"split_type":[0,0,0,0,0,0,0,0,0,0,0,0,0,0,0,0,0,0,0,0,0,0,0,0,0,0,0,0,0,0,0,0,0,0,0,0,0,0,0,0,0,0,0,0,0,0,0,0,0,0,0,0,0,0,0,0,0,0,0,0,0],"sum_hessian":[1.5951753E3,8.180275E2,7.771478E2,6.184934E2,1.9953407E2,7.1562836E2,6.1519505E1,4.2682928E2,1.9166414E2,1.9731332E2,2.2207365E0,6.651941E2,5.043427E1,1.5369893E2,2.7313037E2,9.888566E1,9.277848E1,1.463629E2,5.095044E1,1.7466397E2,4.9053012E2,6.962887E1,8.407007E1,1.7868974E2,9.444062E1,1.5038796E1,8.384686E1,4.4233105E1,4.8545376E1,3.5916325E1,1.5034112E1,9.0755486E1,8.390848E1,2.2445839E2,2.6607172E2,4.580717E1,2.3821693E1,5.1261723E1,3.280835E1,6.796925E1,1.1072048E2,7.925162E1,1.5189004E1,1.2680601E1,2.3581955E0,5.847183E1,2.5375034E1,3.431008E1,9.923024E0,1.2744905E1,3.5800472E1,1.5819405E1,2.0096922E1,5.712029E1,3.3635197E1,5.63657E1,2.7542778E1,6.066316E1,1.6379523E2,6.1707558E1,2.0436415E2],"tree_param":{"num_deleted":"0","num_feature":"30","num_nodes":"61","size_leaf_vector":"1"}},{"base_weights":[-4.496747E-3,-3.2599992E-1,3.3295646E-1,-1.6515043E-1,-8.959132E-1,2.6706633E-1,3.62704E-1,-4.4806463E-1,8.317088E-3,-9.28377E-1,3.3318603E-1,2.0453244E-1,3.6364508E-1,-7.917526E-2,-6.494592E-1,2.849661E-1,-2.140695E-1,-3.2074493E-1,-5.58838E-1,7.887196E-1,1.13940276E-1,-2.2335975E-1,2.4745645E-1,-7.157748E-1,-2.070426E-2,1.433287E-1,7.9839265E-1,-5.369639E-1,-1.9629342E-2,-3.760271E-1,-3.419868E-1,3.054073E-1,9.2418164E-1,-3.494711E-1,2.6625413E-1,-1.96456E-2,-2.0372126E-1,1.345982E-1,-2.104762E-1,-1.6139601E-1,-2.7356255E-1,1.5404771E-1,-1.4291063E-1,-9.0807555E-3,1.7794909E-1,1.6592708E-1,3.8255206E-1,-2.636601E-2,-2.1277103E-1,2.1403544E-1,-3.508891E-2,-3.292121E-1,-5.0538708E-2,1.1296239E-2,3.426304E-1,2.8643772E-1,1.1802896E-1,-1.8288872E-1,3.185942E-2,-3.8811058E-2,1.253187E-1],"categories":[],"categories_nodes":[],"categories_segments":[],"categories_sizes":[],"default_left":[0,0,0,0,0,0,0,0,0,0,0,0,0,0,0,0,0,0,0,0,0,0,0,0,0,0,0,0,0,0,0,0,0,0,0,0,0,0,0,0,0,0,0,0,0,0,0,0,0,0,0,0,0,0,0,0,0,0,0,0,0],"id":4,"left_children":[1,3,5,7,9,11,-1,13,15,17,-1,19,-1,21,23,25,27,-1,29,31,33,35,37,39,41,43,45,47,49,51,-1,53,55,57,59,-1,-1,-1,-1,-1,-1,-1,-1,-1,-1,-1,-1,-1,-1,-1,-1,-1,-1,-1,-1,-1,-1,-1,-1,-1,-1],"loss_changes":[1.6016908E2,6.915651E1,4.1255264E1,2.8999857E1,1.185614E1,3.9419617E1,0E0,1.6633965E1,2.2655046E1,7.938202E0,0E0,3.3290863E1,0E0,3.8442087E0,6.036915E0,1.1817932E1,1.2807357E1,0E0,4.602412E0,5.250744E0,3.8718906E1,4.0089293E0,5.110052E0,4.085747E0,3.8659403E0,1.0156106E1,3.41852E0,5.8711224E0,9.24982E0,5.432455E0,0E0,4.436378E0,6.8878937E-1,1.6163647E1,2.4769773E1,0E0,0E0,0E0,0E0,0E0,0E0,0E0,0E0,0E0,0E0,0E0,0E0,0E0,0E0,0E0,0E0,0E0,0E0,0E0,0E0,0E0,0E0,0E0,0E0,0E0,0E0],"parents":[2147483647,0,0,1,1,2,2,3,3,4,4,5,5,7,7,8,8,9,9,11,11,13,13,14,14,15,15,16,16,18,18,19,19,20,20,21,21,22,22,23,23,24,24,25,25,26,26,27,27,28,28,29,29,31,31,32,32,33,33,34,34],"right_children":[2,4,6,8,10,12,-1,14,16,18,-1,20,-1,22,24,26,28,-1,30,32,34,36,38,40,42,44,46,48,50,52,-1,54,56,58,60,-1,-1,-1,-1,-1,-1,-1,-1,-1,-1,-1,-1,-1,-1,-1,-1,-1,-1,-1,-1,-1,-1,-1,-1,-1,-1],"split_conditions":[1E0,1E0,1E0,1E0,1E0,1E0,3.62704E-1,6E0,1.7E1,9.36E1,3.3318603E-1,2E0,3.6364508E-1,4.555E1,9.51E1,1E0,1E0,-3.2074493E-1,7.8535356E3,1E0,1E0,2.11E1,1E0,1E0,4.965E3,1E0,1E0,2.5E1,7.828254E1,1E0,-3.419868E-1,7.578981E1,1E0,1E0,1E0,-1.96456E-2,-2.0372126E-1,1.345982E-1,-2.104762E-1,-1.6139601E-1,-2.7356255E-1,1.5404771E-1,-1.4291063E-1,-9.0807555E-3,1.7794909E-1,1.6592708E-1,3.8255206E-1,-2.636601E-2,-2.1277103E-1,2.1403544E-1,-3.508891E-2,-3.292121E-1,-5.0538708E-2,1.1296239E-2,3.426304E-1,2.8643772E-1,1.1802896E-1,-1.8288872E-1,3.185942E-2,-3.8811058E-2,1.253187E-1],"split_indices":[28,25,27,26,24,29,0,1,1,2,0,1,0,2,2,17,10,0,3,26,10,2,23,24,3,9,19,1,2,9,0,2,19,8,9,0,0,0,0,0,0,0,0,0,0,0,0,0,0,0,0,0,0,0,0,0,0,0,0,0,0],"split_type":[0,0,0,0,0,0,0,0,0,0,0,0,0,0,0,0,0,0,0,0,0,0,0,0,0,0,0,0,0,0,0,0,0,0,0,0,0,0,0,0,0,0,0,0,0,0,0,0,0,0,0,0,0,0,0,0,0,0,0,0,0],"sum_hessian":[1.4743174E3,7.55019E2,7.192984E2,5.898363E2,1.6518268E2,6.7019635E2,4.910207E1,2.23591E2,3.662453E2,1.630815E2,2.1011798E0,6.2974414E2,4.04522E1,7.9452675E1,1.4413834E2,1.6308548E2,2.031598E2,1.1672347E2,4.6358025E1,8.351138E1,5.462327E2,5.534014E1,2.4112534E1,1.3026112E2,1.3877215E1,1.2882585E2,3.425963E1,7.56955E1,1.274643E2,3.6517307E1,9.840715E0,1.8994795E1,6.4516594E1,1.3480309E2,4.1142966E2,4.1950653E1,1.3389488E1,2.0329731E1,3.782801E0,7.028389E1,5.997723E1,6.3297024E0,7.547513E0,9.3626656E1,3.519919E1,2.404737E1,1.0212257E1,2.1405708E1,5.42898E1,1.4198276E1,1.1326603E2,7.2018695E0,2.931544E1,1.5181513E1,3.8132815E0,6.0243168E1,4.2734227E0,8.55956E1,4.9207485E1,1.1395257E2,2.9747708E2],"tree_param":{"num_deleted":"0","num_feature":"30","num_nodes":"61","size_leaf_vector":"1"}},{"base_weights":[-3.458707E-3,9.863357E-2,-7.045947E-1,-2.5901967E-1,2.3121384E-1,-8.04948E-1,4.2069507E-1,-1.2542386E-1,-6.377931E-1,2.9969177E-1,-4.2433885E-1,-9.889416E-1,-5.309496E-1,1.6190797E-1,-2.2048508E-1,-7.0293844E-1,4.9011657E-1,1.08255856E-1,4.9827188E-1,-7.4702936E-1,-1.6812155E-1,-6.9987786E-1,-3.0921307E-1,-3.4445348E-1,-3.4067246E-1,7.930135E-2,3.1894988E-1,-3.1622767E-1,-1.9087069E-1,-8.458989E-1,-3.8925537E-1,3.4343934E-1,-1.0718689E-1,4.7733936E-1,-1.1882742E-1,1.6274391E-1,7.023374E-1,-9.2354566E-1,-3.8268262E-1,-7.628821E-1,1.6667277E-1,-3.2445496E-1,3.996678E-1,-1.000114E0,-1.0223402E-1,4.0507358E-2,-3.6563873E-1,1.4671892E-1,-6.8360545E-2,1.8968837E-2,-2.7491626E-1,-2.5617972E-1,-5.378817E-3,-2.2401787E-1,2.3605824E-1,1.6845325E-1,-9.6994005E-3,-1.0547986E-1,4.614125E-2,1.0008944E-1,-9.4250984E-2,2.1822858E-1,-2.5445294E-1,-3.518339E-1,-8.0151394E-2,-1.940662E-2,-4.2164385E-1,-2.6717162E-1,8.838717E-2,1.1919995E-1,-2.785203E-1,-3.5610288E-1,-1.9180141E-1,-3.1148112E-1,4.5709707E-2],"categories":[],"categories_nodes":[],"categories_segments":[],"categories_sizes":[],"default_left":[0,0,0,0,0,0,0,0,0,0,0,0,0,0,0,0,0,0,0,0,0,0,0,0,0,0,0,0,0,0,0,0,0,0,0,0,0,0,0,0,0,0,0,0,0,0,0,0,0,0,0,0,0,0,0,0,0,0,0,0,0,0,0,0,0,0,0,0,0,0,0,0,0,0,0],"id":5,"left_children":[1,3,5,7,9,11,-1,13,15,17,19,21,23,25,27,29,31,33,35,37,39,41,-1,43,-1,45,-1,-1,47,49,51,-1,53,55,57,59,61,63,65,67,69,-1,-1,71,73,-1,-1,-1,-1,-1,-1,-1,-1,-1,-1,-1,-1,-1,-1,-1,-1,-1,-1,-1,-1,-1,-1,-1,-1,-1,-1,-1,-1,-1,-1],"loss_changes":[9.8690506E1,5.7128235E1,3.8180695E1,1.6414206E1,3.9566814E1,7.9398193E0,0E0,6.651466E0,6.5714493E0,3.0208519E1,6.7787304E0,4.7746277E-1,7.458603E0,4.44143E0,4.302202E0,3.2819824E0,2.1626291E0,3.4134796E1,2.662043E1,2.0048752E0,9.652899E0,1.3579077E1,0E0,8.57522E0,0E0,4.270665E0,0E0,0E0,4.57373E0,3.548256E0,4.6543894E0,0E0,2.6701186E0,6.6708145E0,1.6079458E1,1.224547E1,1.0051018E1,3.6118908E0,4.356735E0,2.6131935E0,8.307658E0,0E0,0E0,2.2729778E-1,9.932238E0,0E0,0E0,0E0,0E0,0E0,0E0,0E0,0E0,0E0,0E0,0E0,0E0,0E0,0E0,0E0,0E0,0E0,0E0,0E0,0E0,0E0,0E0,0E0,0E0,0E0,0E0,0E0,0E0,0E0,0E0],"parents":[2147483647,0,0,1,1,2,2,3,3,4,4,5,5,7,7,8,8,9,9,10,10,11,11,12,12,13,13,14,14,15,15,16,16,17,17,18,18,19,19,20,20,21,21,23,23,25,25,28,28,29,29,30,30,32,32,33,33,34,34,35,35,36,36,37,37,38,38,39,39,40,40,43,43,44,44],"right_children":[2,4,6,8,10,12,-1,14,16,18,20,22,24,26,28,30,32,34,36,38,40,42,-1,44,-1,46,-1,-1,48,50,52,-1,54,56,58,60,62,64,66,68,70,-1,-1,72,74,-1,-1,-1,-1,-1,-1,-1,-1,-1,-1,-1,-1,-1,-1,-1,-1,-1,-1,-1,-1,-1,-1,-1,-1,-1,-1,-1,-1,-1,-1],"split_conditions":[1E0,1E0,1E0,1E0,5.6E1,1E0,4.2069507E-1,2E0,1.0582598E2,1E0,1E0,7.5630365E2,7.2E1,7.578981E1,5.54E1,7.212301E1,1.08827156E2,5E0,1E0,1E0,1E0,6.7455E2,-3.0921307E-1,1E0,-3.4067246E-1,7.37E1,3.1894988E-1,-3.1622767E-1,8.195E1,3E0,1E0,3.4343934E-1,6.5E1,1E0,1E0,3.0464E3,1.094E2,1E0,1.0582598E2,6.77905E3,7E1,-3.2445496E-1,3.996678E-1,6.5E1,1E0,4.0507358E-2,-3.6563873E-1,1.4671892E-1,-6.8360545E-2,1.8968837E-2,-2.7491626E-1,-2.5617972E-1,-5.378817E-3,-2.2401787E-1,2.3605824E-1,1.6845325E-1,-9.6994005E-3,-1.0547986E-1,4.614125E-2,1.0008944E-1,-9.4250984E-2,2.1822858E-1,-2.5445294E-1,-3.518339E-1,-8.0151394E-2,-1.940662E-2,-4.2164385E-1,-2.6717162E-1,8.838717E-2,1.1919995E-1,-2.785203E-1,-3.5610288E-1,-1.9180141E-1,-3.1148112E-1,4.5709707E-2],"split_indices":[25,26,24,24,1,10,0,1,2,21,4,3,1,2,3,2,2,1,4,6,17,3,0,26,0,2,0,0,3,1,15,0,1,11,5,3,2,27,2,3,1,0,0,1,9,0,0,0,0,0,0,0,0,0,0,0,0,0,0,0,0,0,0,0,0,0,0,0,0,0,0,0,0,0,0],"split_type":[0,0,0,0,0,0,0,0,0,0,0,0,0,0,0,0,0,0,0,0,0,0,0,0,0,0,0,0,0,0,0,0,0,0,0,0,0,0,0,0,0,0,0,0,0,0,0,0,0,0,0,0,0,0,0,0,0,0,0,0,0,0,0,0,0,0,0,0,0,0,0,0,0,0,0],"sum_hessian":[1.3767622E3,1.2025225E3,1.7423975E2,3.2495596E2,8.775665E2,1.6690779E2,7.331956E0,2.4121059E2,8.374539E1,7.9505884E2,8.250767E1,9.8293236E1,6.8614555E1,5.978907E1,1.8142151E2,7.952878E1,4.216613E0,4.05598E2,3.8946085E2,3.566903E1,4.6838634E1,1.4651568E1,8.364167E1,5.3639267E1,1.497529E1,5.576574E1,4.02333E0,5.037188E0,1.7638432E2,5.3465366E1,2.6063412E1,1.5743828E0,2.64223E0,1.5407478E2,2.5152322E2,1.4796756E2,2.414933E2,2.2994171E1,1.267486E1,1.6409166E1,3.042947E1,1.272882E1,1.922748E0,1.3626075E1,4.001319E1,5.432953E1,1.4362106E0,8.4718895E0,1.6791243E2,3.8545218E0,4.9610844E1,1.0999263E1,1.5064148E1,1.6364256E0,1.0058044E0,1.3214886E2,2.1925919E1,1.3552376E2,1.15999466E2,1.09155464E2,3.881209E1,2.3816995E2,3.3233423E0,1.6095676E1,6.8984947E0,1.0479855E1,2.1950052E0,1.4782135E1,1.6270317E0,2.5661446E1,4.7680244E0,7.4674797E0,6.1585956E0,7.8980274E0,3.2115166E1],"tree_param":{"num_deleted":"0","num_feature":"30","num_nodes":"75","size_leaf_vector":"1"}},{"base_weights":[-6.474776E-3,-2.2436908E-1,2.1910208E-1,-1.2449316E-1,-6.992711E-1,1.6493683E-1,3.3631977E-1,-2.6429114E-1,5.985036E-2,-9.081664E-1,-3.021291E-1,1.1420634E-1,3.3626056E-1,-4.0995825E-2,-4.8829898E-1,3.53394E-1,-1.0350563E-1,-6.3815105E-1,-9.4796705E-1,-1.424315E-1,-3.0031848E-1,2.2735426E-1,-2.0698617E-1,-1.3845283E-1,5.304862E-1,-6.435774E-1,-1.8138893E-1,1.9080715E-1,6.5715396E-1,-5.5194235E-1,7.259101E-2,-3.013002E-1,2.6714212E-1,-1.0644801E-1,-2.8799182E-1,-5.29917E-1,1.4825651E-1,-7.1338385E-2,3.8021794E-1,-7.210147E-1,-1.021247E-1,-1.6858605E-1,-6.2332675E-3,2.0937471E-1,-3.058145E-1,-2.2456588E-1,-6.642858E-2,-8.39081E-2,4.9897173E-1,1.0817488E-1,-6.567574E-2,2.233954E-1,-6.205323E-3,-4.1623063E-2,-2.4124391E-1,-9.241608E-2,7.522164E-2,-2.9379027E-3,-2.9244837E-1,-2.0131314E-1,1.5960073E-1,-1.187891E-1,5.865364E-2,4.9095295E-2,1.722263E-1,-1.08535476E-1,-3.390356E-1,1.4227528E-2,-1.6998418E-1],"categories":[],"categories_nodes":[],"categories_segments":[],"categories_sizes":[],"default_left":[0,0,0,0,0,0,0,0,0,0,0,0,0,0,0,0,0,0,0,0,0,0,0,0,0,0,0,0,0,0,0,0,0,0,0,0,0,0,0,0,0,0,0,0,0,0,0,0,0,0,0,0,0,0,0,0,0,0,0,0,0,0,0,0,0,0,0,0,0],"id":6,"left_children":[1,3,5,7,9,11,-1,13,15,17,19,21,-1,23,25,27,29,31,33,35,-1,37,39,41,43,45,47,49,51,53,55,-1,-1,-1,-1,57,59,61,63,65,67,-1,-1,-1,-1,-1,-1,-1,-1,-1,-1,-1,-1,-1,-1,-1,-1,-1,-1,-1,-1,-1,-1,-1,-1,-1,-1,-1,-1],"loss_changes":[6.406122E1,3.1357048E1,3.110146E1,1.416302E1,9.264385E0,2.9225208E1,0E0,1.5605509E1,1.142881E1,1.9943237E-1,4.448328E0,2.097639E1,0E0,8.847269E0,7.31065E0,4.0807924E0,1.2154423E1,7.9893403E0,1.09233856E-1,3.9810634E0,0E0,1.9493856E1,8.041124E0,6.734846E0,6.7207603E0,4.4031334E0,1.0212579E1,4.035859E0,1.7521772E0,4.4082403E0,7.606709E0,0E0,0E0,0E0,0E0,3.477622E0,6.8265567E0,1.265315E1,1.1753433E1,3.3155918E0,8.793552E0,0E0,0E0,0E0,0E0,0E0,0E0,0E0,0E0,0E0,0E0,0E0,0E0,0E0,0E0,0E0,0E0,0E0,0E0,0E0,0E0,0E0,0E0,0E0,0E0,0E0,0E0,0E0,0E0],"parents":[2147483647,0,0,1,1,2,2,3,3,4,4,5,5,7,7,8,8,9,9,10,10,11,11,13,13,14,14,15,15,16,16,17,17,18,18,19,19,21,21,22,22,23,23,24,24,25,25,26,26,27,27,28,28,29,29,30,30,35,35,36,36,37,37,38,38,39,39,40,40],"right_children":[2,4,6,8,10,12,-1,14,16,18,20,22,-1,24,26,28,30,32,34,36,-1,38,40,42,44,46,48,50,52,54,56,-1,-1,-1,-1,58,60,62,64,66,68,-1,-1,-1,-1,-1,-1,-1,-1,-1,-1,-1,-1,-1,-1,-1,-1,-1,-1,-1,-1,-1,-1,-1,-1,-1,-1,-1,-1],"split_conditions":[1E0,1E0,1E0,1E0,9.36E1,1E0,3.3631977E-1,3.0555E2,1.4626E3,7.5630365E2,7.8535356E3,3.0920393E3,3.3626056E-1,1E0,1E0,1E0,1E0,6.7455E2,1.94E1,1E0,-3.0031848E-1,1E0,1E0,1E0,4.51E1,1E0,1E0,1.1E1,1.0005E2,8.565E1,1E0,-3.013002E-1,2.6714212E-1,-1.0644801E-1,-2.8799182E-1,6.66835E3,6.77905E3,1E0,1E0,4.398264E3,1E0,-1.6858605E-1,-6.2332675E-3,2.0937471E-1,-3.058145E-1,-2.2456588E-1,-6.642858E-2,-8.39081E-2,4.9897173E-1,1.0817488E-1,-6.567574E-2,2.233954E-1,-6.205323E-3,-4.1623063E-2,-2.4124391E-1,-9.241608E-2,7.522164E-2,-2.9379027E-3,-2.9244837E-1,-2.0131314E-1,1.5960073E-1,-1.187891E-1,5.865364E-2,4.9095295E-2,1.722263E-1,-1.08535476E-1,-3.390356E-1,1.4227528E-2,-1.6998418E-1],"split_indices":[28,25,27,10,2,29,0,3,3,3,3,3,0,8,27,23,9,3,2,4,0,10,9,29,2,8,29,1,2,2,23,0,0,0,0,3,3,4,21,3,0,0,0,0,0,0,0,0,0,0,0,0,0,0,0,0,0,0,0,0,0,0,0,0,0,0,0,0,0],"split_type":[0,0,0,0,0,0,0,0,0,0,0,0,0,0,0,0,0,0,0,0,0,0,0,0,0,0,0,0,0,0,0,0,0,0,0,0,0,0,0,0,0,0,0,0,0,0,0,0,0,0,0,0,0,0,0,0,0,0,0,0,0,0,0,0,0,0,0,0,0],"sum_hessian":[1.3013312E3,6.6194025E2,6.393909E2,5.479614E2,1.13978775E2,6.042849E2,3.510601E1,3.1138623E2,2.3657521E2,7.384815E1,4.0130627E1,5.7489514E2,2.9389729E1,1.5653358E2,1.5485265E2,8.416715E1,1.5240807E2,1.1675172E1,6.217298E1,3.3646576E1,6.4840503E0,4.2534805E2,1.495471E2,1.343757E2,2.215787E1,1.0209941E2,5.2753242E1,5.5883686E1,2.8283466E1,4.237196E1,1.100361E2,9.695574E0,1.9795983E0,1.8396509E0,6.033333E1,1.4069301E1,1.9577274E1,1.4417204E2,2.8117603E2,2.43429E1,1.252042E2,2.8398197E1,1.05977516E2,2.0493668E1,1.664201E0,8.114734E1,2.0952066E1,5.0889587E1,1.8636566E0,3.9596336E1,1.628735E1,2.4962646E1,3.3208187E0,1.664755E1,2.572441E1,3.4847977E1,7.5188126E1,6.9575605E0,7.11174E0,6.005922E0,1.3571353E1,6.482644E1,7.93456E1,1.3368454E2,1.4749149E2,1.3964849E1,1.037805E1,9.538981E1,2.9814392E1],"tree_param":{"num_deleted":"0","num_feature":"30","num_nodes":"69","size_leaf_vector":"1"}},{"base_weights":[-5.891126E-3,6.45366E-2,-4.9988595E-1,-9.3568556E-2,2.7190953E-1,-3.4558472E-1,-9.5507896E-1,2.7380577E-1,-2.441713E-1,2.4323823E-1,4.808787E-1,-8.210273E-1,-1.628592E-1,-3.222676E-1,-7.23126E-1,-8.839948E-1,3.084112E-1,-5.960217E-1,-1.7008886E-1,-2.4703784E-1,3.4691903E-1,-9.1235596E-1,2.5993156E-1,-4.9697688E-1,6.489292E-2,-2.737668E-1,-1.021595E0,-1.1071694E0,-6.1713446E-2,1.5000056E-1,4.932997E-1,-2.9608288E-1,-8.569265E-1,1.1527809E-2,-3.0221105E-1,3.404754E-2,-7.5040656E-1,6.525067E-1,2.0927356E-1,-2.5002858E-2,-9.402406E-1,2.1901335E-1,-8.6454615E-2,-1.804181E-1,-7.7730006E-1,-3.4286386E-1,4.060605E-1,2.8694314E-1,-6.5520847E-1,-3.2806706E-1,-6.5440625E-2,-4.3359467E-1,-5.232859E-2,1.9633923E-2,1.0975096E-1,1.6326591E-1,-1.17198825E-1,3.09044E-2,-1.9475107E-1,-2.6739302E-1,-1.0295036E-2,-7.4570194E-2,7.369849E-2,-1.9841965E-1,-5.9972513E-2,-1.9445626E-1,1.17873885E-1,-2.3135342E-2,-2.4926642E-1,1.3481998E-1,2.5186065E-1,-2.745561E-2,1.1959694E-1,-3.1263107E-1,-1.979566E-1,-1.6137035E-1,1.324484E-1,-2.8033385E-1,1.1957071E-1,3.3525404E-2,-3.0434978E-1,-5.232053E-3,2.913606E-1,-4.7609538E-2,2.064673E-1,-6.683917E-2,-2.5100186E-1],"categories":[],"categories_nodes":[],"categories_segments":[],"categories_sizes":[],"default_left":[0,0,0,0,0,0,0,0,0,0,0,0,0,0,0,0,0,0,0,0,0,0,0,0,0,0,0,0,0,0,0,0,0,0,0,0,0,0,0,0,0,0,0,0,0,0,0,0,0,0,0,0,0,0,0,0,0,0,0,0,0,0,0,0,0,0,0,0,0,0,0,0,0,0,0,0,0,0,0,0,0,0,0,0,0,0,0],"id":7,"left_children":[1,3,5,7,9,11,13,15,17,19,-1,21,23,-1,25,27,29,31,33,35,37,39,41,43,45,47,49,51,-1,53,55,57,59,61,63,65,67,69,71,-1,73,-1,-1,75,77,79,81,83,85,-1,-1,-1,-1,-1,-1,-1,-1,-1,-1,-1,-1,-1,-1,-1,-1,-1,-1,-1,-1,-1,-1,-1,-1,-1,-1,-1,-1,-1,-1,-1,-1,-1,-1,-1,-1,-1,-1],"loss_changes":[4.2921013E1,3.542924E1,1.0481895E1,3.4006805E1,1.7446472E1,9.990055E0,2.8453827E-1,7.4376345E0,1.1253136E1,2.3402838E1,0E0,3.406641E0,6.5328965E0,0E0,1.8785791E0,5.9701824E-1,5.0333157E0,5.644062E0,8.671684E0,1.1437519E1,1.5807423E1,6.111069E-1,1.0554206E0,2.942813E0,7.3291445E0,1.8538268E0,2.993641E-1,9.6895885E-1,0E0,1.7162144E0,3.8147984E0,5.2227387E0,1.0944958E0,9.383783E0,7.55324E0,1.3160164E1,1.5043182E0,4.0763626E0,1.5007439E1,0E0,1.3370514E-1,0E0,0E0,4.154635E0,3.7214193E0,7.467821E0,6.861385E0,7.974854E-1,2.0120978E-1,0E0,0E0,0E0,0E0,0E0,0E0,0E0,0E0,0E0,0E0,0E0,0E0,0E0,0E0,0E0,0E0,0E0,0E0,0E0,0E0,0E0,0E0,0E0,0E0,0E0,0E0,0E0,0E0,0E0,0E0,0E0,0E0,0E0,0E0,0E0,0E0,0E0,0E0],"parents":[2147483647,0,0,1,1,2,2,3,3,4,4,5,5,6,6,7,7,8,8,9,9,11,11,12,12,14,14,15,15,16,16,17,17,18,18,19,19,20,20,21,21,22,22,23,23,24,24,25,25,26,26,27,27,29,29,30,30,31,31,32,32,33,33,34,34,35,35,36,36,37,37,38,38,40,40,43,43,44,44,45,45,46,46,47,47,48,48],"right_children":[2,4,6,8,10,12,14,16,18,20,-1,22,24,-1,26,28,30,32,34,36,38,40,42,44,46,48,50,52,-1,54,56,58,60,62,64,66,68,70,72,-1,74,-1,-1,76,78,80,82,84,86,-1,-1,-1,-1,-1,-1,-1,-1,-1,-1,-1,-1,-1,-1,-1,-1,-1,-1,-1,-1,-1,-1,-1,-1,-1,-1,-1,-1,-1,-1,-1,-1,-1,-1,-1,-1,-1,-1],"split_conditions":[6E1,1E0,7.1E1,3E0,1E0,1E0,7.3893594E3,1.93E1,2.09E1,1E0,4.808787E-1,6.46315E3,1E0,-3.222676E-1,1.094E2,1E0,1E0,1.99E1,5.835E1,6.515E1,1.23845E3,1.2103E3,1E0,1E0,6.77905E3,7.2E1,1E0,1E0,-6.1713446E-2,6.850434E1,8.885E1,1.3E1,5.3E1,1E0,1E0,2.7459093E1,1.3E1,1E0,1E0,-2.5002858E-2,1E0,2.1901335E-1,-8.6454615E-2,1E0,7.544E3,6.3109E3,1E0,1E0,1E0,-3.2806706E-1,-6.5440625E-2,-4.3359467E-1,-5.232859E-2,1.9633923E-2,1.0975096E-1,1.6326591E-1,-1.17198825E-1,3.09044E-2,-1.9475107E-1,-2.6739302E-1,-1.0295036E-2,-7.4570194E-2,7.369849E-2,-1.9841965E-1,-5.9972513E-2,-1.9445626E-1,1.17873885E-1,-2.3135342E-2,-2.4926642E-1,1.3481998E-1,2.5186065E-1,-2.745561E-2,1.1959694E-1,-3.1263107E-1,-1.979566E-1,-1.6137035E-1,1.324484E-1,-2.8033385E-1,1.1957071E-1,3.3525404E-2,-3.0434978E-1,-5.232053E-3,2.913606E-1,-4.7609538E-2,2.064673E-1,-6.683917E-2,-2.5100186E-1],"split_indices":[1,9,1,1,8,21,3,2,2,10,0,3,4,0,2,26,28,2,2,2,3,3,26,19,3,1,24,6,0,3,2,1,1,7,10,2,1,23,5,0,27,0,0,6,3,3,27,6,13,0,0,0,0,0,0,0,0,0,0,0,0,0,0,0,0,0,0,0,0,0,0,0,0,0,0,0,0,0,0,0,0,0,0,0,0,0,0],"split_type":[0,0,0,0,0,0,0,0,0,0,0,0,0,0,0,0,0,0,0,0,0,0,0,0,0,0,0,0,0,0,0,0,0,0,0,0,0,0,0,0,0,0,0,0,0,0,0,0,0,0,0,0,0,0,0,0,0,0,0,0,0,0,0,0,0,0,0,0,0,0,0,0,0,0,0,0,0,0,0,0,0,0,0,0,0,0,0],"sum_hessian":[1.2317566E3,1.0788209E3,1.529357E2,6.1243634E2,4.6638458E2,1.1553191E2,3.7403778E1,1.7782909E2,4.3460724E2,4.577079E2,8.676681E0,3.1105019E1,8.44269E1,2.2311766E1,1.5092014E1,4.448539E0,1.7338055E2,7.4365776E1,3.602415E2,7.96559E1,3.78052E2,2.8825562E1,2.2794564E0,3.374301E1,5.0683887E1,6.7886376E0,8.303377E0,2.8714416E0,1.5770973E0,9.435199E1,7.902856E1,3.5588127E1,3.8777645E1,1.5208981E2,2.0815167E2,5.1711895E1,2.7944E1,1.1624194E2,2.6181006E2,1.0678269E0,2.7757734E1,1.0483621E0,1.2310942E0,1.6619183E1,1.712383E1,2.3086447E1,2.759744E1,2.8487644E0,3.9398732E0,7.2894382E0,1.0139387E0,1.7041141E0,1.1673276E0,6.873007E1,2.5621916E1,7.508754E1,3.9410186E0,1.7038086E1,1.8550041E1,3.7141678E1,1.6359664E0,7.202115E1,8.0068665E1,4.4931324E1,1.6322035E2,1.7547092E1,3.4164803E1,3.192714E0,2.4751287E1,5.7357014E1,5.8884926E1,1.0135196E2,1.6045808E2,1.8368023E1,9.389712E0,1.0638899E1,5.9802833E0,1.5286253E1,1.8375771E0,1.4264638E1,8.821808E0,1.6329628E1,1.1267812E1,1.6362038E0,1.2125605E0,1.8231843E0,2.116689E0],"tree_param":{"num_deleted":"0","num_feature":"30","num_nodes":"87","size_leaf_vector":"1"}},{"base_weights":[-7.2582304E-3,-2.589882E-1,9.3215816E-2,-1.6593996E-1,-8.4511286E-1,1.5596649E-1,-2.5300676E-1,-9.376223E-2,-4.1414753E-1,-9.73464E-1,-6.4108247E-1,3.839317E-2,3.6218333E-1,-8.10736E-1,-1.11292385E-1,-1.4743637E-2,-3.855135E-1,-6.277113E-1,-9.658695E-2,-7.7770814E-2,-3.0235875E-1,-5.278065E-2,-8.2068366E-1,4.1175953E-1,-3.865708E-2,5.9285057E-1,1.2614413E-1,-8.761603E-1,5.3611863E-2,1.7471733E-2,-7.013224E-1,-3.897015E-2,6.612758E-1,-5.828966E-1,2.3868905E-2,-1.8708807E-1,-7.6804024E-1,-4.636743E-1,3.3132944E-1,-2.0340069E-1,3.6041886E-1,-1.5248334E-2,-2.6103312E-1,2.0069622E-1,6.018151E-1,-2.1116126E-1,1.564303E-1,6.400493E-1,-1.327248E-1,2.0287743E-1,-8.917425E-1,1.3508318E-2,-2.8435302E-1,-4.53473E-1,1.7002E-1,-3.421053E-1,-8.713043E-1,-1.6417574E-3,-2.4394867E-1,3.383542E-1,-1.0310916E-2,1.3315164E-1,-1.9573575E-1,-6.8281375E-2,1.9365743E-1,-1.5333728E-1,2.8337973E-1,-2.815548E-1,-1.0073163E-1,-3.0859345E-1,-5.4590948E-2,3.2426637E-1,-3.9665844E-2,2.5276557E-1,-2.7759833E-2,8.826865E-2,-1.8250383E-1,2.150359E-1,-1.8805934E-2,-9.0207845E-2,4.3434788E-2,1.0087517E-1,-6.375443E-2,1.1787216E-1,2.3335275E-1,-1.7139547E-1,1.0192094E-1,-7.399025E-2,1.1735059E-1,-3.1260812E-1,4.0742934E-2,-1.0946986E-2,-3.175698E-1,-1.9901909E-1,9.087568E-2,-2.750143E-1,3.3955283E-2,-2.8340453E-1,-8.8343E-2],"categories":[],"categories_nodes":[],"categories_segments":[],"categories_sizes":[],"default_left":[0,0,0,0,0,0,0,0,0,0,0,0,0,0,0,0,0,0,0,0,0,0,0,0,0,0,0,0,0,0,0,0,0,0,0,0,0,0,0,0,0,0,0,0,0,0,0,0,0,0,0,0,0,0,0,0,0,0,0,0,0,0,0,0,0,0,0,0,0,0,0,0,0,0,0,0,0,0,0,0,0,0,0,0,0,0,0,0,0,0,0,0,0,0,0,0,0,0,0],"id":8,"left_children":[1,3,5,7,9,11,13,15,17,19,21,23,25,27,29,31,33,35,37,-1,-1,39,41,43,45,47,49,51,-1,53,55,57,59,61,63,65,67,69,71,-1,73,-1,-1,75,77,79,81,83,85,87,89,-1,-1,91,93,95,97,-1,-1,-1,-1,-1,-1,-1,-1,-1,-1,-1,-1,-1,-1,-1,-1,-1,-1,-1,-1,-1,-1,-1,-1,-1,-1,-1,-1,-1,-1,-1,-1,-1,-1,-1,-1,-1,-1,-1,-1,-1,-1],"loss_changes":[2.9757929E1,1.8164423E1,1.8310179E1,5.172554E0,5.7369614E-1,1.7262468E1,1.0138562E1,5.2195225E0,4.36399E0,3.8112068E-1,2.1323004E0,1.3103472E1,1.4006279E1,1.8436508E0,7.9405093E0,2.96372E0,3.9139395E0,2.2570066E0,4.4600773E0,0E0,0E0,1.7646035E0,5.5341625E-1,3.0044413E0,1.2754885E1,4.555084E0,1.0263821E1,1.6680832E0,0E0,6.301167E0,8.4486103E-1,4.511273E0,2.0712042E0,2.617961E0,2.7515857E0,4.4067454E0,1.8311691E0,2.2277E0,4.7439384E0,0E0,9.942932E-1,0E0,0E0,3.0859022E0,3.1386395E0,6.450658E0,1.1879013E1,3.8738441E0,2.01774E0,1.0325794E1,1.5676036E0,0E0,0E0,5.378445E0,7.5295286E0,2.1074157E0,2.3223782E-1,0E0,0E0,0E0,0E0,0E0,0E0,0E0,0E0,0E0,0E0,0E0,0E0,0E0,0E0,0E0,0E0,0E0,0E0,0E0,0E0,0E0,0E0,0E0,0E0,0E0,0E0,0E0,0E0,0E0,0E0,0E0,0E0,0E0,0E0,0E0,0E0,0E0,0E0,0E0,0E0,0E0,0E0],"parents":[2147483647,0,0,1,1,2,2,3,3,4,4,5,5,6,6,7,7,8,8,9,9,10,10,11,11,12,12,13,13,14,14,15,15,16,16,17,17,18,18,21,21,22,22,23,23,24,24,25,25,26,26,27,27,29,29,30,30,31,31,32,32,33,33,34,34,35,35,36,36,37,37,38,38,40,40,43,43,44,44,45,45,46,46,47,47,48,48,49,49,50,50,53,53,54,54,55,55,56,56],"right_children":[2,4,6,8,10,12,14,16,18,20,22,24,26,28,30,32,34,36,38,-1,-1,40,42,44,46,48,50,52,-1,54,56,58,60,62,64,66,68,70,72,-1,74,-1,-1,76,78,80,82,84,86,88,90,-1,-1,92,94,96,98,-1,-1,-1,-1,-1,-1,-1,-1,-1,-1,-1,-1,-1,-1,-1,-1,-1,-1,-1,-1,-1,-1,-1,-1,-1,-1,-1,-1,-1,-1,-1,-1,-1,-1,-1,-1,-1,-1,-1,-1,-1,-1],"split_conditions":[1E0,1E0,5.6E1,1E0,1E0,1E0,1E0,1E0,7.212301E1,1.94E1,1E0,2E0,2.6E1,1.003E2,7.1E1,3.6947E3,1E0,2.6679837E2,1E0,-7.7770814E-2,-3.0235875E-1,1E0,5.997957E1,1E0,1E0,1.0235E2,1.08827156E2,1.32915E3,5.3611863E-2,1E0,7.2E1,2.750987E3,4.48395E3,2.96E1,1E0,2.2745E2,4.5E1,1E0,3.18765E3,-2.0340069E-1,6.64E1,-1.5248334E-2,-2.6103312E-1,1E0,8.1E1,1E0,8.91E1,1E0,1E0,1E0,1E0,1.3508318E-2,-2.8435302E-1,1.003E2,1E0,1E0,1E0,-1.6417574E-3,-2.4394867E-1,3.383542E-1,-1.0310916E-2,1.3315164E-1,-1.9573575E-1,-6.8281375E-2,1.9365743E-1,-1.5333728E-1,2.8337973E-1,-2.815548E-1,-1.0073163E-1,-3.0859345E-1,-5.4590948E-2,3.2426637E-1,-3.9665844E-2,2.5276557E-1,-2.7759833E-2,8.826865E-2,-1.8250383E-1,2.150359E-1,-1.8805934E-2,-9.0207845E-2,4.3434788E-2,1.0087517E-1,-6.375443E-2,1.1787216E-1,2.3335275E-1,-1.7139547E-1,1.0192094E-1,-7.399025E-2,1.1735059E-1,-3.1260812E-1,4.0742934E-2,-1.0946986E-2,-3.175698E-1,-1.9901909E-1,9.087568E-2,-2.750143E-1,3.3955283E-2,-2.8340453E-1,-8.8343E-2],"split_indices":[26,25,1,24,19,17,23,15,2,2,23,1,1,2,1,3,17,3,19,0,0,7,2,28,9,2,2,3,0,17,1,3,3,2,6,3,1,9,3,0,2,0,0,13,2,8,2,4,19,9,29,0,0,2,10,25,24,0,0,0,0,0,0,0,0,0,0,0,0,0,0,0,0,0,0,0,0,0,0,0,0,0,0,0,0,0,0,0,0,0,0,0,0,0,0,0,0,0,0],"split_type":[0,0,0,0,0,0,0,0,0,0,0,0,0,0,0,0,0,0,0,0,0,0,0,0,0,0,0,0,0,0,0,0,0,0,0,0,0,0,0,0,0,0,0,0,0,0,0,0,0,0,0,0,0,0,0,0,0,0,0,0,0,0,0,0,0,0,0,0,0,0,0,0,0,0,0,0,0,0,0,0,0,0,0,0,0,0,0,0,0,0,0,0,0,0,0,0,0,0,0],"sum_hessian":[1.1746049E3,3.3463217E2,8.399727E2,2.8989413E2,4.4738052E1,7.11557E2,1.2841573E2,2.2565295E2,6.424117E1,2.514727E1,1.9590784E1,4.539349E2,2.576221E2,2.5061823E1,1.03353905E2,1.7838837E2,4.726458E1,3.7826008E1,2.6415169E1,1.5477177E0,2.3599552E1,4.8846145E0,1.4706169E1,7.6909E1,3.770259E2,1.295292E2,1.2809291E2,2.3614841E1,1.4469812E0,8.5635735E1,1.7718168E1,1.7312639E2,5.261978E0,3.1603271E1,1.5661308E1,9.700456E0,2.8125551E1,1.4173173E1,1.2241996E1,1.6886382E0,3.1959763E0,1.0095801E0,1.36965885E1,3.741468E1,3.9494316E1,2.0005063E2,1.7697528E2,1.21728615E2,7.8005815E0,1.1985811E2,8.234807E0,1.731783E0,2.1883059E1,2.046961E1,6.516612E1,6.6588473E0,1.1059321E1,1.6691156E2,6.214836E0,2.7776823E0,2.484296E0,1.6637101E0,2.9939562E1,1.1601941E1,4.059367E0,7.967478E0,1.7329775E0,1.9330822E1,8.794729E0,3.8334734E0,1.03397E1,4.1689835E0,8.073012E0,1.1314723E0,2.0645037E0,3.410783E1,3.306849E0,3.360188E1,5.8924394E0,1.5996852E2,4.00821E1,1.1904333E2,5.7931946E1,4.495321E1,7.6775406E1,3.9367733E0,3.8638084E0,3.5292862E1,8.456525E1,7.171809E0,1.0629977E0,1.2746215E1,7.723395E0,8.413406E0,5.6752716E1,2.4956625E0,4.163185E0,9.245496E0,1.8138254E0],"tree_param":{"num_deleted":"0","num_feature":"30","num_nodes":"99","size_leaf_vector":"1"}},{"base_weights":[-7.992665E-3,3.2281388E-2,-4.005108E-1,-8.569858E-2,1.8540584E-1,-5.119103E-1,3.71105E-1,-3.4906518E-2,-8.0047774E-1,3.031254E-1,-1.5682632E-1,-8.609741E-1,-3.031151E-1,-9.999894E-2,2.8462663E-1,-1.2592019E-1,-9.6467423E-1,-6.232468E-3,4.2953616E-1,-4.236787E-2,-4.864594E-1,-2.6301005E-1,-6.650516E-2,-7.655111E-1,-1.11018E-1,5.0891265E-2,-3.1867254E-1,-4.2215258E-2,5.2223974E-1,-9.445357E-1,5.1418567E-1,-1.1338586E0,-5.432569E-1,3.991048E-1,-3.9732072E-1,1.0545188E0,3.0233687E-1,-5.92537E-1,1.5008551E-1,2.3639798E-1,-5.9420544E-1,-3.1078753E-1,-4.6950206E-1,1.2124631E-1,-6.4259243E-1,5.911089E-4,1.7835954E-1,-1.2572801E-1,9.166049E-3,1.716204E-1,-1.3792402E-1,6.436057E-2,2.2961618E-1,9.363193E-2,-4.6783614E-1,3.0150265E-1,-3.1277437E-3,-3.9159924E-1,-1.2533668E-1,9.534319E-3,-2.2623657E-1,2.4429172E-2,2.9571825E-1,-1.8743311E-1,-3.1225255E-2,3.295762E-1,1.10763445E-1,-6.564874E-2,1.5327343E-1,4.6789363E-2,-2.7134073E-1,1.31636E-1,-4.7096465E-2,-3.2201022E-1,-1.0022404E-1,1.3452601E-2,-2.687944E-1,-1.12645395E-1,1.3435869E-1,-1.00495316E-1,-3.392672E-1],"categories":[],"categories_nodes":[],"categories_segments":[],"categories_sizes":[],"default_left":[0,0,0,0,0,0,0,0,0,0,0,0,0,0,0,0,0,0,0,0,0,0,0,0,0,0,0,0,0,0,0,0,0,0,0,0,0,0,0,0,0,0,0,0,0,0,0,0,0,0,0,0,0,0,0,0,0,0,0,0,0,0,0,0,0,0,0,0,0,0,0,0,0,0,0,0,0,0,0,0,0],"id":9,"left_children":[1,3,5,7,9,11,-1,13,15,17,19,21,23,25,27,29,31,33,35,37,39,-1,-1,41,43,45,47,49,51,53,55,57,59,61,63,65,67,69,71,-1,73,-1,75,77,79,-1,-1,-1,-1,-1,-1,-1,-1,-1,-1,-1,-1,-1,-1,-1,-1,-1,-1,-1,-1,-1,-1,-1,-1,-1,-1,-1,-1,-1,-1,-1,-1,-1,-1,-1,-1],"loss_changes":[1.7928371E1,1.8601055E1,1.9884857E1,2.1092361E1,1.809688E1,6.992319E0,0E0,1.134726E1,4.1483746E0,1.305205E1,4.3304577E0,1.7466354E-1,5.583377E0,1.4957897E1,7.1946797E0,5.042824E0,1.5838013E0,1.5659718E1,1.8514565E1,9.268442E0,4.536607E0,0E0,0E0,9.99465E-1,5.7887707E0,7.147915E0,6.50165E0,1.0472013E1,3.8425217E0,3.7080684E0,1.4339092E0,2.0448647E0,1.3284545E0,8.961048E0,3.2877965E0,7.9216003E-1,2.1661457E1,5.434007E0,5.833614E0,0E0,3.117447E0,0E0,2.385163E0,5.5271225E0,1.7576175E0,0E0,0E0,0E0,0E0,0E0,0E0,0E0,0E0,0E0,0E0,0E0,0E0,0E0,0E0,0E0,0E0,0E0,0E0,0E0,0E0,0E0,0E0,0E0,0E0,0E0,0E0,0E0,0E0,0E0,0E0,0E0,0E0,0E0,0E0,0E0,0E0],"parents":[2147483647,0,0,1,1,2,2,3,3,4,4,5,5,7,7,8,8,9,9,10,10,11,11,12,12,13,13,14,14,15,15,16,16,17,17,18,18,19,19,20,20,23,23,24,24,25,25,26,26,27,27,28,28,29,29,30,30,31,31,32,32,33,33,34,34,35,35,36,36,37,37,38,38,40,40,42,42,43,43,44,44],"right_children":[2,4,6,8,10,12,-1,14,16,18,20,22,24,26,28,30,32,34,36,38,40,-1,-1,42,44,46,48,50,52,54,56,58,60,62,64,66,68,70,72,-1,74,-1,76,78,80,-1,-1,-1,-1,-1,-1,-1,-1,-1,-1,-1,-1,-1,-1,-1,-1,-1,-1,-1,-1,-1,-1,-1,-1,-1,-1,-1,-1,-1,-1,-1,-1,-1,-1,-1,-1],"split_conditions":[1E0,1E0,1E0,8.91E1,1.003E2,1E0,3.71105E-1,1E0,1.6202E3,1E0,1E0,1.08827156E2,1E0,4.1645E2,1E0,1.0633491E3,4.965E3,5.835E1,8.285E1,1E0,1.64645E3,-2.6301005E-1,-6.650516E-2,6.5E1,1.08827156E2,1E0,1E0,5.44E1,1E0,1E0,9.055E1,1E0,5.43775E3,1E0,1E0,1E0,1E0,2.6E1,1.051E2,2.3639798E-1,4.04565E3,-3.1078753E-1,7.1E1,9.36E1,1E0,5.911089E-4,1.7835954E-1,-1.2572801E-1,9.166049E-3,1.716204E-1,-1.3792402E-1,6.436057E-2,2.2961618E-1,9.363193E-2,-4.6783614E-1,3.0150265E-1,-3.1277437E-3,-3.9159924E-1,-1.2533668E-1,9.534319E-3,-2.2623657E-1,2.4429172E-2,2.9571825E-1,-1.8743311E-1,-3.1225255E-2,3.295762E-1,1.10763445E-1,-6.564874E-2,1.5327343E-1,4.6789363E-2,-2.7134073E-1,1.31636E-1,-4.7096465E-2,-3.2201022E-1,-1.0022404E-1,1.3452601E-2,-2.687944E-1,-1.12645395E-1,1.3435869E-1,-1.00495316E-1,-3.392672E-1],"split_indices":[25,21,24,2,2,9,0,23,3,10,0,2,26,3,10,3,3,2,2,15,3,0,0,1,2,17,27,2,9,28,2,0,3,7,13,0,23,1,2,0,3,0,1,2,28,0,0,0,0,0,0,0,0,0,0,0,0,0,0,0,0,0,0,0,0,0,0,0,0,0,0,0,0,0,0,0,0,0,0,0,0],"split_type":[0,0,0,0,0,0,0,0,0,0,0,0,0,0,0,0,0,0,0,0,0,0,0,0,0,0,0,0,0,0,0,0,0,0,0,0,0,0,0,0,0,0,0,0,0,0,0,0,0,0,0,0,0,0,0,0,0,0,0,0,0,0,0,0,0,0,0,0,0,0,0,0,0,0,0,0,0,0,0,0,0],"sum_hessian":[1.1322937E3,1.0277589E3,1.0453474E2,5.807447E2,4.4701425E2,9.8519905E1,6.014831E0,5.431942E2,3.755044E1,3.3269092E2,1.1432334E2,3.5704914E1,6.2814995E1,4.518371E2,9.135715E1,7.6968555E0,2.9853584E1,9.678505E1,2.3590585E2,8.569575E1,2.8627592E1,3.4485237E1,1.2196755E0,1.7560404E1,4.525459E1,2.678093E2,1.8402779E2,3.88039E1,5.255325E1,3.168784E0,4.5280714E0,2.00954E1,9.758184E0,4.7516655E1,4.926839E1,3.8660515E1,1.9724535E2,2.1669628E1,6.402612E1,1.739447E0,2.6888145E1,7.8701377E0,9.690267E0,3.203099E1,1.32236E1,2.4662016E2,2.1189133E1,1.42773E2,4.125479E1,1.5552514E1,2.3251387E1,2.4028E1,2.852525E1,1.2029291E0,1.9658548E0,1.8662758E0,2.6617956E0,1.5549066E1,4.5463347E0,2.8460805E0,6.9121037E0,3.1563086E1,1.5953571E1,2.7109558E1,2.2158834E1,3.575804E1,2.9024725E0,5.6362633E1,1.4088272E2,6.5213127E0,1.5148314E1,3.277921E1,3.1246914E1,8.360816E0,1.852733E1,4.798281E0,4.891986E0,1.2647117E1,1.9383873E1,9.147236E0,4.076364E0],"tree_param":{"num_deleted":"0","num_feature":"30","num_nodes":"81","size_leaf_vector":"1"}},{"base_weights":[-5.8362675E-3,1.2088816E-2,-7.7210987E-1,-8.535187E-2,1.2745947E-1,-2.9140574E-1,-4.7228825E-1,7.394221E-2,-2.2335735E-1,1.0808879E-1,4.1744143E-1,1.6977297E-2,-7.3273474E-1,9.846427E-3,3.7741944E-1,-6.842376E-1,-1.6888045E-1,-6.642447E-2,2.3323986E-1,-2.2575463E-1,4.3325552E-1,-2.698007E-1,-3.1780544E-1,8.6898446E-2,-3.0261105E-1,1.952758E-1,3.4346032E-1,-2.77397E-1,-8.5618323E-1,-1.04398705E-1,-6.089501E-1,1.07553765E-1,-2.8666115E-1,4.330782E-3,3.6038154E-1,2.473456E-1,-7.517022E-2,-2.1178357E-1,3.5528984E-2,-3.6306493E-2,7.6351665E-2,-1.8951477E-1,1.3940419E-2,1.7573172E-2,3.018734E-1,-2.0498976E-1,8.742945E-2,-2.9428104E-1,-1.4324494E-1,-8.317296E-2,3.252317E-2,-2.1951012E-1,6.036603E-3,-8.644013E-3,2.8863108E-1,-2.5406498E-1,-6.968965E-2,1.238659E-1,-9.83266E-2,1.2931168E-1,-1.211042E-1],"categories":[],"categories_nodes":[],"categories_segments":[],"categories_sizes":[],"default_left":[0,0,0,0,0,0,0,0,0,0,0,0,0,0,0,0,0,0,0,0,0,0,0,0,0,0,0,0,0,0,0,0,0,0,0,0,0,0,0,0,0,0,0,0,0,0,0,0,0,0,0,0,0,0,0,0,0,0,0,0,0],"id":10,"left_children":[1,3,5,7,9,-1,11,13,15,17,-1,19,21,23,25,27,29,31,33,-1,35,-1,37,39,41,43,-1,45,47,49,51,53,55,57,59,-1,-1,-1,-1,-1,-1,-1,-1,-1,-1,-1,-1,-1,-1,-1,-1,-1,-1,-1,-1,-1,-1,-1,-1,-1,-1],"loss_changes":[1.4988819E1,1.200163E1,1.03129E0,1.27414875E1,1.1817242E1,0E0,1.5294082E0,5.237488E0,7.6776276E0,1.055324E1,0E0,1.963825E0,2.528019E-1,5.4069233E0,6.34056E0,2.0348434E0,7.8509464E0,7.7815723E0,8.182554E0,0E0,1.2640376E0,0E0,7.234149E-1,6.3055677E0,5.13403E0,4.281919E0,0E0,2.7687824E0,5.877094E-1,9.022503E0,2.7512045E0,1.328175E1,2.5303874E0,1.3896461E1,9.933525E0,0E0,0E0,0E0,0E0,0E0,0E0,0E0,0E0,0E0,0E0,0E0,0E0,0E0,0E0,0E0,0E0,0E0,0E0,0E0,0E0,0E0,0E0,0E0,0E0,0E0,0E0],"parents":[2147483647,0,0,1,1,2,2,3,3,4,4,6,6,7,7,8,8,9,9,11,11,12,12,13,13,14,14,15,15,16,16,17,17,18,18,20,20,22,22,23,23,24,24,25,25,27,27,28,28,29,29,30,30,31,31,32,32,33,33,34,34],"right_children":[2,4,6,8,10,-1,12,14,16,18,-1,20,22,24,26,28,30,32,34,-1,36,-1,38,40,42,44,-1,46,48,50,52,54,56,58,60,-1,-1,-1,-1,-1,-1,-1,-1,-1,-1,-1,-1,-1,-1,-1,-1,-1,-1,-1,-1,-1,-1,-1,-1,-1,-1],"split_conditions":[7.1E1,1E0,7.3893594E3,3.3245E2,1E0,-2.9140574E-1,1E0,1E0,2.96E1,1E0,4.1744143E-1,1E0,1E0,1.9531248E2,1E0,1.975E1,3.6348E3,3.0464E3,1E0,-2.2575463E-1,1.08827156E2,-2.698007E-1,1E0,4.435E1,2.5835E2,2.6679837E2,3.4346032E-1,1E0,4.5E1,1E0,1.045E2,2.653811E3,3.4329E3,1.15105E3,1.094E2,2.473456E-1,-7.517022E-2,-2.1178357E-1,3.5528984E-2,-3.6306493E-2,7.6351665E-2,-1.8951477E-1,1.3940419E-2,1.7573172E-2,3.018734E-1,-2.0498976E-1,8.742945E-2,-2.9428104E-1,-1.4324494E-1,-8.317296E-2,3.252317E-2,-2.1951012E-1,6.036603E-3,-8.644013E-3,2.8863108E-1,-2.5406498E-1,-6.968965E-2,1.238659E-1,-9.83266E-2,1.2931168E-1,-1.211042E-1],"split_indices":[1,9,3,3,8,0,13,8,2,4,0,5,28,3,7,2,3,3,23,0,2,0,19,2,3,3,0,29,1,5,2,3,3,3,2,0,0,0,0,0,0,0,0,0,0,0,0,0,0,0,0,0,0,0,0,0,0,0,0,0,0],"split_type":[0,0,0,0,0,0,0,0,0,0,0,0,0,0,0,0,0,0,0,0,0,0,0,0,0,0,0,0,0,0,0,0,0,0,0,0,0,0,0,0,0,0,0,0,0,0,0,0,0,0,0,0,0,0,0,0,0,0,0,0,0],"sum_hessian":[1.0895658E3,1.0656223E3,2.3943386E1,5.778431E2,4.8777927E2,1.3038829E1,1.0904557E1,2.6844836E2,3.0939474E2,4.814861E2,6.293144E0,4.1129427E0,6.791614E0,2.2248991E2,4.5958443E1,3.1483225E1,2.7791153E2,2.0128265E2,2.8020346E2,1.1603348E0,2.952608E0,4.0129185E0,2.7786953E0,1.7905647E2,4.343344E1,3.8156864E1,7.8015766E0,1.0129377E1,2.1353848E1,2.434735E2,3.4438023E1,1.1273675E2,8.85459E1,1.0042673E2,1.7977673E2,1.747262E0,1.2053461E0,1.1432362E0,1.6354593E0,8.00414E1,9.901507E1,2.1939579E1,2.1493862E1,3.35704E1,4.5864644E0,5.7938137E0,4.3355637E0,1.4866248E1,6.4875984E0,1.3418509E2,1.09288414E2,2.8678808E1,5.7592134E0,9.805555E1,1.4681202E1,6.5426993E0,8.2003204E1,4.4919865E1,5.5506863E1,1.6495795E2,1.4818782E1],"tree_param":{"num_deleted":"0","num_feature":"30","num_nodes":"61","size_leaf_vector":"1"}},{"base_weights":[-5.1674517E-3,9.001704E-3,-6.9996214E-1,-7.832238E-2,1.1966053E-1,-2.731102E-1,-4.1951817E-1,-3.1003946E-2,-5.416227E-1,1.932366E-1,-2.2210197E-1,-7.4939765E-2,-7.382158E-1,-1.11302145E-1,1.13661565E-1,-3.829572E-2,-7.2562873E-1,-1.0652931E-1,2.8590557E-1,1.9322273E-1,-3.6908734E-1,3.2154453E-1,-4.232176E-1,-1.7839672E-2,-2.6231188E-1,-3.6737237E-2,-3.638284E-1,3.826659E-1,7.067278E-2,-4.2712235E-1,6.138693E-1,-7.936519E-1,3.4650534E-1,2.7211353E-1,-4.0881523E-1,7.206602E-1,8.77389E-2,-8.777677E-2,7.5352114E-1,-4.874396E-1,2.530998E-1,-6.6544074E-3,1.6814074E-1,-3.3314858E-2,-1.8207315E-1,-2.4713879E-3,-2.7088127E-1,-1.5097296E-1,-5.3279595E-3,-7.987666E-3,1.3813156E-1,8.323845E-2,-2.7400666E-1,-9.050496E-2,2.7800822E-1,-3.379324E-1,-2.0549873E-1,2.137713E-1,-5.5257533E-2,-1.9936175E-4,2.3465778E-1,-1.9024289E-1,-1.7199751E-2,1.1908982E-1,3.3425122E-1,-8.00304E-2,7.863991E-2,-9.124914E-2,2.4034402E-1,3.5164592E-1,-1.8354036E-2,6.250899E-2,-1.7135918E-1,2.730719E-1,-1.14251055E-1],"categories":[],"categories_nodes":[],"categories_segments":[],"categories_sizes":[],"default_left":[0,0,0,0,0,0,0,0,0,0,0,0,0,0,0,0,0,0,0,0,0,0,0,0,0,0,0,0,0,0,0,0,0,0,0,0,0,0,0,0,0,0,0,0,0,0,0,0,0,0,0,0,0,0,0,0,0,0,0,0,0,0,0,0,0,0,0,0,0,0,0,0,0,0,0],"id":11,"left_children":[1,3,5,7,9,-1,11,13,15,17,19,21,23,25,27,29,31,33,35,37,39,41,43,-1,-1,45,47,-1,49,51,53,55,57,59,61,63,65,67,69,71,73,-1,-1,-1,-1,-1,-1,-1,-1,-1,-1,-1,-1,-1,-1,-1,-1,-1,-1,-1,-1,-1,-1,-1,-1,-1,-1,-1,-1,-1,-1,-1,-1,-1,-1],"loss_changes":[1.044832E1,1.0063603E1,8.696871E-1,1.2745573E1,1.159261E1,0E0,1.146832E0,6.160825E0,4.9629536E0,1.05443125E1,5.066848E0,1.016094E0,4.6314168E-1,6.404832E0,9.370597E0,4.188053E0,3.1488152E0,1.042426E1,2.4867937E1,3.537259E0,4.599386E0,3.0384707E-1,1.5190762E-1,0E0,0E0,6.516259E0,3.7345848E0,0E0,6.9792495E0,3.7782779E0,2.053286E0,5.792427E-1,7.231988E-1,5.649517E0,3.9634113E0,1.1080952E1,1.2429386E1,3.2402537E0,2.618782E0,3.115242E0,4.6677914E0,0E0,0E0,0E0,0E0,0E0,0E0,0E0,0E0,0E0,0E0,0E0,0E0,0E0,0E0,0E0,0E0,0E0,0E0,0E0,0E0,0E0,0E0,0E0,0E0,0E0,0E0,0E0,0E0,0E0,0E0,0E0,0E0,0E0,0E0],"parents":[2147483647,0,0,1,1,2,2,3,3,4,4,6,6,7,7,8,8,9,9,10,10,11,11,12,12,13,13,14,14,15,15,16,16,17,17,18,18,19,19,20,20,21,21,22,22,25,25,26,26,28,28,29,29,30,30,31,31,32,32,33,33,34,34,35,35,36,36,37,37,38,38,39,39,40,40],"right_children":[2,4,6,8,10,-1,12,14,16,18,20,22,24,26,28,30,32,34,36,38,40,42,44,-1,-1,46,48,-1,50,52,54,56,58,60,62,64,66,68,70,72,74,-1,-1,-1,-1,-1,-1,-1,-1,-1,-1,-1,-1,-1,-1,-1,-1,-1,-1,-1,-1,-1,-1,-1,-1,-1,-1,-1,-1,-1,-1,-1,-1,-1,-1],"split_conditions":[7.1E1,1E0,7.3893594E3,8.565E1,1E0,-2.731102E-1,1.094E2,1E0,1.6202E3,1E0,8.885E1,7.2E1,1E0,2.3E1,6.859719E1,1.4E1,6.46315E3,5.835E1,9.095395E1,3.6E1,1E0,1E0,1E0,-1.7839672E-2,-2.6231188E-1,6.18E1,1E0,3.826659E-1,1E0,5E0,1E0,1E0,9.66663E1,1E0,1E0,1E0,1E0,8.585E1,5.5E1,1.4E1,4.61455E3,-6.6544074E-3,1.6814074E-1,-3.3314858E-2,-1.8207315E-1,-2.4713879E-3,-2.7088127E-1,-1.5097296E-1,-5.3279595E-3,-7.987666E-3,1.3813156E-1,8.323845E-2,-2.7400666E-1,-9.050496E-2,2.7800822E-1,-3.379324E-1,-2.0549873E-1,2.137713E-1,-5.5257533E-2,-1.9936175E-4,2.3465778E-1,-1.9024289E-1,-1.7199751E-2,1.1908982E-1,3.3425122E-1,-8.00304E-2,7.863991E-2,-9.124914E-2,2.4034402E-1,3.5164592E-1,-1.8354036E-2,6.250899E-2,-1.7135918E-1,2.730719E-1,-1.14251055E-1],"split_indices":[1,21,3,2,0,0,2,10,3,10,2,1,25,1,2,1,3,2,2,1,27,6,13,0,0,2,27,0,23,1,9,9,2,7,24,23,17,2,1,1,3,0,0,0,0,0,0,0,0,0,0,0,0,0,0,0,0,0,0,0,0,0,0,0,0,0,0,0,0,0,0,0,0,0,0],"split_type":[0,0,0,0,0,0,0,0,0,0,0,0,0,0,0,0,0,0,0,0,0,0,0,0,0,0,0,0,0,0,0,0,0,0,0,0,0,0,0,0,0,0,0,0,0,0,0,0,0,0,0,0,0,0,0,0,0,0,0,0,0,0,0,0,0,0,0,0,0,0,0,0,0,0,0],"sum_hessian":[1.0596792E3,1.0394681E3,2.0211138E1,5.811545E2,4.5831363E2,1.0264188E1,9.946951E0,5.2826764E2,5.288685E1,3.7748224E2,8.083139E1,5.3728867E0,4.5740643E0,3.398569E2,1.8841072E2,1.4481777E1,3.840507E1,8.9102745E1,2.883795E2,2.104674E1,5.978465E1,2.5484521E0,2.8244345E0,1.0043033E0,3.569761E0,2.632662E2,7.659068E1,5.699308E0,1.8271141E2,9.288789E0,5.192989E0,3.635803E1,2.0470433E0,3.959985E1,4.950289E1,8.946563E1,1.9891386E2,1.4578636E1,6.4681034E0,5.0411884E1,9.372766E0,1.4170265E0,1.1314256E0,1.6407238E0,1.1837107E0,2.5585762E2,7.408586E0,5.4272617E1,2.2318068E1,1.4695764E2,3.575377E1,3.9681067E0,5.320682E0,1.3315426E0,3.8614461E0,6.643487E0,2.9714542E1,1.0086125E0,1.0384309E0,2.6452423E1,1.3147427E1,2.967483E1,1.9828062E1,5.0189487E1,3.9276142E1,6.541306E1,1.335008E2,1.2253617E1,2.325019E0,3.9828007E0,2.4853024E0,5.2565207E0,4.515536E1,4.3881493E0,4.984616E0],"tree_param":{"num_deleted":"0","num_feature":"30","num_nodes":"75","size_leaf_vector":"1"}},{"base_weights":[-2.8072216E-3,-7.274366E-2,1.14393845E-1,2.4319883E-2,-2.5994915E-1,-1.8419684E-1,1.8673162E-1,-1.2987885E-1,1.0331562E-1,-4.6176916E-1,-1.1362877E-1,-3.1133443E-1,1.3828374E-1,2.8206393E-1,-1.6149448E-1,1.1242944E-1,-2.6088488E-1,3.2874265E-1,3.116505E-2,-3.5140944E-1,-9.1546386E-1,1.1039066E-1,-3.6954132E-1,-2.2087888E-1,-6.2622863E-1,-5.062916E-1,3.8049027E-1,3.1129172E-1,-2.5901154E-1,-7.2451717E-1,-2.5224762E-2,1.6676396E-1,-3.154139E-1,-3.5440183E-1,1.5745926E-1,-4.934952E-3,5.2979857E-1,-9.353415E-2,2.5868395E-1,-5.1328045E-1,5.267265E-2,-1.0416347E0,-1.8872072E-1,-1.1157107E-1,3.0929428E-1,9.032994E-2,-4.736873E-1,-3.7311578E-1,7.990562E-2,-7.629752E-1,-2.615318E-1,1.0893697E-1,-2.2188374E-1,4.4877517E-1,1.9750102E-1,1.0493421E-1,4.6139336E-1,-1.1516893E0,-1.3400544E-1,1.0002366E0,-1.2637858E-1,-1.9467407E-1,7.563946E-2,1.4640727E-4,-1.7913999E-1,-4.1228455E-2,3.7710094E-1,-4.5730017E-2,1.3723572E-1,-1.9251077E-1,1.9946755E-1,7.235536E-2,-6.0072597E-2,1.670492E-2,1.7767271E-1,-1.1239125E-1,-2.861123E-1,-1.2345374E-1,1.22651525E-1,-7.32294E-2,-3.3259794E-1,-2.2981209E-1,1.02319725E-1,-2.629832E-1,-5.5609974E-3,-4.8354857E-2,1.6268559E-1,2.782814E-1,-1.2777832E-1,-4.2133406E-1,-1.146019E-1,-2.7903032E-1,-7.21174E-2,-6.779333E-2,8.8763185E-2,-2.5221276E-1,-3.519682E-2,2.5973128E-2,-1.9696458E-1,2.0054232E-1,-5.241163E-2,7.105235E-2,-1.9735062E-1,-2.2816282E-2,1.6359033E-1,-1.7132353E-2,-4.252507E-1,1.4966266E-1,-3.2636914E-1,7.990536E-2,4.0998837E-1,2.4058929E-2,-1.9422978E-1],"categories":[],"categories_nodes":[],"categories_segments":[],"categories_sizes":[],"default_left":[0,0,0,0,0,0,0,0,0,0,0,0,0,0,0,0,0,0,0,0,0,0,0,0,0,0,0,0,0,0,0,0,0,0,0,0,0,0,0,0,0,0,0,0,0,0,0,0,0,0,0,0,0,0,0,0,0,0,0,0,0,0,0,0,0,0,0,0,0,0,0,0,0,0,0,0,0,0,0,0,0,0,0,0,0,0,0,0,0,0,0,0,0,0,0,0,0,0,0,0,0,0,0,0,0,0,0,0,0,0,0,0,0],"id":12,"left_children":[1,3,5,7,9,11,13,15,17,19,21,23,25,27,29,31,33,35,37,39,41,43,45,47,49,51,53,55,-1,57,59,61,-1,63,65,67,69,71,73,75,77,79,81,83,85,87,89,91,93,95,97,-1,-1,-1,99,101,103,105,107,109,111,-1,-1,-1,-1,-1,-1,-1,-1,-1,-1,-1,-1,-1,-1,-1,-1,-1,-1,-1,-1,-1,-1,-1,-1,-1,-1,-1,-1,-1,-1,-1,-1,-1,-1,-1,-1,-1,-1,-1,-1,-1,-1,-1,-1,-1,-1,-1,-1,-1,-1,-1,-1],"loss_changes":[8.46509E0,1.175869E1,8.371035E0,5.2128468E0,6.4715405E0,3.1497362E0,1.0376276E1,4.633431E0,4.589519E0,4.3110676E0,7.459143E0,1.418469E0,3.6458442E0,8.46007E0,5.1620073E0,3.438066E0,3.7505956E0,4.5957513E0,6.133763E0,5.0011663E0,1.4062519E0,3.1147325E0,2.946578E0,2.044753E0,3.8153505E-1,1.5811056E0,3.1026945E0,7.364435E0,0E0,3.1555147E0,5.8728127E0,3.656276E0,0E0,6.675955E0,5.991896E0,1.8929545E0,7.1894455E0,5.0428677E0,5.1473966E0,2.9638166E0,3.914106E0,5.1373005E-1,1.4256953E0,2.3829248E0,4.149893E0,5.5972896E0,3.6955566E0,1.9492726E0,1.0981495E0,3.0049896E-1,7.029984E-1,0E0,0E0,0E0,2.8259091E0,1.0425531E1,6.2760086E0,2.095955E0,4.5508876E0,1.0036001E0,5.5749707E0,0E0,0E0,0E0,0E0,0E0,0E0,0E0,0E0,0E0,0E0,0E0,0E0,0E0,0E0,0E0,0E0,0E0,0E0,0E0,0E0,0E0,0E0,0E0,0E0,0E0,0E0,0E0,0E0,0E0,0E0,0E0,0E0,0E0,0E0,0E0,0E0,0E0,0E0,0E0,0E0,0E0,0E0,0E0,0E0,0E0,0E0,0E0,0E0,0E0,0E0,0E0,0E0],"parents":[2147483647,0,0,1,1,2,2,3,3,4,4,5,5,6,6,7,7,8,8,9,9,10,10,11,11,12,12,13,13,14,14,15,15,16,16,17,17,18,18,19,19,20,20,21,21,22,22,23,23,24,24,25,25,26,26,27,27,29,29,30,30,31,31,33,33,34,34,35,35,36,36,37,37,38,38,39,39,40,40,41,41,42,42,43,43,44,44,45,45,46,46,47,47,48,48,49,49,50,50,54,54,55,55,56,56,57,57,58,58,59,59,60,60],"right_children":[2,4,6,8,10,12,14,16,18,20,22,24,26,28,30,32,34,36,38,40,42,44,46,48,50,52,54,56,-1,58,60,62,-1,64,66,68,70,72,74,76,78,80,82,84,86,88,90,92,94,96,98,-1,-1,-1,100,102,104,106,108,110,112,-1,-1,-1,-1,-1,-1,-1,-1,-1,-1,-1,-1,-1,-1,-1,-1,-1,-1,-1,-1,-1,-1,-1,-1,-1,-1,-1,-1,-1,-1,-1,-1,-1,-1,-1,-1,-1,-1,-1,-1,-1,-1,-1,-1,-1,-1,-1,-1,-1,-1,-1,-1],"split_conditions":[1E0,1.23845E3,1E0,3.025E1,2.3498E3,1E0,1.0405E2,3.02E1,4.865E1,1E0,3.8754E3,5.6E1,7.212301E1,7E1,4.21155E3,1E0,1E0,1E0,1E0,1E0,8.772881E1,1E0,8.565E1,1E0,1E0,4.252559E1,2.54125E3,1E0,-2.5901154E-1,1.0582598E2,4.4E1,1.93E1,-3.154139E-1,1.99E1,1E0,1E0,4.4672493E1,8.605E1,1E0,9.076554E1,1E0,2.5E1,1E0,5.415E1,3.3E1,5.4E1,4.04565E3,1.0220627E2,1E0,7.544E3,9.8634346E1,1.0893697E-1,-2.2188374E-1,4.4877517E-1,1E0,3.2923E3,1E0,1.5E1,3.6348E3,4.5340913E3,1.106E2,-1.9467407E-1,7.563946E-2,1.4640727E-4,-1.7913999E-1,-4.1228455E-2,3.7710094E-1,-4.5730017E-2,1.3723572E-1,-1.9251077E-1,1.9946755E-1,7.235536E-2,-6.0072597E-2,1.670492E-2,1.7767271E-1,-1.1239125E-1,-2.861123E-1,-1.2345374E-1,1.22651525E-1,-7.32294E-2,-3.3259794E-1,-2.2981209E-1,1.02319725E-1,-2.629832E-1,-5.5609974E-3,-4.8354857E-2,1.6268559E-1,2.782814E-1,-1.2777832E-1,-4.2133406E-1,-1.146019E-1,-2.7903032E-1,-7.21174E-2,-6.779333E-2,8.8763185E-2,-2.5221276E-1,-3.519682E-2,2.5973128E-2,-1.9696458E-1,2.0054232E-1,-5.241163E-2,7.105235E-2,-1.9735062E-1,-2.2816282E-2,1.6359033E-1,-1.7132353E-2,-4.252507E-1,1.4966266E-1,-3.2636914E-1,7.990536E-2,4.0998837E-1,2.4058929E-2,-1.9422978E-1],"split_indices":[15,3,26,2,3,24,2,3,2,24,3,1,2,1,3,9,8,4,9,13,2,28,2,17,6,2,3,9,0,2,1,2,0,2,7,6,3,3,23,2,21,2,6,2,1,1,3,3,5,3,2,0,0,0,17,3,10,1,3,3,2,0,0,0,0,0,0,0,0,0,0,0,0,0,0,0,0,0,0,0,0,0,0,0,0,0,0,0,0,0,0,0,0,0,0,0,0,0,0,0,0,0,0,0,0,0,0,0,0,0,0,0,0],"split_type":[0,0,0,0,0,0,0,0,0,0,0,0,0,0,0,0,0,0,0,0,0,0,0,0,0,0,0,0,0,0,0,0,0,0,0,0,0,0,0,0,0,0,0,0,0,0,0,0,0,0,0,0,0,0,0,0,0,0,0,0,0,0,0,0,0,0,0,0,0,0,0,0,0,0,0,0,0,0,0,0,0,0,0,0,0,0,0,0,0,0,0,0,0,0,0,0,0,0,0,0,0,0,0,0,0,0,0,0,0,0,0,0,0],"sum_hessian":[1.0307378E3,6.4577124E2,3.849665E2,4.2584592E2,2.1992534E2,7.477388E1,3.1019263E2,1.4403914E2,2.8180676E2,9.152661E1,1.2839871E2,5.3655018E1,2.1118864E1,2.4367326E2,6.651935E1,5.0596966E1,9.344217E1,6.7464516E1,2.1434225E2,7.504639E1,1.648023E1,6.876884E1,5.962988E1,4.3003426E1,1.0651594E1,5.470389E0,1.5648476E1,2.3832034E2,5.3529263E0,1.2121289E1,5.439806E1,4.9158615E1,1.4383498E0,7.649522E1,1.6946949E1,2.5732931E1,4.1731586E1,1.3883699E2,7.550527E1,5.3389057E1,2.1657326E1,1.3673128E1,2.8071015E0,3.2708096E1,3.6060745E1,1.1035172E1,4.8594707E1,2.839255E1,1.4610875E1,6.9525776E0,3.699016E0,1.0397354E0,4.4306536E0,1.1942049E0,1.4454271E1,1.01069954E2,1.372504E2,6.48196E0,5.6393294E0,4.086123E0,5.031194E1,4.03199E0,4.5126625E1,3.1474846E1,4.5020374E1,1.40530615E1,2.8938873E0,2.0017742E1,5.71519E0,3.9270391E0,3.7804546E1,3.3256992E1,1.05579994E2,4.7664185E1,2.784109E1,4.2014008E1,1.1375048E1,9.335337E0,1.232199E1,1.4198693E0,1.2253259E1,1.1298923E0,1.6772093E0,2.633109E0,3.0074986E1,1.2045517E1,2.4015228E1,3.9050753E0,7.1300974E0,3.0734737E0,4.5521233E1,4.307623E0,2.4084927E1,6.0275908E0,8.583283E0,5.9358206E0,1.0167571E0,2.3813107E0,1.3177055E0,6.0292063E0,8.425065E0,8.675651E1,1.4313441E1,1.8546902E1,1.1870349E2,1.5039091E0,4.9780507E0,3.6768503E0,1.9624791E0,1.9357514E0,2.1503718E0,3.6634182E1,1.3677755E1],"tree_param":{"num_deleted":"0","num_feature":"30","num_nodes":"113","size_leaf_vector":"1"}},{"base_weights":[-4.2646527E-3,-4.196372E-2,1.5827806E-1,-1.0473686E-1,8.139082E-2,5.014754E-2,5.21008E-1,1.2921955E-1,-1.6517934E-1,4.7603548E-1,1.6082263E-2,-6.409303E-2,3.092085E-1,1.8454571E-1,-6.715583E-1,-1.15576506E-1,-3.4711656E-1,3.542855E-2,6.5499246E-1,-2.4633636E-1,1.0645418E-1,-7.67983E-1,-3.4745901E-3,7.535822E-2,4.4941935E-1,1.419546E-1,-9.3410236E-1,-1.9788204E-1,1.9116797E-1,3.6555946E-2,-4.4181895E-1,3.7173972E-1,-2.4149418E-1,7.369498E-1,-1.5986641E-1,-1.3354552E-1,-6.3779414E-1,3.1932667E-1,-9.474261E-2,-5.1043516E-1,-2.7599746E-1,-1.3107449E-1,1.9463086E-1,4.5066718E-2,-1.5714604E-1,1.8205008E-1,-1.1712575E-1,-4.6777973E-1,2.378303E-2,-9.5819734E-2,-2.6297085E-2,-2.2871336E-2,1.2833002E-1,-1.3666509E-1,2.2296576E-1,-1.9052234E-1,-5.428249E-2,3.35948E-2,2.3761499E-1,2.5660658E-1,5.866129E-2,1.862573E-1,-2.7648395E-1,-1.0400496E-1,6.9166794E-2,-9.505598E-2,-3.6938012E-1,-4.133535E-2,1.6686743E-1,-1.22970134E-1,9.906184E-3,-2.8835687E-1,-7.3307753E-3,7.963802E-3,-1.0475073E-1,7.618513E-2,-2.3207673E-1],"categories":[],"categories_nodes":[],"categories_segments":[],"categories_sizes":[],"default_left":[0,0,0,0,0,0,0,0,0,0,0,0,0,0,0,0,0,0,0,0,0,0,0,0,0,0,0,0,0,0,0,0,0,0,0,0,0,0,0,0,0,0,0,0,0,0,0,0,0,0,0,0,0,0,0,0,0,0,0,0,0,0,0,0,0,0,0,0,0,0,0,0,0,0,0,0,0],"id":13,"left_children":[1,3,5,7,9,11,-1,13,15,17,19,21,-1,23,25,27,29,31,33,35,37,39,41,43,45,-1,47,49,51,53,55,57,-1,59,61,63,65,67,69,71,-1,73,75,-1,-1,-1,-1,-1,-1,-1,-1,-1,-1,-1,-1,-1,-1,-1,-1,-1,-1,-1,-1,-1,-1,-1,-1,-1,-1,-1,-1,-1,-1,-1,-1,-1,-1],"loss_changes":[6.160372E0,6.3268642E0,3.2217693E1,7.674604E0,7.099574E0,2.0024502E1,0E0,5.0716567E0,3.8453102E0,3.061349E0,5.661825E0,6.8465405E0,0E0,3.009883E0,2.6758687E0,8.616746E0,3.3493128E0,3.7916925E0,1.9719181E0,2.61589E0,7.630762E0,2.8512478E-2,3.7868462E0,3.4754858E0,4.27161E0,0E0,4.166986E0,3.5671072E0,4.6129293E0,6.975119E0,3.5982647E0,9.4949424E-1,0E0,1.4612951E0,2.5697777E0,3.863609E0,2.1657662E0,9.438979E0,3.7181091E0,1.5030975E0,0E0,3.1409857E0,3.5676222E0,0E0,0E0,0E0,0E0,0E0,0E0,0E0,0E0,0E0,0E0,0E0,0E0,0E0,0E0,0E0,0E0,0E0,0E0,0E0,0E0,0E0,0E0,0E0,0E0,0E0,0E0,0E0,0E0,0E0,0E0,0E0,0E0,0E0,0E0],"parents":[2147483647,0,0,1,1,2,2,3,3,4,4,5,5,7,7,8,8,9,9,10,10,11,11,13,13,14,14,15,15,16,16,17,17,18,18,19,19,20,20,21,21,22,22,23,23,24,24,26,26,27,27,28,28,29,29,30,30,31,31,33,33,34,34,35,35,36,36,37,37,38,38,39,39,41,41,42,42],"right_children":[2,4,6,8,10,12,-1,14,16,18,20,22,-1,24,26,28,30,32,34,36,38,40,42,44,46,-1,48,50,52,54,56,58,-1,60,62,64,66,68,70,72,-1,74,76,-1,-1,-1,-1,-1,-1,-1,-1,-1,-1,-1,-1,-1,-1,-1,-1,-1,-1,-1,-1,-1,-1,-1,-1,-1,-1,-1,-1,-1,-1,-1,-1,-1,-1],"split_conditions":[1E0,1E0,1E0,2E0,5.12563E2,1E0,5.21008E-1,1E0,8.885E1,1E0,1E0,2.11E1,3.092085E-1,5.57E1,3.2459827E1,1E0,1.261E3,1E0,1E0,9.055E1,9.97E1,2.2745E2,1E0,4.63E1,8.1E1,1.419546E-1,5.46E1,1E0,1E0,8.3366296E2,4.04565E3,1E0,-2.4149418E-1,1E0,4E0,1E0,1E0,1E0,1E0,2E0,-2.7599746E-1,1E0,7.1E1,4.5066718E-2,-1.5714604E-1,1.8205008E-1,-1.1712575E-1,-4.6777973E-1,2.378303E-2,-9.5819734E-2,-2.6297085E-2,-2.2871336E-2,1.2833002E-1,-1.3666509E-1,2.2296576E-1,-1.9052234E-1,-5.428249E-2,3.35948E-2,2.3761499E-1,2.5660658E-1,5.866129E-2,1.862573E-1,-2.7648395E-1,-1.0400496E-1,6.9166794E-2,-9.505598E-2,-3.6938012E-1,-4.133535E-2,1.6686743E-1,-1.22970134E-1,9.906184E-3,-2.8835687E-1,-7.3307753E-3,7.963802E-3,-1.0475073E-1,7.618513E-2,-2.3207673E-1],"split_indices":[27,17,29,1,3,28,0,13,2,26,23,2,0,2,2,21,3,13,0,2,2,3,13,2,2,0,2,4,10,3,3,5,0,19,1,21,24,10,15,1,0,17,1,0,0,0,0,0,0,0,0,0,0,0,0,0,0,0,0,0,0,0,0,0,0,0,0,0,0,0,0,0,0,0,0,0,0],"split_type":[0,0,0,0,0,0,0,0,0,0,0,0,0,0,0,0,0,0,0,0,0,0,0,0,0,0,0,0,0,0,0,0,0,0,0,0,0,0,0,0,0,0,0,0,0,0,0,0,0,0,0,0,0,0,0,0,0,0,0,0,0,0,0,0,0,0,0,0,0,0,0,0,0,0,0,0,0],"sum_hessian":[1.0032464E3,8.1496967E2,1.8827675E2,5.4021423E2,2.747554E2,1.7717126E2,1.110548E1,1.1067675E2,4.2953748E2,3.8119423E1,2.3663597E2,1.5952065E2,1.7650623E1,1.0424402E2,6.4327326E0,3.3880258E2,9.073489E1,1.1356573E1,2.676285E1,6.0175316E1,1.7646066E2,1.1723255E1,1.477974E2,7.472501E1,2.9519003E1,1.0504186E0,5.382314E0,2.6740698E2,7.139562E1,1.8084055E1,7.265084E1,8.509105E0,2.8474674E0,2.4403946E1,2.3589034E0,4.77564E1,1.2418915E1,8.545717E1,9.1003494E1,5.9685993E0,5.7546563E0,9.010137E1,5.769602E1,6.709157E1,7.6334515E0,2.5093136E1,4.4258657E0,2.9956124E0,2.3867018E0,1.2628599E2,1.4112099E2,3.3833977E1,3.7561646E1,1.0869855E1,7.2142005E0,4.091041E1,3.1740427E1,6.0416913E0,2.4674137E0,1.9548813E1,4.855133E0,1.2562805E0,1.1026229E0,3.0153177E1,1.7603222E1,9.055654E0,3.3632607E0,2.9313374E1,5.614379E1,2.5613508E1,6.5389984E1,2.589309E0,3.3792903E0,5.281175E1,3.7289623E1,5.5060368E1,2.635648E0],"tree_param":{"num_deleted":"0","num_feature":"30","num_nodes":"77","size_leaf_vector":"1"}},{"base_weights":[-1.5745133E-3,-6.952654E-2,7.959327E-2,-3.9857414E-2,-2.8401163E-1,1.3452213E-1,-1.8839979E-1,-2.4422746E-2,-5.8976656E-1,-5.299769E-1,-1.2405103E-1,-4.5612143E-4,2.78715E-1,-5.342272E-1,-5.349917E-2,-6.877349E-2,1.5320884E-1,-1.3791722E-1,-7.311463E-1,-3.3991194E-1,-3.923789E-1,1.8638411E-3,-5.499174E-1,1.4284898E-1,-3.7957475E-1,8.302499E-1,2.1508215E-1,-3.778388E-1,-2.8340378E-1,-6.2059283E-1,5.029641E-2,-2.3207173E-2,-4.191565E-1,4.5829463E-1,-1.0354319E-2,1.2348915E-1,-4.465705E-1,-8.659114E-1,-2.8649715E-1,-1.3909474E-1,-7.534279E-1,6.2247008E-2,-2.370579E-1,1.3874623E-1,-8.438159E-1,2.9761225E-2,4.2088112E-1,-1.8943706E-1,-1.0918621E0,-1.0945933E-1,1.1453813E0,-3.3065E-1,2.8805795E-1,-6.199236E-1,2.5517616E-1,-6.7879744E-2,-8.643366E-1,-1.5078048E-1,4.7358704E-1,-2.3583537E-4,-1.6336226E-1,-1.868974E-1,4.079465E-2,-1.8144344E-1,1.6961025E-1,-1.2093089E-1,4.560014E-2,-1.711071E-1,-2.5843792E-2,-2.935773E-1,-5.914797E-2,2.737618E-2,-1.8229136E-1,-1.0049655E-1,1.6300705E-1,-3.229477E-1,-8.8602595E-2,1.3817422E-1,-2.276758E-2,-3.3868393E-1,-1.8515137E-3,2.7158052E-2,-1.7019376E-1,2.4842846E-1,8.377558E-2,-3.596134E-1,7.137809E-3,-3.9166787E-1,-4.465245E-2,-2.5700042E-1,1.0664219E-1,4.0733817E-1,1.7216587E-1,-1.9169934E-1,-1.32633485E-2,2.092583E-1,5.3901233E-2,-2.5639322E-1,-7.2893895E-2,1.4239134E-1,-1.8443759E-1,-2.8941408E-1,-5.661606E-2,-2.2424594E-1,1.3614167E-2,-8.341868E-2,2.495153E-1],"categories":[],"categories_nodes":[],"categories_segments":[],"categories_sizes":[],"default_left":[0,0,0,0,0,0,0,0,0,0,0,0,0,0,0,0,0,0,0,0,0,0,0,0,0,0,0,0,0,0,0,0,0,0,0,0,0,0,0,0,0,0,0,0,0,0,0,0,0,0,0,0,0,0,0,0,0,0,0,0,0,0,0,0,0,0,0,0,0,0,0,0,0,0,0,0,0,0,0,0,0,0,0,0,0,0,0,0,0,0,0,0,0,0,0,0,0,0,0,0,0,0,0,0,0,0,0],"id":14,"left_children":[1,3,5,7,9,11,13,15,17,19,21,23,25,27,29,31,33,35,37,39,-1,41,43,45,47,49,51,53,-1,55,57,59,61,63,65,-1,67,69,71,73,75,77,-1,-1,79,81,83,85,87,89,91,93,95,97,-1,99,101,103,105,-1,-1,-1,-1,-1,-1,-1,-1,-1,-1,-1,-1,-1,-1,-1,-1,-1,-1,-1,-1,-1,-1,-1,-1,-1,-1,-1,-1,-1,-1,-1,-1,-1,-1,-1,-1,-1,-1,-1,-1,-1,-1,-1,-1,-1,-1,-1,-1],"loss_changes":[5.426272E0,3.396335E0,6.6249094E0,3.9882455E0,2.4880748E0,7.2529225E0,3.5485394E0,3.63251E0,7.188816E-1,3.2922626E0,2.1800556E0,1.0565482E1,6.144808E0,1.0170727E0,3.3434126E0,5.875007E0,4.6038837E0,9.115867E-1,3.2365417E-1,1.694005E0,0E0,1.5968535E0,3.1504052E0,4.4248123E0,7.0177326E0,5.5409336E0,6.5822816E0,5.6322703E0,0E0,1.1242836E0,4.19858E0,3.824493E0,4.877894E0,4.005988E0,3.9494348E0,0E0,9.4845295E-2,3.2154655E-1,5.059531E-1,2.2952416E0,6.9646716E-1,1.7404387E0,0E0,0E0,1.7946873E0,3.730244E0,2.1177478E0,9.350187E0,2.0283642E0,2.2171113E0,8.938465E-1,1.7097611E0,6.2748775E0,1.1122932E0,0E0,1.4111291E0,2.2540331E-1,3.9705994E0,4.499963E0,0E0,0E0,0E0,0E0,0E0,0E0,0E0,0E0,0E0,0E0,0E0,0E0,0E0,0E0,0E0,0E0,0E0,0E0,0E0,0E0,0E0,0E0,0E0,0E0,0E0,0E0,0E0,0E0,0E0,0E0,0E0,0E0,0E0,0E0,0E0,0E0,0E0,0E0,0E0,0E0,0E0,0E0,0E0,0E0,0E0,0E0,0E0,0E0],"parents":[2147483647,0,0,1,1,2,2,3,3,4,4,5,5,6,6,7,7,8,8,9,9,10,10,11,11,12,12,13,13,14,14,15,15,16,16,17,17,18,18,19,19,21,21,22,22,23,23,24,24,25,25,26,26,27,27,29,29,30,30,31,31,32,32,33,33,34,34,36,36,37,37,38,38,39,39,40,40,41,41,44,44,45,45,46,46,47,47,48,48,49,49,50,50,51,51,52,52,53,53,55,55,56,56,57,57,58,58],"right_children":[2,4,6,8,10,12,14,16,18,20,22,24,26,28,30,32,34,36,38,40,-1,42,44,46,48,50,52,54,-1,56,58,60,62,64,66,-1,68,70,72,74,76,78,-1,-1,80,82,84,86,88,90,92,94,96,98,-1,100,102,104,106,-1,-1,-1,-1,-1,-1,-1,-1,-1,-1,-1,-1,-1,-1,-1,-1,-1,-1,-1,-1,-1,-1,-1,-1,-1,-1,-1,-1,-1,-1,-1,-1,-1,-1,-1,-1,-1,-1,-1,-1,-1,-1,-1,-1,-1,-1,-1,-1],"split_conditions":[1E0,9.89E1,6E1,5.7E1,3.6E1,1E0,1E0,1.68025E3,5.115E1,1E0,1E0,1.78205E3,5.96E1,1.003E2,1E0,1.8E1,7.856254E1,6.3E1,1E0,2.9E1,-3.923789E-1,1E0,4.4E1,7.045E1,1E0,6.274535E2,1E0,6.57285E3,-2.8340378E-1,1E0,1E0,1E0,1E0,4.865E1,8.5E1,1.2348915E-1,2.96E1,9.475E1,1E0,2.42445E3,3.36455E3,1.028E2,-2.370579E-1,1.3874623E-1,1.0995E2,6.859719E1,7.45E1,2.1599534E3,1E0,1E0,1E0,1E0,8.885E1,1E0,2.5517616E-1,6.7E1,1.0582598E2,1E0,1E0,-2.3583537E-4,-1.6336226E-1,-1.868974E-1,4.079465E-2,-1.8144344E-1,1.6961025E-1,-1.2093089E-1,4.560014E-2,-1.711071E-1,-2.5843792E-2,-2.935773E-1,-5.914797E-2,2.737618E-2,-1.8229136E-1,-1.0049655E-1,1.6300705E-1,-3.229477E-1,-8.8602595E-2,1.3817422E-1,-2.276758E-2,-3.3868393E-1,-1.8515137E-3,2.7158052E-2,-1.7019376E-1,2.4842846E-1,8.377558E-2,-3.596134E-1,7.137809E-3,-3.9166787E-1,-4.465245E-2,-2.5700042E-1,1.0664219E-1,4.0733817E-1,1.7216587E-1,-1.9169934E-1,-1.32633485E-2,2.092583E-1,5.3901233E-2,-2.5639322E-1,-7.2893895E-2,1.4239134E-1,-1.8443759E-1,-2.8941408E-1,-5.661606E-2,-2.2424594E-1,1.3614167E-2,-8.341868E-2,2.495153E-1],"split_indices":[5,2,1,1,1,23,17,3,2,24,0,3,2,2,9,1,2,1,27,1,0,29,1,2,24,3,10,3,0,4,27,24,9,2,2,0,2,2,21,3,3,2,0,0,2,2,2,3,27,26,24,24,2,21,0,1,2,15,4,0,0,0,0,0,0,0,0,0,0,0,0,0,0,0,0,0,0,0,0,0,0,0,0,0,0,0,0,0,0,0,0,0,0,0,0,0,0,0,0,0,0,0,0,0,0,0,0],"split_type":[0,0,0,0,0,0,0,0,0,0,0,0,0,0,0,0,0,0,0,0,0,0,0,0,0,0,0,0,0,0,0,0,0,0,0,0,0,0,0,0,0,0,0,0,0,0,0,0,0,0,0,0,0,0,0,0,0,0,0,0,0,0,0,0,0,0,0,0,0,0,0,0,0,0,0,0,0,0,0,0,0,0,0,0,0,0,0,0,0,0,0,0,0,0,0,0,0,0,0,0,0,0,0,0,0,0,0],"sum_hessian":[9.818163E2,5.34493E2,4.4732327E2,4.7058423E2,6.3908768E1,3.7164716E2,7.5676125E1,4.587525E2,1.1831703E1,2.4272583E1,3.9636185E1,1.9247195E2,1.7917519E2,2.0405365E1,5.5270763E1,3.6758688E2,9.116563E1,3.2905672E0,8.541136E0,2.066159E1,3.6109908E0,3.1359747E1,8.276437E0,1.4012758E2,5.2344376E1,1.7287663E1,1.6188753E2,1.6166304E1,4.2390614E0,7.7808127E0,4.748995E1,3.262281E2,4.1358803E1,3.1188818E1,5.9976807E1,1.0634655E0,2.2271016E0,5.827517E0,2.713619E0,1.4807127E1,5.8544645E0,2.9994501E1,1.3652469E0,1.7330158E0,6.5434213E0,1.0039828E2,3.9729298E1,4.2314827E1,1.0029546E1,4.505399E0,1.2782263E1,1.8677952E1,1.4320958E2,1.3918708E1,2.2475958E0,2.7724643E0,5.0083485E0,3.263232E1,1.485763E1,3.137367E2,1.2491399E1,3.0161816E1,1.1196989E1,2.428464E0,2.8760353E1,1.7108114E1,4.2868694E1,1.2241968E0,1.0029049E0,4.5907073E0,1.2368094E0,1.5758381E0,1.137781E0,1.1900342E1,2.9067848E0,2.6415424E0,3.212922E0,7.1223884E0,2.2872112E1,4.6222606E0,1.9211608E0,9.1894356E1,8.503923E0,9.001416E0,3.0727882E1,6.5744567E0,3.574037E1,7.863221E0,2.1663249E0,1.4049305E0,3.1004689E0,8.315652E0,4.4666114E0,8.402226E0,1.0275725E1,2.8836042E1,1.14373535E2,7.796551E0,6.122157E0,1.4581656E0,1.3142986E0,3.9879534E0,1.0203953E0,7.378116E0,2.5254204E1,4.8667665E0,9.990863E0],"tree_param":{"num_deleted":"0","num_feature":"30","num_nodes":"107","size_leaf_vector":"1"}},{"base_weights":[-5.360821E-3,3.13475E-3,-5.355607E-1,-5.152824E-2,9.846224E-2,-2.3307452E-1,-2.8908607E-1,1.16177825E-2,-1.7311695E-1,-6.2546358E-3,2.7780128E-1,1.9821279E-2,-6.2856066E-1,-2.3201635E-2,2.4885486E-1,-8.175835E-1,-1.4249086E-1,-2.160403E-2,3.2716563E-1,4.8922628E-1,8.6770326E-2,-1.2953906E-1,2.8387907E-1,-6.988642E-2,-2.1928537E-1,-1.5213731E-1,4.154764E-2,7.200282E-2,3.3412188E-1,-1.6927125E-2,-3.0304E-1,-6.888344E-2,-3.5116297E-1,-2.7519608E-1,6.0349993E-2,3.6265638E-1,1.0892577E0,-5.1255435E-1,2.5834975E-1,1.9208603E-1,-8.019625E-2,2.7103503E-3,-1.309056E-1,-1.2502125E-3,1.4717866E-1,1.3521092E-1,-5.0852228E-2,3.5601348E-2,-4.3962676E-2,-2.4669163E-1,-4.7659643E-2,-4.984768E-2,-3.0980533E-1,3.4081057E-1,5.8509256E-3,1.7486846E-2,1.9496189E-1,4.279074E-1,-1.7170316E-1,-2.4609149E-1,6.921624E-2,1.4456336E-1,-1.5709056E-2],"categories":[],"categories_nodes":[],"categories_segments":[],"categories_sizes":[],"default_left":[0,0,0,0,0,0,0,0,0,0,0,0,0,0,0,0,0,0,0,0,0,0,0,0,0,0,0,0,0,0,0,0,0,0,0,0,0,0,0,0,0,0,0,0,0,0,0,0,0,0,0,0,0,0,0,0,0,0,0,0,0,0,0],"id":15,"left_children":[1,3,5,7,9,-1,11,13,15,17,19,21,23,25,27,29,31,33,-1,35,37,-1,39,-1,-1,41,43,45,-1,-1,-1,47,49,51,53,55,57,59,61,-1,-1,-1,-1,-1,-1,-1,-1,-1,-1,-1,-1,-1,-1,-1,-1,-1,-1,-1,-1,-1,-1,-1,-1],"loss_changes":[4.356526E0,4.9687343E0,6.827712E-1,4.6552453E0,6.5276513E0,0E0,9.7083676E-1,3.3085828E0,3.9736285E0,3.7335594E0,5.132395E0,8.08807E-1,7.3281527E-3,2.9247475E0,7.7601175E0,1.2898889E0,3.0329738E0,4.5537024E0,0E0,4.2073774E0,7.178959E0,0E0,1.0030512E0,0E0,0E0,5.3669925E0,4.7953267E0,4.0663896E0,0E0,0E0,0E0,2.1785786E0,4.5494504E0,4.2471957E0,7.2632413E0,4.4680395E0,6.4496994E0,3.7546058E0,3.7714148E0,0E0,0E0,0E0,0E0,0E0,0E0,0E0,0E0,0E0,0E0,0E0,0E0,0E0,0E0,0E0,0E0,0E0,0E0,0E0,0E0,0E0,0E0,0E0,0E0],"parents":[2147483647,0,0,1,1,2,2,3,3,4,4,6,6,7,7,8,8,9,9,10,10,11,11,12,12,13,13,14,14,15,15,16,16,17,17,19,19,20,20,22,22,25,25,26,26,27,27,31,31,32,32,33,33,34,34,35,35,36,36,37,37,38,38],"right_children":[2,4,6,8,10,-1,12,14,16,18,20,22,24,26,28,30,32,34,-1,36,38,-1,40,-1,-1,42,44,46,-1,-1,-1,48,50,52,54,56,58,60,62,-1,-1,-1,-1,-1,-1,-1,-1,-1,-1,-1,-1,-1,-1,-1,-1,-1,-1,-1,-1,-1,-1,-1,-1],"split_conditions":[7.1E1,1E0,7.3893594E3,1.23845E3,1E0,-2.3307452E-1,1.094E2,1E0,4.47E1,1E0,3.36455E3,1E0,1.113E2,4.435E1,1E0,1.3469E3,1E0,1E0,3.2716563E-1,2.8849E3,1E0,-1.2953906E-1,7.2E1,-6.988642E-2,-2.1928537E-1,2.03E1,1.5E1,9.71E1,3.3412188E-1,-1.6927125E-2,-3.0304E-1,7.95E1,2.5734897E3,7.02E1,7.425E1,1E0,9.035E1,5.33335E3,1.0745E2,1.9208603E-1,-8.019625E-2,2.7103503E-3,-1.309056E-1,-1.2502125E-3,1.4717866E-1,1.3521092E-1,-5.0852228E-2,3.5601348E-2,-4.3962676E-2,-2.4669163E-1,-4.7659643E-2,-4.984768E-2,-3.0980533E-1,3.4081057E-1,5.8509256E-3,1.7486846E-2,1.9496189E-1,4.279074E-1,-1.7170316E-1,-2.4609149E-1,6.921624E-2,1.4456336E-1,-1.5709056E-2],"split_indices":[1,15,3,3,13,0,2,8,2,11,3,25,2,2,7,3,24,10,0,3,21,0,1,0,0,2,1,3,0,0,0,2,3,2,2,28,2,3,2,0,0,0,0,0,0,0,0,0,0,0,0,0,0,0,0,0,0,0,0,0,0,0,0],"split_type":[0,0,0,0,0,0,0,0,0,0,0,0,0,0,0,0,0,0,0,0,0,0,0,0,0,0,0,0,0,0,0,0,0,0,0,0,0,0,0,0,0,0,0,0,0,0,0,0,0,0,0,0,0,0,0,0,0,0,0,0,0,0,0],"sum_hessian":[9.65809E2,9.51556E2,1.4253014E1,6.0506006E2,3.4649597E2,6.11396E0,8.139054E0,3.988337E2,2.0622632E2,2.1936998E2,1.27126E2,4.7543817E0,3.3846724E0,3.4857532E2,5.0258392E1,8.189911E0,1.980364E2,2.1730913E2,2.060856E0,5.960107E1,6.7524925E1,1.5198116E0,3.2345703E0,1.3692942E0,2.015378E0,1.1607826E2,2.3249706E2,4.262555E1,7.632841E0,1.9145654E0,6.275345E0,1.4737955E2,5.0656857E1,5.249984E1,1.648093E2,5.0543816E1,9.057256E0,1.4586658E1,5.293827E1,1.8662338E0,1.3683364E0,7.469092E1,4.138734E1,2.1191402E2,2.0583042E1,1.6261116E1,2.6364435E1,4.30005E1,1.0437905E2,1.373324E1,3.692362E1,4.6959568E1,5.540271E0,5.0484543E0,1.5976083E2,2.5123299E1,2.5420517E1,7.6473603E0,1.4098952E0,1.0242251E1,4.3444057E0,3.0468363E1,2.2469908E1],"tree_param":{"num_deleted":"0","num_feature":"30","num_nodes":"63","size_leaf_vector":"1"}},{"base_weights":[-4.4167177E-3,-6.31092E-2,6.448139E-2,-1.6471276E-2,-3.3278438E-1,-1.6463544E-2,2.3046838E-1,1.1522999E-3,-4.979522E-1,-7.315712E-2,-5.4288954E-1,3.473895E-2,-4.0399423E-1,1.0020338E0,1.7390934E-1,-3.7838526E-2,1.5522948E-1,-7.76647E-1,4.0204547E-2,1.0330653E-1,-4.735523E-1,2.4797226E-1,-6.1494577E-1,1.875225E-2,3.1963348E-1,-7.814372E-2,-6.5111E-1,1.03880875E-2,1.1591152E0,-3.2822657E-1,2.6543933E-1,-3.6265661E-3,-2.883793E-1,1.067222E-2,5.2009E-1,-2.7687934E-1,-2.395419E-1,2.2495972E-1,-4.0357575E-1,-5.2758925E-2,9.9512744E-1,-6.904466E-1,9.545711E-2,-4.1500982E-2,2.0860423E-1,-4.7395855E-1,-4.963698E-1,-1.1517404E-1,1.5244831E-1,3.0525818E-1,-8.104183E-1,-8.6433554E-1,-3.5430604E-1,4.4634786E-1,6.412584E-1,3.6713272E-1,-4.48622E-1,4.0389726E-1,-1.8335386E-1,3.4981647E-3,-1.6159697E-1,-1.2318482E-1,2.2644557E-1,1.3603587E-1,-4.9645267E-2,1.9784944E-1,-1.0300566E-1,8.39012E-2,-1.7956215E-1,-1.9458549E-1,-1.3130365E-2,5.499406E-2,-1.6788857E-1,6.89094E-2,4.1795796E-1,-2.5658405E-1,3.4415E-4,2.3578005E-1,-1.742223E-1,1.8455978E-2,-1.1775143E-1,-2.3801243E-2,7.834214E-2,-3.365484E-2,2.8225735E-1,-8.3007075E-2,-3.7385747E-1,-1.8599421E-1,-4.67127E-1,2.1152234E-1,-1.7016743E-1,-2.0622277E-1,3.533992E-1,-1.5665552E-1,3.3550367E-1,-3.1121793E-1,-2.2191385E-2,2.8124977E-2,1.9261271E-1,-1.3452396E-1,6.189019E-2],"categories":[],"categories_nodes":[],"categories_segments":[],"categories_sizes":[],"default_left":[0,0,0,0,0,0,0,0,0,0,0,0,0,0,0,0,0,0,0,0,0,0,0,0,0,0,0,0,0,0,0,0,0,0,0,0,0,0,0,0,0,0,0,0,0,0,0,0,0,0,0,0,0,0,0,0,0,0,0,0,0,0,0,0,0,0,0,0,0,0,0,0,0,0,0,0,0,0,0,0,0,0,0,0,0,0,0,0,0,0,0,0,0,0,0,0,0,0,0,0,0],"id":16,"left_children":[1,3,5,7,9,11,13,15,17,19,21,23,25,27,29,31,33,35,37,39,41,43,45,47,-1,49,51,-1,53,55,57,59,61,63,65,-1,67,-1,69,71,73,75,-1,-1,-1,-1,77,79,81,83,85,87,89,-1,91,93,95,97,99,-1,-1,-1,-1,-1,-1,-1,-1,-1,-1,-1,-1,-1,-1,-1,-1,-1,-1,-1,-1,-1,-1,-1,-1,-1,-1,-1,-1,-1,-1,-1,-1,-1,-1,-1,-1,-1,-1,-1,-1,-1,-1],"loss_changes":[3.8675764E0,6.4896197E0,5.915435E0,3.745466E0,4.1109495E0,5.901205E0,6.122715E0,2.569596E0,2.3688269E0,2.5352805E0,2.5402536E0,4.3134527E0,2.7436619E0,1.4255562E0,6.3217525E0,2.924984E0,4.5503645E0,5.895667E-1,2.2767634E0,3.5663257E0,2.0990248E0,8.2403624E-1,3.6424446E0,4.672797E0,0E0,4.7687764E0,9.342108E-1,0E0,4.5317364E-1,1.9530563E0,7.2380753E0,2.4711764E0,5.538307E0,4.980244E0,3.1744223E0,0E0,8.3079016E-1,0E0,3.68967E-1,2.787212E0,8.409662E-1,1.0162458E0,0E0,0E0,0E0,0E0,4.34184E0,6.4166956E0,3.3093882E0,3.1027956E0,1.006011E0,8.478737E-1,2.6305215E0,0E0,4.352294E0,3.0576067E0,4.039119E0,6.4705276E0,2.9709752E0,0E0,0E0,0E0,0E0,0E0,0E0,0E0,0E0,0E0,0E0,0E0,0E0,0E0,0E0,0E0,0E0,0E0,0E0,0E0,0E0,0E0,0E0,0E0,0E0,0E0,0E0,0E0,0E0,0E0,0E0,0E0,0E0,0E0,0E0,0E0,0E0,0E0,0E0,0E0,0E0,0E0,0E0],"parents":[2147483647,0,0,1,1,2,2,3,3,4,4,5,5,6,6,7,7,8,8,9,9,10,10,11,11,12,12,13,13,14,14,15,15,16,16,17,17,18,18,19,19,20,20,21,21,22,22,23,23,25,25,26,26,28,28,29,29,30,30,31,31,32,32,33,33,34,34,36,36,38,38,39,39,40,40,41,41,46,46,47,47,48,48,49,49,50,50,51,51,52,52,54,54,55,55,56,56,57,57,58,58],"right_children":[2,4,6,8,10,12,14,16,18,20,22,24,26,28,30,32,34,36,38,40,42,44,46,48,-1,50,52,-1,54,56,58,60,62,64,66,-1,68,-1,70,72,74,76,-1,-1,-1,-1,78,80,82,84,86,88,90,-1,92,94,96,98,100,-1,-1,-1,-1,-1,-1,-1,-1,-1,-1,-1,-1,-1,-1,-1,-1,-1,-1,-1,-1,-1,-1,-1,-1,-1,-1,-1,-1,-1,-1,-1,-1,-1,-1,-1,-1,-1,-1,-1,-1,-1,-1],"split_conditions":[1E0,8.545E1,1E0,1E0,1E0,1.038E2,6.34E1,1E0,2.42445E3,4.1E1,1.8615E2,1E0,1E0,2.2745E2,1E0,7.45E1,1E0,5.3E1,3.23705E3,2.750987E3,1.051E2,1E0,4.3375E2,1E0,3.1963348E-1,1.0745E2,1.054E2,1.03880875E-2,1.0534951E3,1.3E1,1.08827156E2,4.9E1,3.18765E3,4.905E1,1E0,-2.7687934E-1,1.1923E3,2.2495972E-1,3.8754E3,1.9E1,1E0,1E0,9.545711E-2,-4.1500982E-2,2.0860423E-1,-4.7395855E-1,7E0,8.01E1,1E0,1.054E2,1E0,1.051E2,3.5851108E3,4.4634786E-1,1.50545E3,4.8525E2,1E0,1E0,7.3893594E3,3.4981647E-3,-1.6159697E-1,-1.2318482E-1,2.2644557E-1,1.3603587E-1,-4.9645267E-2,1.9784944E-1,-1.0300566E-1,8.39012E-2,-1.7956215E-1,-1.9458549E-1,-1.3130365E-2,5.499406E-2,-1.6788857E-1,6.89094E-2,4.1795796E-1,-2.5658405E-1,3.4415E-4,2.3578005E-1,-1.742223E-1,1.8455978E-2,-1.1775143E-1,-2.3801243E-2,7.834214E-2,-3.365484E-2,2.8225735E-1,-8.3007075E-2,-3.7385747E-1,-1.8599421E-1,-4.67127E-1,2.1152234E-1,-1.7016743E-1,-2.0622277E-1,3.533992E-1,-1.5665552E-1,3.3550367E-1,-3.1121793E-1,-2.2191385E-2,2.8124977E-2,1.9261271E-1,-1.3452396E-1,6.189019E-2],"split_indices":[9,2,19,25,4,2,2,21,3,1,3,8,28,3,10,2,10,1,3,3,2,15,3,23,0,2,2,0,3,1,2,1,3,2,0,0,3,0,3,1,24,25,0,0,0,0,1,2,21,2,4,2,3,0,3,3,13,17,3,0,0,0,0,0,0,0,0,0,0,0,0,0,0,0,0,0,0,0,0,0,0,0,0,0,0,0,0,0,0,0,0,0,0,0,0,0,0,0,0,0,0],"split_type":[0,0,0,0,0,0,0,0,0,0,0,0,0,0,0,0,0,0,0,0,0,0,0,0,0,0,0,0,0,0,0,0,0,0,0,0,0,0,0,0,0,0,0,0,0,0,0,0,0,0,0,0,0,0,0,0,0,0,0,0,0,0,0,0,0,0,0,0,0,0,0,0,0,0,0,0,0,0,0,0,0,0,0,0,0,0,0,0,0,0,0,0,0,0,0,0,0,0,0,0,0],"sum_hessian":[9.544148E2,5.154233E2,4.3899146E2,4.4033276E2,7.5090546E1,2.9569443E2,1.4329703E2,4.2574683E2,1.4585941E1,3.4190044E1,4.0900497E1,2.6198944E2,3.3704998E1,8.645159E0,1.3465187E2,3.4036768E2,8.537914E1,9.317523E0,5.2684193E0,2.424617E1,9.943874E0,3.2114525E0,3.7689045E1,2.5899057E2,2.998864E0,1.510437E1,1.8600628E1,1.37814E0,7.2670193E0,2.0361605E1,1.1429027E2,3.003664E2,4.000129E1,6.188832E1,2.3490824E1,6.758466E0,2.559057E0,1.7616283E0,3.5067906E0,2.1435822E1,2.8103502E0,7.906001E0,2.037873E0,2.094034E0,1.1174185E0,2.7759585E0,3.491309E1,1.294531E2,1.2953748E2,1.0296499E1,4.8078704E0,9.71161E0,8.889018E0,3.2995653E0,3.9674537E0,2.702659E0,1.7658945E1,8.7420166E1,2.6870102E1,2.929736E2,7.3927674E0,3.6348534E1,3.6527534E0,1.716609E1,4.472223E1,2.0428682E1,3.0621402E0,1.1364303E0,1.4226266E0,1.6085969E0,1.8981938E0,1.50600195E1,6.375801E0,1.5010526E0,1.3092976E0,6.1932344E0,1.712767E0,1.6420118E0,3.3271076E1,7.954882E1,4.990427E1,4.1438995E1,8.809848E1,6.711867E0,3.5846329E0,2.8959265E0,1.9119437E0,8.580104E0,1.1315054E0,1.1007494E0,7.788268E0,1.0607963E0,2.9066575E0,1.3771763E0,1.3254825E0,6.1792183E0,1.1479728E1,3.857536E1,4.884481E1,1.5902058E1,1.0968043E1],"tree_param":{"num_deleted":"0","num_feature":"30","num_nodes":"101","size_leaf_vector":"1"}},{"base_weights":[-3.310424E-3,-4.82861E-2,8.04889E-2,-2.0517398E-2,-2.789168E-1,1.7730567E-1,-4.530498E-2,-6.082261E-2,1.1926946E-1,-8.843601E-1,-1.8353762E-1,-1.1024022E-1,2.6524356E-1,-4.984926E-1,2.0482844E-2,-4.748392E-2,-7.092204E-1,-4.0521394E-2,2.9992136E-1,-1.3919564E0,5.869944E-2,2.1795703E-2,-3.8822874E-1,2.0161948E-1,-3.825994E-1,7.697858E-2,3.968449E-1,-8.15607E-1,-2.380415E-1,-3.073446E-1,4.866222E-2,-5.288338E-2,2.6715901E-1,-7.9836094E-1,-6.577789E-3,1.6379568E-1,-2.2728169E-1,9.533667E-2,5.8667547E-1,-1.1588169E-2,-5.8243847E-1,-1.3074967E-1,1.1944957E-1,2.0312212E-1,-4.1441262E-1,-7.866437E-1,-1.2328876E-1,5.235632E-2,8.6165136E-1,2.4564558E-1,-4.621729E-1,1.8377085E-1,-1.0677756E0,9.962135E-1,3.4100646E-1,-4.2853415E-2,-2.692961E-1,3.768386E-1,-5.167574E-1,-1.3748094E-1,1.719064E-1,-1.0630172E-2,-1.2649131E-1,-2.679518E-1,-6.821364E-2,-8.4478185E-2,1.5643658E-1,-3.2610524E-1,-3.415231E-2,-2.4299778E-2,1.5180266E-1,2.4687071E-1,5.1308464E-2,-3.2117765E-2,1.6741619E-1,-3.6602548E-1,-4.1884318E-2,-4.0271142E-1,1.7913217E-2,8.859182E-2,-1.600625E-1,-1.1321919E-1,8.45072E-2,7.046342E-2,3.8147473E-1,1.8082674E-1,-6.362147E-2,-1.7387763E-1,9.539081E-2,1.8474883E-1,1.1075435E-2,-6.8956345E-2,-3.7603328E-1,3.5120392E-1,3.1385604E-2,2.1079417E-2,1.6970387E-1,-2.6658672E-1,-3.187769E-2,-6.217462E-3,-1.8917815E-1,7.860303E-2,-1.4009498E-1],"categories":[],"categories_nodes":[],"categories_segments":[],"categories_sizes":[],"default_left":[0,0,0,0,0,0,0,0,0,0,0,0,0,0,0,0,0,0,0,0,0,0,0,0,0,0,0,0,0,0,0,0,0,0,0,0,0,0,0,0,0,0,0,0,0,0,0,0,0,0,0,0,0,0,0,0,0,0,0,0,0,0,0,0,0,0,0,0,0,0,0,0,0,0,0,0,0,0,0,0,0,0,0,0,0,0,0,0,0,0,0,0,0,0,0,0,0,0,0,0,0,0,0],"id":17,"left_children":[1,3,5,7,9,11,13,15,17,19,21,23,25,27,29,31,33,35,37,39,41,43,45,47,49,51,53,55,57,-1,59,61,-1,63,-1,65,67,69,71,-1,-1,-1,-1,73,75,77,79,81,83,85,87,89,91,93,95,-1,-1,-1,97,99,101,-1,-1,-1,-1,-1,-1,-1,-1,-1,-1,-1,-1,-1,-1,-1,-1,-1,-1,-1,-1,-1,-1,-1,-1,-1,-1,-1,-1,-1,-1,-1,-1,-1,-1,-1,-1,-1,-1,-1,-1,-1,-1],"loss_changes":[3.557456E0,3.9276986E0,4.023139E0,3.1018593E0,3.6445394E0,4.7450686E0,4.30875E0,3.6593146E0,3.5703533E0,4.2511353E0,2.4551616E0,3.8470292E0,3.515236E0,1.3186302E0,3.7854714E0,2.1715643E0,5.0541353E-1,2.566723E0,3.3451643E0,4.1659384E0,8.4625524E-1,2.4576845E0,2.9858217E0,2.057909E0,1.3152106E0,7.546139E0,2.4713326E0,3.049364E-1,5.4252286E0,0E0,2.8794477E0,2.6747336E0,0E0,2.0439672E-1,0E0,5.2822714E0,3.2947955E0,2.57765E0,2.2103949E0,0E0,0E0,0E0,0E0,2.4672382E0,1.8532588E0,5.4790287E0,3.3735056E0,1.9270669E0,6.962745E-1,6.7626625E-1,2.1704736E0,3.5205503E0,5.3284836E-1,9.10027E-1,4.7264595E0,0E0,0E0,0E0,1.489197E0,2.8739212E0,4.459446E0,0E0,0E0,0E0,0E0,0E0,0E0,0E0,0E0,0E0,0E0,0E0,0E0,0E0,0E0,0E0,0E0,0E0,0E0,0E0,0E0,0E0,0E0,0E0,0E0,0E0,0E0,0E0,0E0,0E0,0E0,0E0,0E0,0E0,0E0,0E0,0E0,0E0,0E0,0E0,0E0,0E0,0E0],"parents":[2147483647,0,0,1,1,2,2,3,3,4,4,5,5,6,6,7,7,8,8,9,9,10,10,11,11,12,12,13,13,14,14,15,15,16,16,17,17,18,18,19,19,20,20,21,21,22,22,23,23,24,24,25,25,26,26,27,27,28,28,30,30,31,31,33,33,35,35,36,36,37,37,38,38,43,43,44,44,45,45,46,46,47,47,48,48,49,49,50,50,51,51,52,52,53,53,54,54,58,58,59,59,60,60],"right_children":[2,4,6,8,10,12,14,16,18,20,22,24,26,28,30,32,34,36,38,40,42,44,46,48,50,52,54,56,58,-1,60,62,-1,64,-1,66,68,70,72,-1,-1,-1,-1,74,76,78,80,82,84,86,88,90,92,94,96,-1,-1,-1,98,100,102,-1,-1,-1,-1,-1,-1,-1,-1,-1,-1,-1,-1,-1,-1,-1,-1,-1,-1,-1,-1,-1,-1,-1,-1,-1,-1,-1,-1,-1,-1,-1,-1,-1,-1,-1,-1,-1,-1,-1,-1,-1,-1],"split_conditions":[1E0,9.475E1,3.6348E3,1E0,9.545E1,1E0,1E0,6E1,1E0,1E0,1.0005E2,1E0,1E0,9.475E1,3.7E1,5.8E1,1E0,9.5196014E2,1E0,1.2E1,1E0,4.85925E3,4.04565E3,3.9E1,4.065E1,9.055E1,4.94E1,6.105E1,9.635E1,-3.073446E-1,1E0,8.545E1,2.6715901E-1,1E0,-6.577789E-3,1E0,4.76E1,2.2833005E3,9.255E1,-1.1588169E-2,-5.8243847E-1,-1.3074967E-1,1.1944957E-1,1E0,5.1166E3,1E0,5.5E1,7.425E1,1E0,5.515452E2,1E0,4.1645E2,1.3E1,1E0,1E0,-4.2853415E-2,-2.692961E-1,3.768386E-1,5.6861196E3,7.03065E3,1.113E2,-1.0630172E-2,-1.2649131E-1,-2.679518E-1,-6.821364E-2,-8.4478185E-2,1.5643658E-1,-3.2610524E-1,-3.415231E-2,-2.4299778E-2,1.5180266E-1,2.4687071E-1,5.1308464E-2,-3.2117765E-2,1.6741619E-1,-3.6602548E-1,-4.1884318E-2,-4.0271142E-1,1.7913217E-2,8.859182E-2,-1.600625E-1,-1.1321919E-1,8.45072E-2,7.046342E-2,3.8147473E-1,1.8082674E-1,-6.362147E-2,-1.7387763E-1,9.539081E-2,1.8474883E-1,1.1075435E-2,-6.8956345E-2,-3.7603328E-1,3.5120392E-1,3.1385604E-2,2.1079417E-2,1.6970387E-1,-2.6658672E-1,-3.187769E-2,-6.217462E-3,-1.8917815E-1,7.860303E-2,-1.4009498E-1],"split_indices":[17,2,3,21,2,26,9,1,23,15,2,4,23,2,1,1,29,3,9,1,9,3,3,1,2,2,2,2,2,0,4,2,0,0,0,4,2,3,2,0,0,0,0,19,3,13,1,2,27,3,0,3,1,27,9,0,0,0,3,3,2,0,0,0,0,0,0,0,0,0,0,0,0,0,0,0,0,0,0,0,0,0,0,0,0,0,0,0,0,0,0,0,0,0,0,0,0,0,0,0,0,0,0],"split_type":[0,0,0,0,0,0,0,0,0,0,0,0,0,0,0,0,0,0,0,0,0,0,0,0,0,0,0,0,0,0,0,0,0,0,0,0,0,0,0,0,0,0,0,0,0,0,0,0,0,0,0,0,0,0,0,0,0,0,0,0,0,0,0,0,0,0,0,0,0,0,0,0,0,0,0,0,0,0,0,0,0,0,0,0,0,0,0,0,0,0,0,0,0,0,0,0,0,0,0,0,0,0,0],"sum_hessian":[9.418587E2,6.13183E2,3.2867572E2,5.4825964E2,6.492332E1,1.8549825E2,1.4317747E2,4.2599576E2,1.22263885E2,7.7100153E0,5.72133E1,4.3384094E1,1.4211415E2,1.73161E1,1.2586138E2,4.184605E2,7.53524E0,6.528949E1,5.6974392E1,4.7027736E0,3.007242E0,2.9007904E1,2.8205395E1,2.0346478E1,2.3037615E1,5.9121544E1,8.29926E1,6.847432E0,1.0468667E1,2.3765614E0,1.23484825E2,4.1700375E2,1.4567631E0,6.5270915E0,1.008149E0,3.1237934E1,3.4051556E1,3.4028923E1,2.2945469E1,1.6671604E0,3.035613E0,1.1085038E0,1.8987381E0,2.0867775E1,8.14013E0,1.0478602E1,1.7726791E1,1.7474112E1,2.8723655E0,2.3552802E0,2.0682335E1,5.4844643E1,4.2769017E0,5.63761E0,7.735499E1,1.0422511E0,5.8051815E0,1.0944707E0,9.374196E0,4.9144054E1,7.434077E1,3.9920923E2,1.7794514E1,5.1136885E0,1.4134028E0,1.4007375E1,1.723056E1,2.9688904E0,3.1082666E1,2.4368328E1,9.660597E0,1.400572E1,8.93975E0,1.1508581E1,9.359193E0,1.1954114E0,6.944719E0,5.971544E0,4.507059E0,8.912873E0,8.813918E0,5.855593E0,1.1618519E1,1.7577631E0,1.1146022E0,1.1450443E0,1.2102358E0,1.8200106E1,2.4822288E0,1.3102369E1,4.1742275E1,1.1817328E0,3.0951688E0,4.453196E0,1.1844136E0,3.567621E1,4.1678783E1,4.307422E0,5.066774E0,4.057823E1,8.565823E0,6.566922E1,8.671545E0],"tree_param":{"num_deleted":"0","num_feature":"30","num_nodes":"103","size_leaf_vector":"1"}},{"base_weights":[-3.7854246E-3,3.014111E-3,-4.8351362E-1,-4.152247E-2,8.204886E-2,-2.1641897E-1,-6.7555684E-1,6.5159276E-2,-1.099586E-1,6.573909E-3,2.127434E-1,-4.828099E-1,1.4623107E-1,-2.5192112E-1,-2.62618E-1,1.4610513E-2,4.0365836E-1,-4.743423E-1,-8.6382344E-2,7.025607E-2,-2.3997407E-1,2.6148683E-1,-1.3539806E-1,-2.2999892E-2,-1.8148108E-1,1.3072583E-1,-8.371396E-2,-1.855188E-1,4.756394E-2,-2.4800727E-2,4.0798408E-1,6.005632E-1,-6.692287E-1,-6.84361E-1,5.464359E-1,-7.64658E-2,-7.294156E-1,-1.7007236E-1,1.7787431E-1,-3.6736026E-1,4.2077035E-1,1.0384235E-1,4.6759245E-1,-4.1334698E-1,3.898351E-1,1.8604115E-2,-7.748966E-2,2.8082797E-1,-7.685276E-3,2.3131427E-1,6.2341895E-2,-2.959123E-1,6.5457046E-2,-2.9159683E-1,8.183288E-2,2.0781837E-3,2.5097227E-1,-2.7827391E-2,1.8500343E-1,-1.6160693E-2,-3.617038E-1,6.3444346E-2,-1.15471445E-1,2.8379753E-1,4.209716E-2,-3.2334867E-1,-7.0243426E-2,2.6435816E-1,-1.2421106E-1,-8.181608E-2,1.0575842E-1,4.7213737E-2,1.9919764E-1,-1.0159305E-2,-2.2516797E-1,1.9809507E-1,-9.322445E-2],"categories":[],"categories_nodes":[],"categories_segments":[],"categories_sizes":[],"default_left":[0,0,0,0,0,0,0,0,0,0,0,0,0,0,0,0,0,0,0,0,0,0,0,0,0,0,0,0,0,0,0,0,0,0,0,0,0,0,0,0,0,0,0,0,0,0,0,0,0,0,0,0,0,0,0,0,0,0,0,0,0,0,0,0,0,0,0,0,0,0,0,0,0,0,0,0,0],"id":18,"left_children":[1,3,5,7,9,11,13,15,17,19,21,23,25,-1,27,29,31,33,35,37,39,41,43,-1,-1,-1,-1,-1,-1,45,47,49,51,53,55,57,59,61,63,65,67,69,71,73,75,-1,-1,-1,-1,-1,-1,-1,-1,-1,-1,-1,-1,-1,-1,-1,-1,-1,-1,-1,-1,-1,-1,-1,-1,-1,-1,-1,-1,-1,-1,-1,-1],"loss_changes":[3.0346498E0,3.2342699E0,5.207083E-1,4.2980847E0,3.2651112E0,7.3811734E-1,2.602954E-1,3.934895E0,3.038093E0,3.328975E0,2.0920515E0,1.6273743E-1,5.763862E-1,0E0,6.183908E-1,3.1328745E0,6.715673E0,4.9956446E0,2.0986233E0,4.3863125E0,3.818455E0,3.41673E0,2.430305E0,0E0,0E0,0E0,0E0,0E0,0E0,3.7463872E0,4.237357E0,1.5659208E0,1.6526623E0,5.3095884E0,6.5706074E-1,3.8272226E0,1.5482535E0,4.393339E0,3.236705E0,3.2521453E0,3.2482948E0,5.8755918E0,2.6942034E0,1.3374127E0,1.3220043E0,0E0,0E0,0E0,0E0,0E0,0E0,0E0,0E0,0E0,0E0,0E0,0E0,0E0,0E0,0E0,0E0,0E0,0E0,0E0,0E0,0E0,0E0,0E0,0E0,0E0,0E0,0E0,0E0,0E0,0E0,0E0,0E0],"parents":[2147483647,0,0,1,1,2,2,3,3,4,4,5,5,6,6,7,7,8,8,9,9,10,10,11,11,12,12,14,14,15,15,16,16,17,17,18,18,19,19,20,20,21,21,22,22,29,29,30,30,31,31,32,32,33,33,34,34,35,35,36,36,37,37,38,38,39,39,40,40,41,41,42,42,43,43,44,44],"right_children":[2,4,6,8,10,12,14,16,18,20,22,24,26,-1,28,30,32,34,36,38,40,42,44,-1,-1,-1,-1,-1,-1,46,48,50,52,54,56,58,60,62,64,66,68,70,72,74,76,-1,-1,-1,-1,-1,-1,-1,-1,-1,-1,-1,-1,-1,-1,-1,-1,-1,-1,-1,-1,-1,-1,-1,-1,-1,-1,-1,-1,-1,-1,-1,-1],"split_conditions":[7.1E1,1E0,1E0,2.929812E2,1E0,7.544E3,1E0,2.2065E2,3.594E2,1.0235E2,1E0,6.66835E3,1E0,-2.5192112E-1,1E0,7.578981E1,1E0,1E0,1.0745E2,1E0,7.13865E3,1E0,1E0,-2.2999892E-2,-1.8148108E-1,1.3072583E-1,-8.371396E-2,-1.855188E-1,4.756394E-2,9.71E1,8.045E1,1E0,2.72E2,1E0,3.025E1,1.045E2,1E0,4.94E1,7.425E1,1E0,1E0,1E0,1E0,1E0,1.019E2,1.8604115E-2,-7.748966E-2,2.8082797E-1,-7.685276E-3,2.3131427E-1,6.2341895E-2,-2.959123E-1,6.5457046E-2,-2.9159683E-1,8.183288E-2,2.0781837E-3,2.5097227E-1,-2.7827391E-2,1.8500343E-1,-1.6160693E-2,-3.617038E-1,6.3444346E-2,-1.15471445E-1,2.8379753E-1,4.209716E-2,-3.2334867E-1,-7.0243426E-2,2.6435816E-1,-1.2421106E-1,-8.181608E-2,1.0575842E-1,4.7213737E-2,1.9919764E-1,-1.0159305E-2,-2.2516797E-1,1.9809507E-1,-9.322445E-2],"split_indices":[1,15,13,3,13,3,28,3,3,2,0,3,28,0,19,2,23,8,2,10,3,28,27,0,0,0,0,0,0,3,2,29,3,17,2,2,28,2,2,17,6,17,4,5,2,0,0,0,0,0,0,0,0,0,0,0,0,0,0,0,0,0,0,0,0,0,0,0,0,0,0,0,0,0,0,0,0],"split_type":[0,0,0,0,0,0,0,0,0,0,0,0,0,0,0,0,0,0,0,0,0,0,0,0,0,0,0,0,0,0,0,0,0,0,0,0,0,0,0,0,0,0,0,0,0,0,0,0,0,0,0,0,0,0,0,0,0,0,0,0,0,0,0,0,0,0,0,0,0,0,0,0,0,0,0,0,0],"sum_hessian":[9.288769E2,9.168751E2,1.2001819E1,5.8672595E2,3.3014914E2,5.90962E0,6.092199E0,2.2931143E2,3.5741455E2,2.0995326E2,1.2019588E2,3.2159495E0,2.6936705E0,3.6195436E0,2.4726553E0,2.0042474E2,2.8886677E1,2.0558123E1,3.368564E2,1.6742358E2,4.252967E1,1.0565235E2,1.4543526E1,1.1197813E0,2.0961683E0,1.5879738E0,1.1056966E0,1.0865194E0,1.386136E0,1.8302484E2,1.7399906E1,2.477923E1,4.1074467E0,1.7323492E1,3.234631E0,3.328424E2,4.014019E0,5.1603825E1,1.1581976E2,3.6027817E1,6.5018525E0,6.0716106E1,4.4936245E1,9.649901E0,4.893624E0,1.3395491E2,4.906993E1,7.3225102E0,1.0077395E1,1.6607313E1,8.171918E0,2.9438608E0,1.163586E0,1.3308617E1,4.0148764E0,1.4892554E0,1.7453758E0,3.2604498E2,6.7974253E0,2.1200228E0,1.8939962E0,1.8594547E1,